tree
version=v4
num_class=1
num_tree_per_iteration=1
label_index=0
max_feature_idx=775
objective=regression
feature_names=Column_0 Column_1 Column_2 Column_3 Column_4 Column_5 Column_6 Column_7 Column_8 Column_9 Column_10 Column_11 Column_12 Column_13 Column_14 Column_15 Column_16 Column_17 Column_18 Column_19 Column_20 Column_21 Column_22 Column_23 Column_24 Column_25 Column_26 Column_27 Column_28 Column_29 Column_30 Column_31 Column_32 Column_33 Column_34 Column_35 Column_36 Column_37 Column_38 Column_39 Column_40 Column_41 Column_42 Column_43 Column_44 Column_45 Column_46 Column_47 Column_48 Column_49 Column_50 Column_51 Column_52 Column_53 Column_54 Column_55 Column_56 Column_57 Column_58 Column_59 Column_60 Column_61 Column_62 Column_63 Column_64 Column_65 Column_66 Column_67 Column_68 Column_69 Column_70 Column_71 Column_72 Column_73 Column_74 Column_75 Column_76 Column_77 Column_78 Column_79 Column_80 Column_81 Column_82 Column_83 Column_84 Column_85 Column_86 Column_87 Column_88 Column_89 Column_90 Column_91 Column_92 Column_93 Column_94 Column_95 Column_96 Column_97 Column_98 Column_99 Column_100 Column_101 Column_102 Column_103 Column_104 Column_105 Column_106 Column_107 Column_108 Column_109 Column_110 Column_111 Column_112 Column_113 Column_114 Column_115 Column_116 Column_117 Column_118 Column_119 Column_120 Column_121 Column_122 Column_123 Column_124 Column_125 Column_126 Column_127 Column_128 Column_129 Column_130 Column_131 Column_132 Column_133 Column_134 Column_135 Column_136 Column_137 Column_138 Column_139 Column_140 Column_141 Column_142 Column_143 Column_144 Column_145 Column_146 Column_147 Column_148 Column_149 Column_150 Column_151 Column_152 Column_153 Column_154 Column_155 Column_156 Column_157 Column_158 Column_159 Column_160 Column_161 Column_162 Column_163 Column_164 Column_165 Column_166 Column_167 Column_168 Column_169 Column_170 Column_171 Column_172 Column_173 Column_174 Column_175 Column_176 Column_177 Column_178 Column_179 Column_180 Column_181 Column_182 Column_183 Column_184 Column_185 Column_186 Column_187 Column_188 Column_189 Column_190 Column_191 Column_192 Column_193 Column_194 Column_195 Column_196 Column_197 Column_198 Column_199 Column_200 Column_201 Column_202 Column_203 Column_204 Column_205 Column_206 Column_207 Column_208 Column_209 Column_210 Column_211 Column_212 Column_213 Column_214 Column_215 Column_216 Column_217 Column_218 Column_219 Column_220 Column_221 Column_222 Column_223 Column_224 Column_225 Column_226 Column_227 Column_228 Column_229 Column_230 Column_231 Column_232 Column_233 Column_234 Column_235 Column_236 Column_237 Column_238 Column_239 Column_240 Column_241 Column_242 Column_243 Column_244 Column_245 Column_246 Column_247 Column_248 Column_249 Column_250 Column_251 Column_252 Column_253 Column_254 Column_255 Column_256 Column_257 Column_258 Column_259 Column_260 Column_261 Column_262 Column_263 Column_264 Column_265 Column_266 Column_267 Column_268 Column_269 Column_270 Column_271 Column_272 Column_273 Column_274 Column_275 Column_276 Column_277 Column_278 Column_279 Column_280 Column_281 Column_282 Column_283 Column_284 Column_285 Column_286 Column_287 Column_288 Column_289 Column_290 Column_291 Column_292 Column_293 Column_294 Column_295 Column_296 Column_297 Column_298 Column_299 Column_300 Column_301 Column_302 Column_303 Column_304 Column_305 Column_306 Column_307 Column_308 Column_309 Column_310 Column_311 Column_312 Column_313 Column_314 Column_315 Column_316 Column_317 Column_318 Column_319 Column_320 Column_321 Column_322 Column_323 Column_324 Column_325 Column_326 Column_327 Column_328 Column_329 Column_330 Column_331 Column_332 Column_333 Column_334 Column_335 Column_336 Column_337 Column_338 Column_339 Column_340 Column_341 Column_342 Column_343 Column_344 Column_345 Column_346 Column_347 Column_348 Column_349 Column_350 Column_351 Column_352 Column_353 Column_354 Column_355 Column_356 Column_357 Column_358 Column_359 Column_360 Column_361 Column_362 Column_363 Column_364 Column_365 Column_366 Column_367 Column_368 Column_369 Column_370 Column_371 Column_372 Column_373 Column_374 Column_375 Column_376 Column_377 Column_378 Column_379 Column_380 Column_381 Column_382 Column_383 Column_384 Column_385 Column_386 Column_387 Column_388 Column_389 Column_390 Column_391 Column_392 Column_393 Column_394 Column_395 Column_396 Column_397 Column_398 Column_399 Column_400 Column_401 Column_402 Column_403 Column_404 Column_405 Column_406 Column_407 Column_408 Column_409 Column_410 Column_411 Column_412 Column_413 Column_414 Column_415 Column_416 Column_417 Column_418 Column_419 Column_420 Column_421 Column_422 Column_423 Column_424 Column_425 Column_426 Column_427 Column_428 Column_429 Column_430 Column_431 Column_432 Column_433 Column_434 Column_435 Column_436 Column_437 Column_438 Column_439 Column_440 Column_441 Column_442 Column_443 Column_444 Column_445 Column_446 Column_447 Column_448 Column_449 Column_450 Column_451 Column_452 Column_453 Column_454 Column_455 Column_456 Column_457 Column_458 Column_459 Column_460 Column_461 Column_462 Column_463 Column_464 Column_465 Column_466 Column_467 Column_468 Column_469 Column_470 Column_471 Column_472 Column_473 Column_474 Column_475 Column_476 Column_477 Column_478 Column_479 Column_480 Column_481 Column_482 Column_483 Column_484 Column_485 Column_486 Column_487 Column_488 Column_489 Column_490 Column_491 Column_492 Column_493 Column_494 Column_495 Column_496 Column_497 Column_498 Column_499 Column_500 Column_501 Column_502 Column_503 Column_504 Column_505 Column_506 Column_507 Column_508 Column_509 Column_510 Column_511 Column_512 Column_513 Column_514 Column_515 Column_516 Column_517 Column_518 Column_519 Column_520 Column_521 Column_522 Column_523 Column_524 Column_525 Column_526 Column_527 Column_528 Column_529 Column_530 Column_531 Column_532 Column_533 Column_534 Column_535 Column_536 Column_537 Column_538 Column_539 Column_540 Column_541 Column_542 Column_543 Column_544 Column_545 Column_546 Column_547 Column_548 Column_549 Column_550 Column_551 Column_552 Column_553 Column_554 Column_555 Column_556 Column_557 Column_558 Column_559 Column_560 Column_561 Column_562 Column_563 Column_564 Column_565 Column_566 Column_567 Column_568 Column_569 Column_570 Column_571 Column_572 Column_573 Column_574 Column_575 Column_576 Column_577 Column_578 Column_579 Column_580 Column_581 Column_582 Column_583 Column_584 Column_585 Column_586 Column_587 Column_588 Column_589 Column_590 Column_591 Column_592 Column_593 Column_594 Column_595 Column_596 Column_597 Column_598 Column_599 Column_600 Column_601 Column_602 Column_603 Column_604 Column_605 Column_606 Column_607 Column_608 Column_609 Column_610 Column_611 Column_612 Column_613 Column_614 Column_615 Column_616 Column_617 Column_618 Column_619 Column_620 Column_621 Column_622 Column_623 Column_624 Column_625 Column_626 Column_627 Column_628 Column_629 Column_630 Column_631 Column_632 Column_633 Column_634 Column_635 Column_636 Column_637 Column_638 Column_639 Column_640 Column_641 Column_642 Column_643 Column_644 Column_645 Column_646 Column_647 Column_648 Column_649 Column_650 Column_651 Column_652 Column_653 Column_654 Column_655 Column_656 Column_657 Column_658 Column_659 Column_660 Column_661 Column_662 Column_663 Column_664 Column_665 Column_666 Column_667 Column_668 Column_669 Column_670 Column_671 Column_672 Column_673 Column_674 Column_675 Column_676 Column_677 Column_678 Column_679 Column_680 Column_681 Column_682 Column_683 Column_684 Column_685 Column_686 Column_687 Column_688 Column_689 Column_690 Column_691 Column_692 Column_693 Column_694 Column_695 Column_696 Column_697 Column_698 Column_699 Column_700 Column_701 Column_702 Column_703 Column_704 Column_705 Column_706 Column_707 Column_708 Column_709 Column_710 Column_711 Column_712 Column_713 Column_714 Column_715 Column_716 Column_717 Column_718 Column_719 Column_720 Column_721 Column_722 Column_723 Column_724 Column_725 Column_726 Column_727 Column_728 Column_729 Column_730 Column_731 Column_732 Column_733 Column_734 Column_735 Column_736 Column_737 Column_738 Column_739 Column_740 Column_741 Column_742 Column_743 Column_744 Column_745 Column_746 Column_747 Column_748 Column_749 Column_750 Column_751 Column_752 Column_753 Column_754 Column_755 Column_756 Column_757 Column_758 Column_759 Column_760 Column_761 Column_762 Column_763 Column_764 Column_765 Column_766 Column_767 Column_768 Column_769 Column_770 Column_771 Column_772 Column_773 Column_774 Column_775
feature_infos=[-1.7347771562490975:1.73068964834398] [-1.3874847210700088:0.72072865727041224] [-0.71834068220878211:1.3920971271251972] [-0.66366684046409885:1.5067801177179574] [-0.57784676406678981:25.764534278649673] [-0.55047821464359381:448.63024475622876] [-1.3767068487966756:8.5856406681058175] [-1.7584862329163691:15.932693634118804] [-1.3482914207373724:9.5215805903965069] [-1.4702583432866951:3.7301728368709055] [-2.1006358011978041:1.957890553831739] [-7.32259207204938:1.0538036586951924] [-5.5831117456092407:1.4150250281157684] [-2.7828408190568767:1.9826155334617415] [-1.4095038895117713:11.360100820339529] none [-2.1354893177074286:0.4682767512382397] [-0.50001905441815475:1.9999237852318363] [-22.954470704459478:0.043564498300791704] [-0.62550609521513223:1.5987054445185973] [-0.24555615563781438:4.0723882380491423] [-1.2660832746260435:19.614670348276604] [-2.0650641098449554:1.8601891988332748] [-2.0488620752828153:1.9242917004047511] [-3.6921475447103416:3.3495019694292698] [-0.12374131550822225:8.0813752132249874] [-0.23062796380298564:4.3359876378835471] [-0.2052322840884801:4.8725277528406705] [-0.29152887365260011:3.4301919651075394] [-0.54716825627935561:1.8275914008605281] [-0.46768946398999839:2.1381708954242877] [-3.5162834098615452:3.1835080456297895] [-2.6942214551100383:1.783027805917468] [-2.9476386434512398:2.1787922517183276] [-1.3210943981247443:11.589228999048959] [-1.5248449307455196:17.216683052595126] [-23.05959161761109:0.47951756081111024] [-11.53494478804579:3.7569880168221776] [-0.64935505320288289:22.348048169608344] [-0.36882676570695772:9.6416372886543975] [-2.0271845737846816:12.070499455176229] [-1.8402673910118976:7.5194562490816779] [-2.343300342257534:8.5168632032380724] [-1.0543498022076119:17.928896781151376] [-1.5650277056697892:17.154715542157494] [-1.1388113769995665:11.387148567654645] [-0.10053326554105814:36.954850777559528] [-0.30599703035872927:20.42152631584657] [-1.2798321512017725:11.658898399860814] [-1.4648835680875572:16.850714339561804] [-21.273066292356251:0.44964682800193267] [-12.000068331790079:3.7255615895745393] [-0.61278127930215176:22.826138252331646] [-0.35623851802292794:9.8922951539907835] [-1.9807473828218647:12.014247897945237] [-1.8419328060355009:7.6221299870376393] [-2.3386710218859119:8.5628483370137207] [-1.0093702367525437:17.821862836811849] [-1.519715220102432:16.119146861584255] [-1.1086275643628651:11.278350966059245] [-0.095094051305327137:37.997378516444122] [-0.26124366013767547:20.198255115158716] [-1.304010514955025:11.491532717984741] [-1.5200399830031814:17.276322090166708] [-22.826213538125636:0.4744715748576398] [-11.708700169810372:3.7461367153930252] [-0.64290971381439299:22.302159225759681] [-0.3656196319349132:9.6690389731136754] [-2.017689895111729:12.039374830199323] [-1.8340723236289684:7.5033187884155668] [-2.3344714815530092:8.4891225846182738] [-1.0551838000986657:17.710722611909997] [-1.5584607245263424:16.924416965496917] [-1.13134926232791:11.205184983573721] [-0.099318862941957409:37.091218064034116] [-0.2960764986981983:20.218786847526658] [-1.0911442017386195:11.555083303123912] [-0.58683392859743699:142.88385305905459] [-0.31991616809528034:75.508501869127045] [-0.58498889728484604:142.49914348014124] [-0.27504123643055439:65.830249414266163] [-4.0294240118374711:1.1642460813587128] none [-1.5639626186089337:0.63940147168571704] none [-0.12380902641976274:8.0769555251132843] [-0.3106662428994339:3.2188885109210634] [-0.013526144251242316:73.930898667456901] [-0.29763254793847138:3.3598475937071473] [-0.062689221889795754:15.951705410508135] none [-0.062787177068785907:15.926818925215558] none [-0.059194884327635894:16.893351703588625] [-0.054178971074581778:18.457345722262211] [-0.034590860468998487:28.909370464959483] [-0.10062647906052423:9.937742126488649] [-0.015488384588685178:64.564512475402793] [-0.090146084106086752:11.093105262599849] [-0.024452118689472259:40.896251678614085] [-0.022993998023267979:43.489609722853956] [-0.018036142314877684:55.444228734828684] [-0.070447717670835464:50.976653270882558] [-0.058494436046951911:84.809994199322404] [-0.15507061914252643:41.220360684715622] [-0.26973194225993258:31.219229923296123] [-0.29473955834031307:24.041762277807681] [-1.0083709509569672:13.161161015342493] [-3.0746014588958435:0.32524540606935171] [-0.32524540606935176:3.0746014588958426] [-0.10393370724620278:9.6215176625149681] [-0.38698867916159424:2.5840549190391986] [-0.029644604064733387:33.732951798457194] [-0.05257050790092839:19.022072259308345] [-0.076572371202234327:13.059540723362378] [-0.1953291447516716:5.1195637050033298] [-2.0558394938709807:0.4864192963416033] none [-0.55169504363330923:1.8125955843545007] none [-0.46815414793953847:2.1360485737470154] [-0.2763392224894981:3.6187407310158575] none none [-1.032070263988855:0.96892627846392287] [-0.0225472408645392:44.351324670183196] [-0.56714668875333607:1.7632122691188294] [-0.18669836607074974:5.3562332710563068] [-0.11176427901743817:8.9474025940253537] [-1.5650744562095229:0.63894723732308201] [-0.32705325394645041:3.0576060257261144] [-1.3293763486244492:0.75223242916479904] [-0.26158292054602839:3.8228795592334519] [-0.417349917737598:2.3960709167522434] none [-0.23504213077542055:4.2545563925111187] [-0.060966722522962348:16.402390658664032] [-2.8123568420114529:0.35557365447436595] [-0.19448650148975594:5.1417450174693586] [-0.092298115595749047:10.834457383505427] [-0.12584110213740896:7.9465292580485851] [-0.22468174847116895:4.45073979886853] [-0.18170887496808308:5.5033085212576927] [-0.12478695521268987:8.0136581447602087] [-0.14037669963547358:7.1236893487079582] [-0.31437266365767952:3.1809381527170584] [-0.25328864671288287:3.9480648381905454] [-0.043564498300791794:22.954470704459478] [-0.19595630159813449:5.1031785752457779] [-0.041255841881187867:24.238991483433697] [-0.46730858422329813:2.139913611178522] [-0.083615129413536202:11.959558120807174] [-0.27289828695171997:3.6643689162362376] [-0.16877024054449868:5.9252152321032918] [-0.093566363455898263:10.687601431377008] [-0.049363633449559768:20.257828083538651] [-0.34221750621607222:2.9221181904370819] [-0.065471380024672773:15.273849422803542] [-0.14911486276716712:6.7062396158418682] [-0.066465893173209417:15.045310493218089] [-0.44263218202827154:2.2592121418232729] [-0.44449596217155796:2.2497392217345706] [-0.35200986897811265:2.8408294429443339] [-0.23518653257818814:4.2519441442402686] [-0.44317059145894039:2.2564674174519306] [-0.46084577266682086:2.1699233437972176] [-0.45127925231304428:2.2159228346405744] [-0.037853870810371414:26.417377631193659] [-0.090466335708165035:11.053835575101617] [-0.090374947303496836:11.065013367496672] [-0.14079765729722188:7.1023909005035035] [-0.18815080549269253:5.314885564169634] [-0.53324143908413479:1.8753231213942101] [-0.028595885914190395:34.970065379361472] [-0.14992471693893455:6.6700142606059245] [-0.035174937122361145:28.429332979938344] [-0.056325577850474526:17.753923495550531] [-0.04266548804221075:23.438147455635765] [-0.18674499534975822:5.3548958467512398] [-0.055924717523880611:17.881181064043588] [-0.098397559617285246:10.162853671264553] [-0.058673977671134171:17.043330615915789] [-0.019236633426457535:51.984148048723938] [-0.094687206922232287:10.561088794406109] [-0.034590860468998494:28.90937046495949] [-0.015356534933163406:65.11885684839207] [-0.038547559536210418:25.941979519108841] [-0.1034129703985532:9.6699668924120807] [-0.054027823797045009:18.508981663901359] [-0.044399528552897409:22.522761673214717] [-0.018808946330741743:53.166189238659165] [-0.06509458835399981:15.362260139994481] [-0.0090169712585254375:110.90198375141898] [-0.10459106774866248:9.5610459050198244] [-0.043891105495521707:22.783659438745104] [-0.15170092282920822:6.5919177111786293] [-0.031444577985535731:31.801985081815772] [-0.19393428652739425:5.1563857939000615] [-0.093101055418968223:10.741016796209829] [-0.032401546600406859:30.862724311667385] [-0.23913533514497423:4.1817324879811535] [-0.087590404949448045:11.416775622594049] [-0.084326994315550699:11.858598875918791] [-0.036594564466882473:27.326462674668139] [-0.016991037079191317:58.854559338504757] [-0.077798141776779239:12.853777444572259] [-0.17270405677261905:5.7902519413113316] [-0.10325223779020448:9.6850201158048836] [-0.079989199118697035:12.501687865584032] [-0.37810756506091386:2.6447500457677924] [-0.071089838922768045:14.066707917096272] [-0.043046290190504682:23.230805618194346] [-0.033996799423815123:29.414533631053789] [-0.078009399755320952:12.818968010733744] [-0.10702661915170386:9.343469950990043] [-0.014399855798871953:69.445139865799064] [-0.01226483068305965:81.533942525697739] [-0.044993043363995081:22.225658129190553] [-0.16152299138701912:6.1910690943305884] [-0.02621927096682999:38.139885783441528] [-0.085757543747209328:11.660781737729534] [-0.062295885081319113:16.052424629566325] [-0.13328547145262282:7.5026931975512152] [-0.066465893173209431:15.045310493218091] [-0.4681993186246744:2.1358424931874715] [-0.13673487614013513:7.3134230872826667] [-0.13634873591661512:7.3341347338310241] [-0.56223827505407276:1.7786053429105755] [-0.20197323275842127:4.9511511319724875] [-0.98004101323634241:1.0203654607246975] [-0.069601689973023809:14.367467232298241] [-0.062689221889795768:15.951705410508136] [-0.17621716829578812:5.6748159652722174] [-0.086021700771062998:11.624973594295541] [-0.076491763507270175:13.073302982548633] [-0.073084046275549777:13.682876783117429] [-0.52329597881927059:1.9109644263965726] [-0.51673544299714314:1.9352262623981233] [-0.13333285065639325:7.5000271506761687] [-1.0382970932474114:0.96311547677781484] [-0.08733085255325454:11.450706946782612] [-1.1401438665334072:4.6900707601714533] [-0.70123154109344366:383.14689072678232] [-0.84205527842719896:362.53544862685948] [-1.9101435007679015:14.698091568231078] [-1.4084323224843234:3.1476088920154441] [-1.4504223479199327:2.20439499626307] [-4.8979020260659283:0.98315390562473404] [-3.5286288728899144:2.0774020562421667] [-1.2220683215316976:9.1831813214439517] [-18.639600928119492:14.682560735978651] [-5.3659956774910729:3.1057453949940275] [-15.219537656550662:10.983825646266137] [-48.187944723016919:1.2923867292882878] [-0.05840076278164924:33.111438893208948] [-0.0438780046640211:115.91097690583263] [-0.015192721878423941:347.74903840258514] [-0.49395910818982708:199.26341444417537] [-0.44337551403535697:231.46478809186257] [-0.49834922532896753:257.91923262703506] [-0.43143891386530803:136.91477341724828] [-2.8067352048138594:86.810839057457727] [-4.9353627619273697:216.11849364681532] [-0.010443423974335059:296.32950493990057] [-3.50175361396375:88.531999512732739] [-6.4481551258909553:86.60536614754011] [-0.040206256319235259:224.02514223338048] [-0.043957209560948285:332.13724117457821] [-0.17730454323608624:38.803388046790047] [-2.5879163838425989:3.709201515077893] [-28.178928035504832:0.28181656782251213] [-2.8717365718570291:7.5453657266301306] [-0.49705910277253579:16.766097184568348] [-1.4481307153312484:2.0568882535125357] [-0.0080183319227855876:330.5639175581228] [-2.0417772093717046:1.4604332841855909] [-0.10987446102776656:28.563063862118675] none [-60.928624433442238:0.049190069334421362] [-0.045857470607230257:63.400648312680694] [-0.018823577401061664:240.66518864019079] [-0.005731948521417095:251.15236170961936] none [-0.044079988650650333:60.074799716461342] [-0.22847535489953671:11.165888931620259] [-0.0084876448519771754:290.36555197160789] [-2.8064870772612616:1.0950818793845296] [-1.0082485810358108:3.1986489211551876] [-0.0023535640502504985:495.9877343857396] [-0.060356716843317296:48.63155472047417] [-0.002968569873433682:486.01815075222129] [-0.0051035857800030534:444.81658223723014] [-0.026758275572524151:123.36911632428605] [-0.098505010826514292:23.456900086771515] [-0.0023535640502504976:0] [-0.19014122156385699:13.162522036016737] [-0.0074783387531548191:127.47941740069764] [-0.033689275356674771:110.86686043549091] none [-3.2605788168791103:3.8673273378659143] [-0.62084446069453825:35.608136913522877] [-0.26968684138013888:60.527392563493748] [-0.18698810946915936:194.11934647545391] [-0.16990471636010401:109.79842226527221] [-0.15642881709268122:69.003518209845936] [-2.295318209452732:4.6544854898700931] [-1.5485484557763289:6.4302860986023846] none [-3.265190399957961:1.5447753024019173] [-6.3373085306765029:1.0533739148151893] [-5.4539485692416827:1.5630354588490905] [-0.88407823103334959:11.166298454224057] [-12.687350999759403:9.0799986105143446] [-5.9832795400474303:3.435437643591992] [-10.664878493196763:7.0536562027930332] [-164.49442434636359:0.61128185232043131] [-0.064686789163606054:36.877999861845133] [-0.054398262284549477:71.412781388146016] [-0.14338818666651745:228.55215779395192] [-0.62137714344053052:111.13392333819775] [-0.59986248282716759:94.870312359331365] [-0.65023615712737892:164.67163405953789] [-0.5352743478282499:139.48596693662836] [-2.3198661253829704:111.59445446766303] [-5.1336227812615514:221.17572855986785] [-0.011602477779772444:356.34322174570821] [-4.2312745577626831:123.16769714226561] [-7.1721857468090162:96.1062075143534] [-0.06648684388599066:435.94077391423428] [-0.12959569051591038:244.33922497959495] [-0.16888591030831865:48.32512477478511] [-5.937414317249166:2.6279937843146768] [-32.935572661672005:0.33914188724355088] [-2.5372002532527782:11.71202266804575] [-0.5582474495004659:25.976230227262786] [-1.5205258556249448:2.7098150153142675] [-3.6358994964001115:1.629716259354808] [-2.9615559562860763:2.6443328963574086] [-1.3101016691066474:10.931108866712231] [-29.902223264169258:23.908160736244543] [-9.7536515209463168:6.9515460246166034] [-28.251422778497666:21.717687056854714] [-87.694585719988424:1.7687349621297359] [-0.019863573410845985:93.809404058114339] [-0.015678111398910472:178.70361344340333] [-0.011793397488472876:446.76185317860467] [-0.37283582209083416:283.569598103283] [-0.35168348575433545:269.56018017876966] [-0.33666664154975096:349.61354128993827] [-0.094232497033727838:96.512135388595524] [-0.27669179393718946:165.34310424016752] [-0.4095902890513724:148.97481889296492] [-0.003740317674995951:478.87176944148865] [-1.1688531178879733:92.657545962920523] [-1.1253161095057918:65.779638377805654] [-0.035020078657407826:238.64651039887693] [-0.027902637792484086:419.62636238787712] [-0.12817401092502864:44.751336372899544] [-2.7218799495386787:4.5417915890346077] [-15.30412442357953:0.60944591579675333] [-3.3263194734955643:6.5202060490326534] [-0.52986308262086479:20.741736482133462] [-1.1725115243639572:45.115856061696441] [-1.29662547072607:21.334835007630502] [-1.6699843106500796:33.568769849882578] [-0.48537406249311305:43.762032808579669] [-0.91185672187188793:9.9393746734880395] [-1.0318452045793434:26.111358052257902] [-0.51452510537264995:42.197501737200248] [-0.92923798273959124:8.2915076254452806] [-1.0534667141726555:24.034271548669278] [-10.239632878921007:7.0318134028695818] [-41.122080394259626:74.753740151612661] [-37.000822171977816:28.432394244266813] [-0.26803030587381432:136.31245484975611] [-0.23698891157372867:97.00230403540408] [-0.42564940488480402:92.504433076151074] [-0.42828597944273528:87.358035588740492] [-0.82070540314160956:46.126703660574314] [-0.92438286596749408:9.9836246815683936] [-1.149997129045806:25.929369209876548] [-3.5653737238239112:4.081507958973086] [-4.7700815741225266:2.6573531255014275] [-4.6911553751213138:3.8311068713124428] [-0.54264798539803594:14.831038728954208] [-1.1142557364515828:7.2402955047926172] [-1.1430214317230869:13.090655767974622] [-1.6444079486580414:1.8282032322816717] [-4.6519021579254645:0.91251128855868158] [-3.5678485400283373:1.6331265109495758] [-2.0639358146824875:8.6501217273851712] [-0.87553340534138957:20.361126562742843] [-1.0186160685030607:2.1922125005515949] [-1.714573070276282:1.2192933111627422] [-0.59544989165033879:5.4690681393183338] [-0.025433224074453496:104.119798519005] none [-0.63908085296686679:3.7027802913845549] [-0.63458824009817061:3.7178470917111133] [-0.63258454770138339:3.4620299043983516] [-0.51818214081604708:4.0703353113395666] [-0.63354391980678104:3.7190955491906013] [-0.63981854976703345:3.7218922966378507] [-0.64005368104955895:3.7039191451515023] none [-0.11429268668440117:28.5114417043747] [-28.511441704374704:0.11429268668439571] none [-0.056071040050884001:46.390012177774992] [-0.022558327334083222:127.44717334810005] [-0.013354455225640816:199.43137355148181] [-0.02441547614543926:102.23049436471194] [-0.031211268892062025:87.014150288372576] [-0.033164501784784417:79.692184921190275] [-0.059747805604415102:45.716923320621682] [-0.03221917930964581:72.389857028258504] [-0.046697245582271577:59.750079235937051] [-0.058129748517197065:46.905849096098812] [-0.033071917127781673:74.993146486223907] [-0.020234347126992416:128.04557292701713] [-0.010161686095381603:262.75887559788129] [-0.040095863431094211:62.772834258729866] [-0.050938593159081294:45.305599289035861] [-0.0055623629661441009:432.28823374316437] [-0.14072122143178006:18.56746867172561] [-0.052137911212617981:83.714998781691307] [-0.039074862811025832:62.529686478711739] [-0.0060842053520777052:207.6551346971232] [-0.16792883966082722:14.511684043951783] [-0.10432931774965325:22.610745304840442] [-0.034443165276076673:69.571173765945431] [-2.1922125005515944:1.0186160685030612] [-0.97419387410199476:2.4643446643776903] none [-2.9357542854072398:0.98450431543432659] [-0.688605965247434:4.8086381369691971] [-0.61814373167468917:4.9635099766564075] [-0.22473780300254917:14.635908715051757] none [-2.3255498464622062:1.085457449652506] [-0.040717577571963828:57.679638324729638] [-0.11093981298562353:18.256427316018407] [-1.0727174577776737:2.3712582451906732] none [-0.22473780300254917:14.635908715051757] [-0.45997572476766013:7.249613626989178] [-0.28059490555068944:10.913262843051783] [-0.2381247021290184:14.089811752448496] [-0.13344338217519428:23.800962996571521] [-0.035958837181328918:83.650116519925632] [-0.07766433435250919:52.09787378921262] [-4.6221236427858168:0.66562019934301442] [-0.096233390779661546:47.512160235189086] none [-0.22149051860532837:10.069399767656435] [-0.60707054715625863:3.5334743441526255] [-0.059614974590307811:38.066190549768514] [-0.12143109744466132:18.132638865852627] [-0.16985725765167778:13.134794998221142] [-0.32628290294815249:6.5938368624877866] [-0.98631631420955734:2.4823352212724288] [-1.4962955708255981:1.6250390549843787] [-1.0535273417664897:1.9588721574361512] [-0.48647237213984468:4.371936881266711] [-1.5969595136886061:1.3108064474024508] [-0.04968743221401821:53.104782085747559] none [-0.013875088400189419:140.9532702816563] [-0.0021301568284326977:495.98784608909784] [-0.42329842457868683:4.9420984316735561] [-0.10827176420082649:17.640711621198186] [-0.1952056348818407:8.9141065708628933] [-0.43182540382252266:4.6346032434016715] [-0.19987353020566673:9.0289987510827174] [-0.46915415441392472:4.3439351412432163] [-0.025202140446762503:66.479391429341703] [-0.013805061317126208:96.43772977461532] [-0.020178044077778644:68.482135085356603] [-0.29868842767344306:6.1937935883834498] [-0.066756842931197144:27.169600476781632] [-0.09046787806021192:18.373610372781481] none [-0.010883352114748095:213.30956934669538] [-0.096117578379964957:19.298191399558196] [-0.081846718783462682:18.65961141011455] [-0.05238081826809976:28.984789836241841] [-0.64766379876716407:3.0788540350929807] [-0.0619213003914314:35.611653053738955] [-0.069310994732040623:37.107581742614947] [-0.20745893684479635:10.94272117409569] [-0.069641057389486144:27.327376847858112] [-0.04927855361138675:30.234602000950321] [-0.075344413358592044:23.528882504958833] [-0.011032712415917748:168.96507764610629] [-1.2316470164463782:1.6983653190019088] none [-0.56430575463135724:6.644462351972563] [-0.026657998119912464:81.04324877765977] [-0.83504880260162473:3.1939328613174638] [-1.6633403793479726:1.2885562549437206] [-0.77085006364636877:4.3460361308144311] none [-2.5626089957372971:1.0241733540242821] [-0.45125954787979206:5.1727965661252631] [-0.86601018804575103:3.3521827479630191] none [-0.2469559836410696:8.0524369794682364] [-0.027516895417835609:79.214711356040112] [-0.074426451822404441:20.571829059049936] [-0.33694218949118748:8.9566732028222624] [-1.0589380490933797:1.8008563122759311] [-0.92020176619110439:2.1933744071810377] [-0.4212136229085528:4.2742654417404156] [-0.62324939416614589:2.9483617602359198] none [-0.089365699522359579:19.274130560658318] [-0.19494933657528551:8.9042620195561923] [-0.70754013075597011:2.6798164365335961] [-0.21763356844716661:8.1372574247567151] [-0.92128796186377759:2.1237764583515077] [-0.30731395403546091:5.9202458426420792] [-0.17682795288709111:9.9669155155914435] [-0.063532758522939742:29.065423679306257] [-0.039738030728107623:41.794452918356633] [-0.027503553597723055:61.621238390295311] [-1.0847784470805306:1.8780723246383066] none [-0.96595208745554462:3.2534922652886302] [-0.83525902739848679:2.6788426035334423] [-0.38295198058303015:5.1889472360015212] [-0.78264364657679508:2.9588140271388088] [-0.89247772817639048:2.6009572606376858] none [-0.43480132775762964:6.9210147735823373] [-0.42890388012460645:10.547245921827029] [-0.64667070703618812:5.2330370016668732] [-0.27791759397016796:8.3708683683231264] [-0.191895584862909:13.398580965832355] [-0.21048361351940276:11.78066923290416] [-0.31845279601108556:11.173807442491837] [-0.46277208443385426:8.2420419285300337] [-0.48046022347617934:7.1969869034258283] [-0.72596891675131447:2.7795345336257911] [-0.3767263952109845:5.2937421314283641] [-0.41243474076472469:4.3592666447325144] [-0.14467431493127558:12.612286961637304] [-0.63363946304376573:3.1259126818179301] [-0.19877100109488979:9.2973148618912855] [-0.19425209576482164:8.9688438204308323] [-0.064542623016621156:26.496670136484003] [-0.025433224074453496:104.119798519005] [-1.0734291821867998:38.022458773024013] [-1.2559747977202014:21.610077917760343] [-1.456543407247918:29.978566041594782] [-0.66535001302336538:35.206244820548392] [-0.91166718023187321:11.361682340103499] [-1.0421421615698665:24.402364474720773] [-0.71620774216450622:34.008889352788096] [-0.93063328976416015:10.048882944997748] [-1.0652737600586766:22.480071941766361] [-11.228335651426509:10.811631641877115] [-43.097215951326902:67.779179097293792] [-32.538936817676586:29.431083126075688] [-0.27818735898301761:117.19078704305257] [-0.24640337031129639:111.83577187614233] [-0.44051319900333896:87.686215163451422] [-0.42287585418773282:89.330885009336427] [-0.74650292661462336:35.931803986164304] [-0.91894021475041288:11.391026339689258] [-1.0702807309569764:24.439233111359368] [-3.6332588336605669:3.8441038634597042] [-4.5791446542751819:2.7425024125472968] [-4.5770098295123116:3.6840744667422158] [-0.59024341939825653:13.017283936527617] [-1.0762598485343451:7.2843944483096061] [-1.0750683340219704:11.392946580955559] [-1.6614952699924432:1.8244335950491759] [-4.2446877856024559:1.1000774233179222] [-3.3026313811944403:1.7977300668478351] [-1.8557592545532222:7.9685891858732774] [-1.0968620902096591:11.68761302350142] [-1.8696365380866296:52.814106515441409] [-2.0442042806854412:36.60463778059647] [-2.167245104037351:48.36037891698853] [-1.1080412733839045:22.074277212576693] [-1.4085194581134461:14.800052514221813] [-1.3851558425514885:19.555737156679037] [-1.1519258925444125:18.490774242290172] [-1.4520332140299785:12.28895915757025] [-1.4316983473912868:16.273363374667511] [-20.800041277003277:15.402666214599199] [-22.013668613098343:59.897450704820805] [-20.3961358889166:21.208380613825785] [-0.53333088655728333:163.87497598541199] [-0.37832150805027931:128.49143204036164] [-0.38916313428051336:200.93175493077618] [-0.44048967924201737:112.59237746812327] [-1.2238843990742909:22.542628068955093] [-1.4611669546016313:14.962543445616999] [-1.471081294535056:19.843708677991504] [-6.1357671554682973:6.026708031704179] [-6.8659332228369578:5.0341066065415392] [-6.982252765108198:5.949989766801278] [-1.577090223226818:27.265981563966811] [-1.687394010037413:20.420817238925167] [-1.8248567961245086:26.314098227890266] [-4.0782808675438584:2.0662628400017664] [-5.1485047763174103:1.7061091005392142] [-4.878231786807242:1.9909786794214304] [-2.0520266208340123:6.9531083242001062] [-1.158297669973422:36.70180146751111] [-4.6144535094161645:0.63769316170326851] [-3.2928134716287594:1.5809989457766489] [-1.2095670389960134:11.247487432541867] [-0.10605877636015297:28.378848533035757] [-0.075377402685656542:44.603515598612816] [-0.049030482577046931:110.60725348607883] [-0.017231484118729896:129.38145562858875] [-12.478626807587547:1.3133225067046836] [-0.0065831865965447801:206.82461039524347] [-0.082297829508250625:140.66097065995106] [-0.0042966211821310451:431.40361718156765] [-1.3365717509186763:14.771654851923836] [-0.024726022526779679:69.811793195772424] [-0.085594732754839212:107.30513546312842] [-0.33525452456534227:31.396220210683119] [-0.003028959311170224:347.44317329938912] none [-1.2095670389960134:11.247487432541867] [-0.72683156802350157:28.932188565774467] [-0.17093370931087709:26.481805326540027] [-0.12369606875400323:218.96953542746883] [-0.12371858406107389:238.27389962505777] [-1.3379520824886455:111.29010907626355] [-1.3709851411422582:31.584308500612433] [-0.98977028270556477:25.662412238207821] [-1.2629205477068068:152.76812084040228] [-65.176767030110341:58.930295470554235] [-25.028385584509174:16.70526689838384] [-0.098466828723046809:126.43625057216077] [-0.56980493937377297:15.21119915745396] [-0.80305998975186399:108.55207901283887] [-0.78334563698617055:26.313422804194811] [-0.36172330705436218:174.15279743388359] [-0.57217105168352456:15.062680610374274] [-0.76088327764789909:100.85193247584358] [-0.75969696938845721:27.809772485387629] [-5.2600050973811756:0.62427156619440105] [-3.702040054807143:1.579144935200842] [-10.207806770416726:0.76004966021652309] [-0.97690569366152302:8.3656440750038126] [-3.2647690065900199:2.0476222289886579] [-9.5057046191154431:1.3487365860115328] [-3.4115482038477731:2.0763803986262204] [-7.4657692053881499:1.3894249274620889] [-1.3923122963709005:4.3450265331154885] [-11.365944259539649:36.084083495062373] [-1.5727645213942629:13.095381534060772] [-1.283694021568262:14.774512019665453] [-1.335898974024095:15.714259652270425] [-0.7167328645671871:41.856424910294592] [-1.4083951098137999:11.213331168531607] [-2.3241075585021091:10.245955906273283] [-2.0460991127777479:11.229517464807216] [-2.0667980084833162:9.7527954963882788] [-0.57670925369318993:42.77814931405856] [-1.5194532480940228:184.26021451772922] [-2.2039409515775761:41.717835548634483] [-1.2763066575719508:92.815927546985122] [-1.1487185416121475:51.799627263996172] [-0.49012708344806249:179.35963285355234] [-0.22364984732152401:89.671114537504394] [-1.5252624041513012:30.75536196164677] [-0.97345640465029892:63.498866388323236] [-1.1661044511270828:76.072641936465374] [-0.43307963104306796:139.48710787466567] [-0.017516833295127331:382.40211914187773] [-0.43998306365177442:67.444031439710997] [-0.29385139763270102:80.233228333147935] [-0.2774484512529059:81.623200848549757] [-0.17737008825320008:127.44667844465602] [-0.17565141410394036:166.44808802887405] [-1.166708788496422:53.94121427374246] [-0.81534467039692682:89.02489820709539] [-0.5479326109387308:114.75905199565926] [-0.34526467418181139:107.77876839484901] [-0.33133287011640394:45.011004614839656] [-1.5733609358661234:42.453834655338149] [-1.318848033657255:14.085431826247303] [-1.276015635481093:19.780504715263103] [-0.75770179814746508:26.101296474628825] [-0.42134836045719293:168.35618432243572] [-1.7689600891949366:61.996881986877852] [-1.4107939817817476:74.092945104585624] [-1.2200488289087759:75.453579245501743] [-0.46915196704350781:186.50556315508524] [-0.061866727211412481:123.43610389820731] [-1.1319385880013699:57.915392411231721] [-0.88858548702613482:80.689408582684109] [-1.1720365455172645:78.083825461367468] [-0.31457735884517174:193.66296742749813] [-12.189510886373379:36.651962667083012] [-1.5623673366434523:13.489477824775488] [-1.2809391814682014:14.560911113295665] [-1.3372566375823201:15.893327627188588] [-0.71262233274263431:44.090199113580937] [-11.908584476765967:36.054718829919707] [-1.5719796222864555:13.120593615466587] [-1.2826683630173541:14.59630616647231] [-1.3601151629734394:15.728332486257825] [-0.71708822778276704:42.185438472103044] [-11.908497197900774:36.05440540871529] [-1.5721416165554967:13.120244560819531] [-1.2827273602347564:14.596039367841319] [-1.3600065370163903:15.724210099052979] [-0.71712787851304605:42.185500934370715] [-0.15911896641770185:165.24292286034455] [-2.4639595677292041:29.007896739371898] [-1.4399454249849155:77.262736729382837] [-1.1807234005425717:47.276718797450044] [-0.658174419652512:134.0902254333032] [-0.18000394579287937:134.77210794986871] [-1.2058352993443908:28.04070172813411] [-0.77991363976275363:58.896649437350959] [-0.93587471969984481:81.510992147632308] [-0.42834917596323541:98.859840046965445] [-0.019133804965680498:374.92690830250939] [-0.61715985730808576:62.912158460723333] [-0.34746848607187369:95.870834782838003] [-0.31733655524908599:79.355129946276321] [-0.20760709188829796:224.7857881355099] [-0.27083895618529408:124.42015335157004] [-1.2233585030647547:30.287107313287841] [-0.91155587732360177:60.54705371878601] [-0.62659592692531407:87.007625405924514] [-0.53353010514766075:103.5831165685052] [-0.69175748615604371:21.688009852146376] [-1.4154365940197589:9.0256246577615258] [-1.4173610107976875:8.7403858925431965] [-1.0869792796037605:9.5271985027633761] [-0.86949797969485942:9.3384238570968332] none [-0.22263834498894411:36.327992027200168] [-0.17940679653462141:57.360919081846461] [-0.17400748940432759:63.717186493380183] [-0.16942477507143916:52.813305499893559] none [-0.061442116764320868:214.04947349902059] [-0.024674219411934657:244.8136582066081] [-0.02257178426898012:251.53640777862148] [-0.019494303977566508:225.17033228186901] [-17.137252439825421:0.58607128376367124] [-2.0636249423264128:8.1695664551762679] [-0.6844839731144251:14.564766751904406] [-0.015914370351775748:226.08400986566141] [-0.015931292918520325:221.80501878739105] [-0.016034138961279257:226.08395107390294] [-0.54209940954447389:18.099546932617127] [-0.47757465198980498:16.557660001987646] [-0.61835951242005682:15.2881609452356] [-0.024317466131159905:180.80087008464798] [-0.024120937227413167:184.67230445737479] [-0.024213686997407231:183.1538692084392] [-0.02357774869911063:160.2640685694706] [-0.02363094449488462:149.53446849594852] [-0.023755198133012214:160.26398600351251] [-0.13366428663506436:53.381661338513524] [-0.13457820243985397:26.257155029835499] [-0.13467274515301561:53.381671018389795] [-0.22297578682531058:58.439756675607939] [-0.16130279698983871:85.50706455808195] [-0.28431356543328684:44.934264152033926] none none none [-2.0171594422130421:7.8521720333549743]
tree_sizes=2990 3065 3059 3086 3091 3084 3092 3090 3074 3088 3097 3078 3099 3093 3128 3094 3066 3076 3081 3054 3062 3069 3068 3072 3111 3024 3060 3038 3071 3040 3048 3054 3003 3034 3010 3047 3052 3030 3039 3003 2992 3014 2980 3058 3030 3002 3028 2988 2986 3015 2986 3047 3013 3047 2977 2979 2990 3005 2927 2999 3019 2993 2994 2931 3024 3047 2977 2997 2956 2987 3014 2980 3010 3016 2930 3006 3003 2991 2977 2918 2940 2900 2980 2953 2912 3000 2964 2962 2942 2934 2948 2925 2944 2941 2993 2942 3002 2971 2911 2950

Tree=0
num_leaves=31
num_cat=0
split_feature=33 32 32 33 32 33 33 33 32 32 32 11 252 31 436 720 718 646 32 11 630 253 1 555 617 32 31 309 1 271
split_gain=326.492 187.808 119.523 64.716 46.1823 38.943 26.661 26.1815 24.5527 16.6781 14.4488 14.1767 12.9429 11.9749 11.6825 9.66414 9.52478 8.85856 8.66432 8.01432 7.98398 7.88928 7.81249 7.41562 7.42697 7.25926 6.95656 6.62845 6.04723 6.01462
threshold=-1.1401870693937981 -0.65278842175688079 -0.8253601416605173 0.32276413780235141 -1.8900268015151103 0.17008132641375842 -2.0993211722196792 -2.20803173284733 0.51257419728533615 -2.3388545953567164 0.46349163229424262 0.29037880214983103 -0.11814758796540693 0.026530325339875937 2.0853845307672061 0.85334663082014861 0.14854587780285997 -0.58619899413338894 0.65969149622839762 0.36847494367698286 -0.1478297399663461 0.51565588401074136 1.0000000180025095e-35 -0.75158509060913758 0.093159389642481813 -2.0293527352028788 -1.8606978669330703 0.95093632445159815 1.0000000180025095e-35 -1.3873551412365965
decision_type=2 2 2 2 2 2 2 2 2 2 2 2 2 2 2 2 2 2 2 2 2 2 2 2 2 2 2 2 2 2
left_child=2 3 6 4 12 8 25 18 13 -8 21 -6 28 16 23 27 19 20 29 -3 -13 -9 -5 -14 -25 -1 -10 -11 -2 -4
right_child=1 5 7 22 11 -7 9 10 26 15 -12 17 14 -15 -16 -17 -18 -19 -20 -21 -22 -23 -24 24 -26 -27 -28 -29 -30 -31
leaf_value=0.11542886331650168 0.095237704716537072 0.07973306339476384 0.10469753158966376 0.082777623503864292 0.082846322003314904 0.075877570747827264 0.10816812364075605 0.084325817559753685 0.083344082633238878 0.091893212374529673 0.081886935915179412 0.088855622681046062 0.10627774904590967 0.077354568718523392 0.11306801819366395 0.11558635218132118 0.088134398137468414 0.085568487867149615 0.086718616712969571 0.082949253371154399 0.099044596012638431 0.089551884347818481 0.078344728353184012 0.093450952711642415 0.13307372565811276 0.10414784669215701 0.077048604573557569 0.10280060011240728 0.086436757310581147 0.093590684670963584
leaf_weight=837 1178 17736 593 5889 12945 74926 949 5579 1834 5001 10336 3062 580 8430 438 198 2074 7079 1657 13758 1027 5990 12237 3275 48 1791 40874 627 2315 2742
leaf_count=837 1178 17736 593 5889 12945 74926 949 5579 1834 5001 10336 3062 580 8430 438 198 2074 7079 1657 13758 1027 5990 12237 3275 48 1791 40874 627 2315 2742
internal_value=0.0807301 0.0792144 0.0894863 0.0845577 0.0872656 0.0775383 0.0991911 0.0860935 0.0790073 0.0958748 0.0846041 0.0850985 0.0939361 0.0807241 0.0975822 0.0938723 0.0815703 0.087709 0.092629 0.081138 0.0914147 0.0870317 0.0797849 0.0958444 0.0940233 0.107741 0.0773189 0.0931084 0.0894048 0.0955656
internal_weight=246005 209705 36300 50073 31947 159632 9403 26897 84706 6775 21905 24113 7834 41998 4341 5826 33568 11168 4992 31494 4089 11569 18126 3903 3323 2628 42708 5628 3493 3335
internal_count=246005 209705 36300 50073 31947 159632 9403 26897 84706 6775 21905 24113 7834 41998 4341 5826 33568 11168 4992 31494 4089 11569 18126 3903 3323 2628 42708 5628 3493 3335
is_linear=0
shrinkage=1


Tree=1
num_leaves=31
num_cat=0
split_feature=33 32 32 33 33 32 32 33 33 1 32 31 31 32 637 31 252 31 607 503 646 32 527 32 718 131 718 646 672 701
split_gain=264.459 152.78 96.8133 49.5422 35.0733 33.5644 23.8965 21.7943 21.5954 14.495 13.7542 12.2754 11.6214 9.36905 9.27398 8.89718 8.77891 8.60235 8.13321 7.72874 7.58223 7.52393 6.88307 6.56287 6.50591 6.20818 6.16073 6.3043 6.16049 6.05737
threshold=-1.1401870693937981 -0.84510379882003972 -0.8253601416605173 0.32276413780235141 0.18031642853586724 -2.1362275282599419 0.54522908423754579 -2.0993211722196792 -2.0993211722196792 1.0000000180025095e-35 -2.3967841453168721 0.49112725531262341 0.01233165304765428 0.62227433988005176 0.16723307774205337 -2.5304232272444374 -0.13464280113483437 -1.2032796450371182 1.1391949733950792 0.39660951779218218 -0.65604738470908874 0.4069341620739097 1.4351126751774503 -2.2872757658596345 0.24798610555815176 1.0000000180025095e-35 0.042392831623149309 -0.68452230578846429 2.4347130519319413 0.27240341545047736
decision_type=2 2 2 2 2 2 2 2 2 2 2 2 2 2 2 2 2 2 2 2 2 2 2 2 2 2 2 2 2 2
left_child=2 3 8 5 6 16 12 13 -1 25 -10 15 14 -4 26 -9 -2 -11 22 -18 -19 -17 -12 -5 -22 29 27 -3 -20 -7
right_child=1 4 7 23 -6 9 -8 11 10 17 18 -13 -14 -15 -16 21 19 20 28 -21 24 -23 -24 -25 -26 -27 -28 -29 -30 -31
leaf_value=0.024309636499092006 0.0090755613045758847 0.0035372703160639371 0.012728904764857153 0.0056316965021139358 -0.0042911420103540869 0.010839828859288428 -0.0031517570291309327 0.015726722369471348 0.026005381683984592 0.0097697737876346509 0.0089733327168089027 -0.0020586174046350217 -0.0029817144264883944 0.0047678739264250328 0.0037476889580130932 0.0060513896035856753 0.014564231847369472 0.0072791200031115076 0.018636817881691997 0.026856084260525128 0.00019624560139017272 0.0017373435680330545 0.021048281524886706 -0.00127605370196588 0.0096444621370150359 0.0060598031874305328 0.0055816327856527577 -0.00090504214732547376 0.065367057713969001 0.03221787753508245
leaf_weight=2628 2298 3682 4154 1527 77432 2852 41191 662 793 1623 4387 3615 9613 2295 8842 8102 2274 2271 1037 660 9701 8069 529 13851 788 4936 1891 24134 29 139
leaf_count=2628 2298 3682 4154 1527 77432 2852 41191 662 793 1623 4387 3615 9613 2295 8842 8102 2274 2271 1037 660 9701 8069 529 13851 788 4936 1891 24134 29 139
internal_value=3.53229e-11 -0.00136413 0.00788058 0.00395667 -0.00273337 0.00649536 -0.00138343 0.00482709 0.016615 0.00480482 0.0136302 0.00322849 0.000128953 0.00989582 0.000904664 0.00436393 0.0137041 0.00291252 0.0119897 0.0173293 0.00204032 0.00389877 0.0102727 -0.00059013 0.000906055 0.00823826 5.84647e-05 -0.000317014 0.0199081 0.0118333
internal_weight=246005 209705 36300 42920 166785 27542 89353 26897 9403 22310 6775 20448 48162 6449 38549 16833 5232 14383 5982 2934 12760 16171 4916 15378 10489 7927 29707 27816 1066 2991
internal_count=246005 209705 36300 42920 166785 27542 89353 26897 9403 22310 6775 20448 48162 6449 38549 16833 5232 14383 5982 2934 12760 16171 4916 15378 10489 7927 29707 27816 1066 2991
is_linear=0
shrinkage=0.1


Tree=2
num_leaves=31
num_cat=0
split_feature=33 32 32 33 32 33 32 31 31 126 436 33 718 723 644 11 32 718 11 436 613 32 565 11 310 436 717 10 336 31
split_gain=215.953 141.011 64.3634 51.0621 34.5606 28.7424 18.818 17.6374 13.9591 13.7506 13.68 12.363 12.0073 10.7664 11.2887 10.0122 9.96762 9.73193 8.87753 7.6145 7.2657 7.07957 6.96493 6.90644 6.55685 6.46006 6.42339 5.88224 5.84326 5.75673
threshold=-1.4373246896134748 -0.52987702672402126 -1.2813520009804551 0.11881105201491808 -1.982575826945425 0.11881105201491808 0.62227433988005176 -1.6507586079697172 0.038887279826881151 1.0000000180025095e-35 0.67708616730983451 -2.0993211722196792 0.63864182408373116 1.0000000180025095e-35 -0.53520696347354713 0.2833641786593683 -2.3967841453168721 0.042392831623149309 0.31890493767771283 2.0853845307672061 -0.63755943571111062 -2.1362275282599419 -0.087867020812112742 0.29739342564029381 -0.51041421357800576 0.96639166171600677 1.5471593733719169 -0.56757513168983431 0.66732982369353733 -3.0406485681192232
decision_type=2 2 2 2 2 2 2 2 2 2 2 2 2 2 2 2 2 2 2 2 2 2 2 2 2 2 2 2 2 2
left_child=2 3 16 4 17 7 11 29 10 12 13 24 15 14 -6 -9 -1 19 -5 23 -12 -20 -17 -2 -4 -26 27 -18 -21 -3
right_child=1 5 6 18 8 -7 -8 9 -10 -11 20 -13 -14 -15 -16 22 26 -19 21 28 -22 -23 -24 -25 25 -27 -28 -29 -30 -31
leaf_value=0.028394249832307972 0.0061353666088774491 0.017067932156683171 0.0029370195931186917 -0.0018444397105889473 0.0088983796807852664 -0.0039628794183391774 0.0019853372066378681 -0.002314945694392868 -0.0013100759848399329 -0.0038479049551583219 0.014867519394948401 0.0061859310304957782 0.0054413819695412801 0.012256195601021265 0.0019079175219404089 0.0018120777119214893 0.0079286708417754849 0.02455273254094183 0.010221634498280794 0.026871839940864992 0.0069429260721947956 0.0011570246420308406 -0.0018249790046974109 0.013093652984804785 0.011117039058703097 0.019425466693477868 0.033722951927795099 0.01788430797948545 0.0044273018933735885 0.0030778593342123983
leaf_weight=925 2786 309 641 15254 2750 75290 6965 33532 4123 21675 1689 9342 2841 1364 14442 13754 745 564 988 470 3673 6735 8531 2923 2921 1377 213 2918 154 6111
leaf_count=925 2786 309 641 15254 2750 75290 6965 33532 4123 21675 1689 9342 2841 1364 14442 13754 745 564 988 470 3673 6735 8531 2923 2921 1377 213 2918 154 6111
internal_value=-7.17846e-11 -0.00101957 0.0086099 0.00321566 0.00562363 -0.00253326 0.00624688 -0.00129254 0.00406381 -0.00169563 0.00499016 0.00832528 -0.000900327 0.00370458 0.0030261 -0.00122311 0.0190671 0.0119654 -0.000445817 0.0108444 0.00943913 0.00231666 0.000419763 0.009698 0.0123718 0.0137789 0.0168411 0.0158595 0.0213326 0.00375121
internal_weight=246005 219958 26047 57915 34938 162043 21246 86753 28041 80333 23918 14281 58658 18556 17192 55817 4801 6897 22977 6333 5362 7723 22285 5709 4939 4298 3876 3663 624 6420
internal_count=246005 219958 26047 57915 34938 162043 21246 86753 28041 80333 23918 14281 58658 18556 17192 55817 4801 6897 22977 6333 5362 7723 22285 5709 4939 4298 3876 3663 624 6420
is_linear=0
shrinkage=0.1


Tree=3
num_leaves=31
num_cat=0
split_feature=33 32 32 32 11 33 293 32 31 32 31 33 33 565 31 643 701 637 11 33 1 608 617 649 28 31 377 646 349 718
split_gain=176.679 105.581 65.5523 35.0649 24.0515 21.0863 16.4718 15.6189 13.9498 12.9418 11.8362 10.8933 10.6121 10.1852 9.35383 9.15451 7.97417 7.96598 7.61518 7.41455 7.13447 6.85506 6.64264 6.60521 6.58329 6.22907 6.02003 5.64804 5.46578 5.2635
threshold=-1.1401870693937981 -1.3242242351854712 -0.71754066298053276 0.19440124143964807 0.2833641786593683 0.13933707076027479 1.0000000180025095e-35 -2.2872757658596345 0.050251372690874006 -2.2872757658596345 -1.6507586079697172 -2.20803173284733 -2.0993211722196792 -0.05902065070864173 -2.0955258755982618 -0.19698230594182212 0.36014263632066917 0.17360599871112384 0.29037880214983103 0.23138290759492738 1.0000000180025095e-35 0.86662902871813385 0.10868761995470963 0.53365634421173247 1.0000000180025095e-35 0.24751880808184659 -0.20158804330037774 -0.67457907531406713 -1.0000000180025095e-35 0.37139603357077039
decision_type=2 2 2 2 2 2 2 2 2 2 2 2 2 2 2 2 2 2 2 2 2 2 2 2 2 2 2 2 2 2
left_child=2 4 7 5 14 13 8 25 11 -6 -5 -4 -9 17 -2 23 20 27 -13 22 -11 -14 24 -12 -16 -1 29 -3 -19 -20
right_child=1 3 6 10 9 -7 -8 12 -10 16 15 18 21 -15 19 -17 -18 28 26 -21 -22 -23 -24 -25 -26 -27 -28 -29 -30 -31
leaf_value=0.024152501730588818 0.017092715147152254 0.0049744513994056331 0.0094643579946768076 0.0013135670664865594 0.014626275476028043 -0.0021615705849484974 0.019542076949957167 0.017332959111321756 -0.0010419628882063136 0.0092592949341411442 -0.0027504765091436721 0.0013341830245872507 0.0074722822473175425 -0.00091356076892529648 0.0027006223074922554 -0.004123215223054204 0.022087283651757092 0.0029672184831412264 0.0070034198889193395 -0.00087620177919941339 0.0034331837501946337 0.015104151559808782 0.030137958694645701 0.00055825331484869365 0.01496756293746675 0.0029630917593155034 0.0026431600710115446 0.00072001706908590029 0.0090975945939901597 0.018507710657170995
leaf_weight=1488 408 3869 3767 5901 2501 30711 647 2301 5563 3659 41632 8121 4683 13269 7658 59039 316 3225 3968 6187 4939 1572 94 7056 464 153 3595 16128 2649 442
leaf_count=1488 408 3869 3767 5901 2501 30711 647 2301 5563 3659 41632 8121 4683 13269 7658 59039 316 3225 3968 6187 4939 1572 94 7056 464 153 3595 16128 2649 442
internal_value=6.68237e-11 -0.00111499 0.00644128 -0.00196331 0.00481996 -0.000200121 0.00378526 0.0132403 0.00338478 0.00826948 -0.00304721 0.0046227 0.0115264 0.00133892 0.00216137 -0.00328608 0.00648596 0.0024942 0.00349169 0.0017384 0.00591257 0.00939032 0.00370731 -0.00227097 0.00340142 0.0221769 0.00568047 0.00154316 0.00573184 0.00815646
internal_weight=246005 209705 36300 183479 26226 69851 26103 10197 25456 11415 113628 19893 8556 39140 14811 107727 8914 25871 16126 14403 8598 6255 8216 48688 8122 1641 8005 19997 5874 4410
internal_count=246005 209705 36300 183479 26226 69851 26103 10197 25456 11415 113628 19893 8556 39140 14811 107727 8914 25871 16126 14403 8598 6255 8216 48688 8122 1641 8005 19997 5874 4410
is_linear=0
shrinkage=0.1


Tree=4
num_leaves=31
num_cat=0
split_feature=33 32 32 32 293 33 33 1 33 718 309 718 451 31 10 32 637 718 83 436 617 309 436 126 617 31 646 723 31 561
split_gain=145.034 80.0239 63.3417 27.8017 18.8927 17.9141 17.4196 14.2695 14.1116 9.81894 9.81781 9.17929 9.07088 8.96659 8.66393 8.36758 8.04343 7.815 7.76812 7.76332 7.19664 7.14368 6.741 6.61424 6.15333 5.8925 5.76568 5.71673 5.56697 5.44276
threshold=-0.97578345354328111 -1.4013944709821142 -0.54902485976060267 0.19440124143964807 -1.0000000180025095e-35 0.32276413780235141 -2.0008804011350452 1.0000000180025095e-35 -1.6871147395513584 0.012684245154984791 0.95093632445159815 0.012684245154984791 -1.4930967732432505 -2.373155576731985 -0.3109384154729708 -1.937816083266487 0.16547938121292247 0.17709465373660685 1.0000000180025095e-35 1.5121092592499938 0.0098794444627799474 0.8699979814482669 1.9295429041355272 1.0000000180025095e-35 0.093159389642481813 0.20879849333826309 -0.566994814267613 1.0000000180025095e-35 -1.6507586079697172 -0.12005947488470113
decision_type=2 2 2 2 2 2 2 2 2 2 2 2 2 2 2 2 2 2 2 2 2 2 2 2 2 2 2 2 2 2
left_child=2 5 6 4 9 7 15 18 13 14 17 16 -6 -4 -3 -1 -5 22 -2 24 -14 -15 -8 29 -9 -10 27 -20 -18 -16
right_child=1 3 8 11 12 -7 10 19 25 -11 -12 -13 20 21 23 -17 28 -19 26 -21 -22 -23 -24 -25 -26 -27 -28 -29 -30 -31
leaf_value=0.023962463958847671 0.004858463056146952 -0.0029804318402188376 0.017210072124224013 -0.0034692946143489289 0.011249719807493543 0.0006754216356731639 0.0055300777932524546 0.0028781996303613535 0.0017991685282254333 0.0043404189997081517 0.017833848816361332 0.0010621607374466883 0.001711111143104703 0.0034674892634010534 0.0022156081029034271 0.013667888984727226 0.0055893153831869206 0.017490245394695264 0.016694018684596901 0.01241301396752105 0.01281641383537058 0.0097678292991749058 0.01423654999372544 -0.002851090944030122 0.027957414624967959 -0.0027023776063641296 0.0099791964548836716 0.047482541238977799 -0.0016638300226333351 -0.00082690981362174357
leaf_weight=1114 1624 20931 597 83549 1235 8121 6848 8295 13476 3160 1047 5784 11762 9598 10210 2711 1118 728 1411 1020 614 2215 1022 8028 99 3708 2272 63 19782 13863
leaf_count=1114 1624 20931 597 83549 1235 8121 6848 8295 13476 3160 1047 5784 11762 9598 10210 2711 1118 728 1411 1020 614 2215 1022 8028 99 3708 2272 63 19782 13863
internal_value=-3.04892e-11 -0.0011185 0.00527096 -0.00182679 -0.000265169 0.00444874 0.0109556 0.00652146 0.00268353 -0.00107486 0.008691 -0.00281565 0.00307757 0.00525311 -0.00139753 0.0166661 -0.00303039 0.00757765 0.0106349 0.00417503 0.00226207 0.00464884 0.0066607 -0.000365429 0.00317399 0.000827815 0.0131392 0.0180099 -0.00127584 0.000463503
internal_weight=246005 202941 43064 180036 69803 22905 13470 14784 29594 56192 9645 110233 13611 12410 53032 3825 104449 8598 5370 9414 12376 11813 7870 32101 8394 17184 3746 1474 20900 24073
internal_count=246005 202941 43064 180036 69803 22905 13470 14784 29594 56192 9645 110233 13611 12410 53032 3825 104449 8598 5370 9414 12376 11813 7870 32101 8394 17184 3746 1474 20900 24073
is_linear=0
shrinkage=0.1


Tree=5
num_leaves=31
num_cat=0
split_feature=33 32 32 33 32 33 1 32 31 11 126 436 129 635 263 1 2 31 10 31 31 645 248 503 607 637 555 76 376 637
split_gain=118.311 77.8425 37.0098 29.9588 22.4708 18.0409 13.1055 12.9946 12.818 11.1729 9.03953 8.89535 8.31461 8.17709 8.05972 7.75413 7.58074 7.30944 7.18973 7.43384 7.16128 6.91167 6.65882 6.46491 6.15686 6.13657 5.84183 5.51453 5.10352 5.06334
threshold=-1.4373246896134748 -0.45185066301941296 -1.2813520009804551 0.11881105201491808 -2.1362275282599419 0.29238899498151355 1.0000000180025095e-35 0.64455629723220398 0.1839941471531156 0.36847494367698286 1.0000000180025095e-35 1.0933248733370899 1.0000000180025095e-35 -0.044325304876601919 0.17064560029306833 1.0000000180025095e-35 1.0000000180025095e-35 0.062771397449463265 -0.89936974337020803 0.099310343925898978 0.35293575476123445 -0.43481259615747486 0.88990963886150243 0.39660951779218218 1.1204152093488966 0.17190571308033842 -0.70723540810315577 0.022356130064526265 -0.064218969548106117 0.1131015887878966
decision_type=2 2 2 2 2 2 2 2 2 2 2 2 2 2 2 2 2 2 2 2 2 2 2 2 2 2 2 2 2 2
left_child=2 3 20 4 17 8 13 10 9 -3 11 14 -11 16 22 -5 21 23 -8 28 24 -6 -4 -2 26 -14 -1 -13 29 -20
right_child=1 5 7 15 6 -7 18 -9 -10 12 -12 27 25 -15 -16 -17 -18 -19 19 -21 -22 -23 -24 -25 -26 -27 -28 -29 -30 -31
leaf_value=0.02087634760351657 0.0093616687979338909 -0.0014214647447983739 0.0031807120909808787 0.0021128800849257103 0.016736343960520469 -0.0031905205308924364 -0.0017861925308045425 0.00092299825610384762 -0.0032480976691835468 -0.0013416078653165891 0.001946489464582367 0.014171254523953842 0.0013546588434942841 0.0020636806147984969 0.040748357434164398 -0.0016894878502799211 0.0043708944220721656 -0.0010324600944469932 0.0033276534597253098 -0.0020976214977837747 0.0025784549307315912 0.0077939478971284157 0.0090654878740210141 0.018240941393307213 0.022593042872001215 0.0056512114019807817 0.01117702534861713 0.0021214142758440922 0.00054005938303521559 0.0084966705977052893
leaf_weight=822 3756 43371 4569 7960 1293 65843 4946 6665 20285 9372 3653 2526 15510 3900 66 16440 3548 534 6047 2762 470 2607 3320 1049 970 4231 2539 447 3744 2760
leaf_count=822 3756 43371 4569 7960 1293 65843 4946 6665 20285 9372 3653 2526 15510 3900 66 16440 3548 534 6047 2762 470 2607 3320 1049 970 4231 2539 447 3744 2760
internal_value=1.48963e-11 -0.000754656 0.00637281 0.00227026 0.00406615 -0.0019246 0.00305256 0.00458094 -0.0010261 -0.000404267 0.00625299 0.00769256 0.0011111 0.00577328 0.0059484 -0.000449043 0.00771574 0.0100666 0.00152855 0.0025992 0.0143024 0.0107587 0.00565726 0.0113001 0.0155747 0.00227552 0.0135492 0.0123595 0.00363279 0.00494756
internal_weight=246005 219958 26047 61346 36946 158612 31607 21246 92769 72484 14581 10928 29113 11348 7955 24400 7448 5339 20259 15313 4801 3900 7889 4805 4331 19741 3361 2973 12551 8807
internal_count=246005 219958 26047 61346 36946 158612 31607 21246 92769 72484 14581 10928 29113 11348 7955 24400 7448 5339 20259 15313 4801 3900 7889 4805 4331 19741 3361 2973 12551 8807
is_linear=0
shrinkage=0.1


Tree=6
num_leaves=31
num_cat=0
split_feature=33 32 32 32 293 11 293 33 31 1 451 32 33 372 617 7 32 606 345 2 643 32 436 31 31 718 646 309 245 688
split_gain=97.9589 55.0557 42.8977 20.5012 17.0103 14.6347 12.1234 11.8648 9.98582 9.49668 9.39063 9.27728 8.67951 7.79871 7.54001 7.46929 6.764 6.71698 6.41046 6.36258 6.23073 6.21351 6.15106 5.37573 5.33756 5.33417 5.33678 5.22353 5.04169 5.02661
threshold=-0.97578345354328111 -1.4013944709821142 -0.56847952507506749 0.55289605550228438 -1.0000000180025095e-35 0.2833641786593683 1.0000000180025095e-35 -2.0008804011350452 -2.373155576731985 1.0000000180025095e-35 -1.3621458215638558 -2.3967841453168721 -2.3330731326671947 -0.14143088378169902 0.0098794444627799474 -0.70549155901237115 0.74006133311048561 0.068233987154310824 -0.0047247185259474836 1.0000000180025095e-35 -0.29802865822916752 -2.0293527352028788 1.5121092592499938 -1.4441979329519568 -1.5955656593375143 0.91193849695768292 -0.71092176330550672 0.94334835479503587 1.2146833115277911 1.4992843058732193
decision_type=2 2 2 2 2 2 2 2 2 2 2 2 2 2 2 2 2 2 2 2 2 2 2 2 2 2 2 2 2 2
left_child=2 5 7 4 9 22 8 21 -4 19 -6 -7 -10 15 25 -9 17 -14 -13 -3 -20 28 24 -11 -2 26 -12 -17 -1 -26
right_child=1 3 6 -5 10 11 -8 13 12 23 14 18 16 -15 -16 27 -18 -19 20 -21 -22 -23 -24 -25 29 -27 -28 -29 -30 -31
leaf_value=0.022725956255434367 0.0099407251005208027 0.0021308111635638888 0.01088086303023484 -0.0027342055225384313 0.0087253078975073704 0.013311337672612248 0.015473600226971838 0.0040643397888928054 0.0067255686878270552 0.0021233381077335346 0.0078189877791213433 0.0025645813972462422 0.00079855885431863178 0.0039070761221806014 0.010634259543197598 0.010775762015237783 -0.0014257100326176666 0.005188654652277855 0.013165745179501892 -0.00095009814384386837 0.0049516556632040925 0.011394309612229713 0.0085618402536646356 -0.0021897661929198334 -9.171941149733727e-05 0.0094364515819719864 5.3356464780016308e-05 0.022276090251443649 -0.0039276233547693726 0.011162142833532061
leaf_weight=906 608 11367 1192 77496 1925 1700 675 1641 2888 3058 941 4357 11939 4130 835 3281 8170 4922 1513 16337 2370 2794 1122 52516 10823 700 14861 449 77 412
leaf_count=906 608 11367 1192 77496 1925 1700 675 1641 2888 3058 941 4357 11939 4130 835 3281 8170 4922 1513 16337 2370 2794 1122 52516 10823 700 14861 449 77 412
internal_value=2.2109e-12 -0.000919226 0.00433189 -0.00150672 -0.000579027 0.00369853 0.00222462 0.00905905 0.00191742 -0.00119846 0.00209905 0.00658535 0.00153472 0.0071743 0.00136331 0.00968662 0.00093582 0.0020801 0.0051977 0.000314004 0.00815225 0.0138001 0.00148527 -0.00195243 0.000814834 0.000894202 0.000515795 0.0121601 0.0206381 0.000320972
internal_weight=246005 202941 43064 180036 102540 22905 29786 13278 29111 83278 19262 9940 27919 9501 17337 5371 25031 16861 8240 27704 3883 3777 12965 55574 11843 16502 15802 3730 983 11235
internal_count=246005 202941 43064 180036 102540 22905 29786 13278 29111 83278 19262 9940 27919 9501 17337 5371 25031 16861 8240 27704 3883 3777 12965 55574 11843 16502 15802 3730 983 11235
is_linear=0
shrinkage=0.1


Tree=7
num_leaves=31
num_cat=0
split_feature=33 32 32 293 31 33 617 32 718 33 31 718 352 10 565 10 32 503 612 646 31 646 248 503 293 631 649 434 55 605
split_gain=81.2727 40.1142 38.784 21.5227 15.7385 14.5086 14.2815 11.0543 10.9624 10.7742 9.98061 10.0871 8.96676 8.90377 8.78938 7.90776 7.76874 7.7022 6.73221 6.6088 6.31463 6.28542 6.11831 6.01621 6.07031 5.93824 6.13244 5.88685 5.3518 5.2389
threshold=-0.58791446584011509 -1.8900268015151103 -1.2813520009804551 -1.0000000180025095e-35 0.050251372690874006 -2.0993211722196792 0.031220176624118873 -0.13085048015451292 0.86953060409561844 -1.8557158279539003 0.01233165304765428 0.33867099225969527 1.0000000180025095e-35 -0.3109384154729708 -0.064405554043052149 -0.79213225837958989 0.13065434269949147 0.068006996737151951 0.56789544075886755 -0.59125112130727941 -2.8565147905075441 -0.66015259988220498 0.49405474725574139 0.32006476242654364 1.3974531758152955 -0.11272714691638915 0.34828560993144592 -1.246309507425517 1.0000000180025095e-35 -0.14065911849497478
decision_type=2 2 2 2 2 2 2 2 2 2 2 2 2 2 2 2 2 2 2 2 2 2 2 2 2 2 2 2 2 2
left_child=2 12 9 10 5 23 7 19 14 -1 11 13 20 -3 15 -7 -15 -11 -8 29 -2 -14 -19 -4 -25 -17 -27 -23 -24 -5
right_child=1 3 4 6 -6 8 18 -9 -10 17 -12 -13 21 16 -16 25 -18 22 -20 -21 -22 27 28 24 -26 26 -28 -29 -30 -31
leaf_value=0.014015055904549432 0.034944245597866713 -0.0027538455587744013 0.0054872293220012561 0.015670494800216931 -0.0013327484982162152 -0.00083775251762702977 0.007947523918535029 -0.00087438826479005645 0.0097685651385684552 0.0047408960867454698 -0.003424998326343659 0.0030389588947618553 0.01713512961936119 0.00045711760818392731 -0.0004840476646629959 0.0021559531809991358 -0.0018554857253777653 0.0052153496243105349 0.026877285823349126 0.0012634788421143645 0.0026132958560376039 0.018155356531874497 0.018533853952335866 0.011104923345271751 0.037642437940115459 0.0035705805219948279 0.0092588281723611516 0.0050361672571683285 -0.0033579981495295802 0.0048698945895835379
leaf_weight=2858 61 43505 4189 516 10857 4303 840 20946 1795 5252 33949 4766 782 25294 11441 8491 34122 815 242 7810 6249 401 1123 1633 91 4469 3291 2326 124 3464
leaf_count=2858 61 43505 4189 516 10857 4303 840 20946 1795 5252 33949 4766 782 25294 11441 8491 34122 815 242 7810 6249 401 1123 1633 91 4469 3291 2326 124 3464
internal_value=1.1686e-11 -0.00104065 0.00317466 -0.00138874 0.00204118 0.00296379 0.000877886 0.00050428 0.00216412 0.00880868 -0.00192993 -0.00145861 0.00517936 -0.00166688 0.00173749 0.00297407 -0.000870987 0.00677424 0.0121814 0.00295361 0.00292585 0.00923172 0.0119533 0.00753354 0.0125057 0.00398338 0.00598295 0.00696532 0.016357 0.00627017
internal_weight=246005 185273 60732 175454 50560 39703 33818 32736 33790 10172 141636 107687 9819 102921 31995 20554 59416 7314 1082 11790 6310 3509 2062 5913 1724 16251 7760 2727 1247 3980
internal_count=246005 185273 60732 175454 50560 39703 33818 32736 33790 10172 141636 107687 9819 102921 31995 20554 59416 7314 1082 11790 6310 3509 2062 5913 1724 16251 7760 2727 1247 3980
is_linear=0
shrinkage=0.1


Tree=8
num_leaves=31
num_cat=0
split_feature=32 33 33 11 32 718 31 32 637 31 640 637 126 11 387 718 713 31 261 637 126 434 33 244 436 645 31 309 631 244
split_gain=67.2812 43.1967 24.2777 21.2423 13.0996 12.2485 10.0741 9.5642 9.44593 8.92715 7.79632 7.71369 7.47603 7.93965 7.25049 7.03278 6.88641 6.74889 6.39634 6.22309 6.03041 6.00489 5.82342 5.82738 5.70237 5.48658 5.41113 5.31686 5.27525 4.93809
threshold=-0.21569255638500107 -0.97578345354328111 -0.58791446584011509 0.2833641786593683 -2.1362275282599419 0.17709465373660685 0.01233165304765428 -2.3388545953567164 0.12491813098240349 -1.8606978669330703 -0.53982650873549487 0.15039025902397188 1.0000000180025095e-35 0.37548956716744564 0.53846116867580907 1.7416869904780492 0.30227722736621604 -2.2234329548146428 -0.13243859833704114 0.11073306248950822 1.0000000180025095e-35 -1.2157408242880023 -2.4046195397385941 -1.0537663301982538 1.4061504081939391 -0.61221731597965501 -1.6507586079697172 0.91805512260649491 -0.064184452994753602 0.11438294479878529
decision_type=2 2 2 2 2 2 2 2 2 2 2 2 2 2 2 2 2 2 2 2 2 2 2 2 2 2 2 2 2 2
left_child=1 5 9 16 -5 6 7 29 20 -2 19 -4 13 -11 -10 28 24 -12 -19 -9 21 -6 23 -20 -3 -16 -13 -21 -15 -1
right_child=2 3 11 4 8 -7 -8 10 14 12 17 26 -14 15 25 -17 -18 18 22 27 -22 -23 -24 -25 -26 -27 -28 -29 -30 -31
leaf_value=0.010808675292744693 0.0065355129762696296 -0.0011394189343225411 -0.0022730463105490976 0.0090815229406607974 0.007410746339345551 0.015502032801428249 -0.00019936617777292659 0.0084946761126148303 0.0032361959578166935 0.00013827004694828097 0.013314895320856621 0.0053891074427298959 -0.0016215768624246348 0.0016108740442144409 0.031844449264777676 0.017520602347936422 0.0044626411776778115 0.0022426519056732296 -0.01050287348528703 0.017917975028111637 -0.0022696767204688686 0.001407896002095244 0.0061580521215889583 0.023081064552709623 0.0033537261813127456 0.0090660221901406532 -0.00071281253543733754 0.046376317050307994 0.0067609159377693892 0.024012250952249351
leaf_weight=830 2743 32548 97669 3370 1919 1478 2258 870 4317 14879 948 1541 10484 6046 111 362 2729 5532 60 366 3811 12662 3764 372 3093 2233 25536 80 2964 430
leaf_count=830 2743 32548 97669 3370 1919 1478 2258 870 4317 14879 948 1541 10484 6046 111 362 2729 5532 60 366 3811 12662 3764 372 3093 2233 25536 80 2964 430
internal_value=4.42483e-12 0.00230123 -0.00118847 0.00115609 0.00322812 0.00680366 0.00597476 0.00702676 0.00244075 0.00104341 0.00615596 -0.00185901 0.000609698 0.00157431 0.00566729 0.00385416 -0.00037879 0.00526075 0.00447587 0.0134183 0.0012722 0.00219793 0.00742014 0.0184166 -0.000749494 0.0101447 -0.000365541 0.0230226 0.00330507 0.0153147
internal_weight=246005 83781 162224 66793 28423 16988 15510 13252 25053 37478 11992 124746 34735 24251 6661 9372 38370 10676 9728 1316 18392 14581 4196 432 35641 2344 27077 446 9010 1260
internal_count=246005 83781 162224 66793 28423 16988 15510 13252 25053 37478 11992 124746 34735 24251 6661 9372 38370 10676 9728 1316 18392 14581 4196 432 35641 2344 27077 446 9010 1260
is_linear=0
shrinkage=0.1


Tree=9
num_leaves=31
num_cat=0
split_feature=33 32 11 32 1 129 436 309 10 434 131 718 31 275 376 242 372 436 350 32 391 708 613 32 640 565 637 528 31 244
split_gain=57.6781 40.1406 18.9918 17.1432 13.925 12.5336 10.3198 9.92759 9.0105 8.48399 8.22155 7.64773 7.26656 6.7926 6.36232 6.32709 6.30702 6.13711 5.89641 6.65442 5.87115 5.71442 5.32595 5.17018 5.16623 5.13451 4.93833 4.85171 4.80853 4.55845
threshold=-1.5773770488452976 -1.3242242351854712 0.36146032018652013 -1.6078057433756905 1.0000000180025095e-35 1.0000000180025095e-35 1.873284073001835 0.85988068857285038 -0.49035497689958168 -1.2157408242880023 1.0000000180025095e-35 0.63864182408373116 0.13522065826188212 0.1667317470918141 -0.17979611312977042 0.1298010283717724 -0.16705307257181279 0.67708616730983451 -1.0000000180025095e-35 -2.1362275282599419 0.46066583761693042 1.7968756819072256 -0.4680757014044728 -2.6437912642136792 -0.52699226114197517 -0.27014599868190564 0.31355009238019177 2.6056321528890272 -2.154759943486328 -0.82316872432099408
decision_type=2 2 2 2 2 2 2 2 2 2 2 2 2 2 2 2 2 2 2 2 2 2 2 2 2 2 2 2 2 2
left_child=3 4 11 25 10 -4 12 16 -6 -9 15 17 13 21 18 22 28 -3 -10 20 -20 24 -2 -12 -7 29 -26 -11 -5 -1
right_child=1 2 5 7 8 6 -8 9 14 27 23 -13 -14 -15 -16 -17 -18 -19 19 -21 -22 -23 -24 -25 26 -27 -28 -29 -30 -31
leaf_value=0.0056041984291980759 0.017756149024154021 -0.0022147193811489817 -0.0015535518589812295 0.014313289357387292 -0.0013914571508391327 0.0053972781928509133 0.0062745080013962493 0.016095003791233079 0.0029416910748751393 0.0041889833060169482 0.021802492126537738 0.0021779482085142079 -0.0021194338080356128 -0.00032215089767516055 0.00038313679545027836 0.0043572257123047249 0.00062844733364078196 -0.00035940389982594227 0.013504420975530507 0.0053913594463317234 0.040128194350511473 0.0108573848008164 0.0081112014476412229 0.0034285565079539312 0.00081764734532846842 0.0077539623149084462 0.0060824548846861483 0.018623216787818819 0.0040523606440347774 0.018940998527068126
leaf_weight=327 1168 98859 23557 490 7094 4057 3793 1029 4200 2577 157 4830 6982 13963 4785 1330 7656 21752 697 1546 94 788 1123 6236 15267 1468 2017 256 6722 1185
leaf_count=327 1168 98859 23557 490 7094 4057 3793 1029 4200 2577 157 4830 6982 13963 4785 1330 7656 21752 697 1546 94 788 1123 6236 15267 1468 2017 256 6722 1185
internal_value=-5.03207e-12 -0.00047638 -0.000986054 0.00492168 0.00303495 0.000328153 0.00127396 0.00380081 0.00140297 0.00831805 0.00603621 -0.00172386 0.000833627 0.0014049 0.00315387 0.00984346 0.00262745 -0.00188012 0.00518201 0.00920825 0.0166683 0.00249463 0.0130284 0.00387979 0.00218584 0.0119666 0.00143204 0.00549331 0.00474951 0.0160567
internal_weight=246005 224295 195865 21710 28430 70424 46867 18730 18416 3862 10014 125441 43074 36092 11322 3621 14868 120611 6537 2337 791 22129 2291 6393 21341 2980 17284 2833 7212 1512
internal_count=246005 224295 195865 21710 28430 70424 46867 18730 18416 3862 10014 125441 43074 36092 11322 3621 14868 120611 6537 2337 791 22129 2291 6393 21341 2980 17284 2833 7212 1512
is_linear=0
shrinkage=0.1


Tree=10
num_leaves=31
num_cat=0
split_feature=32 33 256 33 451 718 718 293 7 645 645 31 579 31 263 565 8 259 32 256 646 610 649 10 245 7 6 245 436 245
split_gain=48.202 30.0467 17.539 17.1132 10.7449 9.93538 9.22971 8.92806 8.23251 11.0213 7.7004 7.14855 6.93338 6.80133 7.216 6.523 6.3703 6.3614 6.11437 6.97522 5.92319 5.90815 5.66322 5.25145 5.22913 5.806 5.13592 6.32307 4.79533 4.72205
threshold=-0.14472712632194909 -0.97578345354328111 -0.00089686951037897705 -0.47711682476965767 -1.4930967732432505 1.0000000180025095e-35 0.042392831623149309 1.0000000180025095e-35 -0.83558289569695765 -0.52023245917091987 -0.48033042513331442 -2.7283578181953247 0.42164426950067241 0.94323428366066076 0.52783730455025901 -0.18054306406053491 -0.23780772861001817 -0.4640777152853614 0.97521109957882846 -0.0075008900628361708 -0.63315433090292583 0.035785317869695479 0.031664458862308675 -0.8452927210245117 -0.40038678088167884 -0.72629375366121918 -0.70425958505465247 -0.31622245545446132 1.259959874587661 1.8477814199219029
decision_type=2 2 2 2 2 2 2 2 2 2 2 2 2 2 2 2 2 2 2 2 2 2 2 2 2 2 2 2 2 2
left_child=1 5 6 7 -4 8 11 13 -1 17 24 -3 16 14 15 23 29 -10 19 -5 26 -19 -7 -2 -6 -26 -13 -28 -21 -11
right_child=3 2 4 18 10 22 -8 -9 9 12 -12 20 -14 -15 -16 -17 -18 21 -20 28 -22 -23 -24 -25 25 -27 27 -29 -30 -31
leaf_value=0.00070556646406838574 -0.0011580432158059533 0.01058546913695701 0.010334971372732054 -0.0018163536442440027 0.0010276499578406003 0.004864611090000334 0.005319945585918277 0.011574731596622123 0.02778594696361 0.0074396963096556917 0.0015525099533780346 -0.0010028728441240531 0.0089668278577589959 -0.0026929375076541677 0.030177751840913997 -0.00046766099272605507 0.00011824932333084982 0.0087087823979041714 -0.0029232294719409215 -0.00032114788877546938 -0.0011008253246589889 0.02689212089657185 0.017080152242398654 0.0031954000270665844 0.0037992615778515981 0.01294577963721638 0.00042424595799246835 0.0070360593307439408 0.0042176980073835978 -0.0025673755496794237
leaf_weight=3804 3453 587 2040 62875 1210 580 3018 747 241 3201 13814 4257 2714 5582 85 15813 3699 1751 28741 23551 37172 199 1098 14026 1247 1565 3039 2760 2583 553
leaf_count=3804 3453 587 2040 62875 1210 580 3018 747 241 3201 13814 4257 2714 5582 85 15813 3699 1751 28741 23551 37172 199 1098 14026 1247 1565 3039 2760 2583 553
internal_value=1.74449e-12 0.00186659 0.000941322 -0.00104972 0.00346 0.00553389 -4.34961e-05 0.000745587 0.00477349 0.00602566 0.00267367 -0.000382027 0.00463933 0.000537949 0.00107829 0.00100399 0.00306348 0.0124587 -0.00165511 -0.00124563 -0.000518343 0.0105644 0.0128579 0.00233537 0.00652444 0.0088897 0.0016348 0.0035711 0.000127457 0.00596556
internal_weight=246005 88549 70709 157456 19876 17840 50833 39706 16162 12358 17836 47815 10167 38959 33377 33292 7453 2191 117750 89009 47228 1950 1678 17479 4022 2812 10056 5799 26134 3754
internal_count=246005 88549 70709 157456 19876 17840 50833 39706 16162 12358 17836 47815 10167 38959 33377 33292 7453 2191 117750 89009 47228 1950 1678 17479 4022 2812 10056 5799 26134 3754
is_linear=0
shrinkage=0.1


Tree=11
num_leaves=31
num_cat=0
split_feature=32 33 126 637 10 436 31 293 31 33 11 718 718 617 31 376 617 646 7 631 646 252 325 613 32 612 335 645 720 552
split_gain=41.826 28.8548 13.4396 13.3599 12.2814 11.1907 10.3313 9.7475 9.69624 8.51541 7.67389 7.30023 6.82697 6.6767 6.25583 6.09518 6.08946 5.85801 6.67981 5.5542 5.51417 5.46327 5.36179 5.3584 5.12945 5.08363 5.03328 5.02054 4.85441 4.63691
threshold=-1.7362734977012566 -0.58791446584011509 1.0000000180025095e-35 0.15039025902397188 -0.56757513168983431 1.1311066715612175 -2.2234329548146428 -1.0000000180025095e-35 0.01233165304765428 -1.8557158279539003 0.2833641786593683 0.071885847238820536 0.46081120259722613 0.027979478635275255 0.35293575476123445 0.081115231262917559 0.039496682491929065 -0.59878410355215506 -0.73436624710704079 -0.088285226154823232 -0.65206576297325791 -0.1305892220289778 0.037720987464334256 -0.51044663498113219 0.33693598091363802 -0.55063463119242262 -1.2481395529803352 -0.60319153927239555 1.7002671546409329 -0.7894898051513829
decision_type=2 2 2 2 2 2 2 2 2 2 2 2 2 2 2 2 2 2 2 2 2 2 2 2 2 2 2 2 2 2
left_child=4 2 5 10 -1 6 22 -5 9 26 -3 16 15 23 20 19 17 18 -11 -8 -12 -21 -2 -9 -7 -15 -6 -13 -26 -28
right_child=1 3 -4 7 8 24 12 13 -10 11 14 27 -14 25 -16 -17 -18 -19 -20 21 -22 -23 -24 -25 28 -27 29 -29 -30 -31
leaf_value=0.00056328631785870754 0.0085986920537795605 -0.0020929807507028323 -0.00096001496033002408 -0.00019221322550076381 0.041416669207991974 0.0076959071334779727 0.00021793249110094935 0.0072645898463068173 -0.0015689887071462804 0.0020426877552554719 0.0022341243442807407 0.046377204295168534 0.00686952925944922 0.0011813046365873922 -0.0029166938871359183 -0.0021066283844398308 0.019447512790357988 0.0030646068666875131 0.011417976960969016 0.0013264413537445721 -0.00060100789230069099 0.0063462632820088325 0.05944249239705858 0.0010554544133979276 0.0024480318052568224 0.017359802090524606 0.023217712039362171 0.012834368859863336 0.029597958077245686 0.0095025432983949776
leaf_weight=5798 1683 82181 14768 30464 66 5220 12510 1899 1492 1155 8632 47 1988 291 9055 5702 294 6407 2222 5024 33421 3814 21 5184 3859 584 334 882 67 941
leaf_count=5798 1683 82181 14768 30464 66 5220 12510 1899 1492 1155 8632 47 1988 291 9055 5702 294 6407 2222 5024 33421 3814 21 5184 3859 584 334 882 67 941
internal_value=5.01238e-13 -0.000384055 0.00161711 -0.00102103 0.00442699 0.00257125 0.00165765 0.000621863 0.00604562 0.00696569 -0.00149461 0.00604908 0.00121357 0.00373823 -0.000532441 0.000797894 0.00526717 0.00484107 0.00821144 0.00157368 -1.90551e-05 0.00349272 0.00922529 0.00272017 0.0056421 0.0119793 0.0144893 0.0145314 0.00291136 0.0130954
internal_weight=246005 226367 54656 171711 19638 39888 30742 38422 13840 12348 133289 11007 29038 7958 51108 27050 10078 9784 3377 21348 42053 8838 1704 7083 9146 875 1341 929 3926 1275
internal_count=246005 226367 54656 171711 19638 39888 30742 38422 13840 12348 133289 11007 29038 7958 51108 27050 10078 9784 3377 21348 42053 8838 1704 7083 9146 875 1341 929 3926 1275
is_linear=0
shrinkage=0.1


Tree=12
num_leaves=31
num_cat=0
split_feature=32 31 33 607 31 436 31 275 718 644 7 631 649 33 8 242 32 245 552 579 1 372 658 7 333 637 617 635 647 245
split_gain=35.4224 19.1733 18.2581 15.6728 15.1912 13.835 10.5744 10.1251 9.30268 8.63943 8.38128 8.07286 9.89108 7.1408 6.89934 7.13206 5.7736 5.74351 5.12398 5.27906 4.97037 4.81804 4.78255 4.68991 4.52717 4.46543 4.9055 4.44394 4.20358 4.0492
threshold=-0.93717570483768486 -2.373155576731985 0.32276413780235141 0.028841424164536871 0.01233165304765428 0.56743308983172758 -2.8565147905075441 0.10160071813692707 1.233182375312895 -0.53520696347354713 -0.71666885762966259 1.0000000180025095e-35 0.42445090033984406 -1.6512477345944829 -0.23780772861001817 0.081837691440956942 0.84538308679303176 1.7444332611454951 -1.0091324053217852 0.57427844680984774 1.0000000180025095e-35 0.18403294149786137 0.41473277577204531 -0.93835194687260948 -2.3764017307034018 0.20126189487784082 0.13444608499769814 -0.56577554699913557 0.35497486546724527 -0.31592245458228813
decision_type=2 2 2 2 2 2 2 2 2 2 2 2 2 2 2 2 2 2 2 2 2 2 2 2 2 2 2 2 2 2
left_child=2 23 4 11 5 6 -1 13 9 24 -7 16 -13 -5 15 21 18 25 -3 -20 29 28 -16 -2 -8 27 -27 -11 -12 -15
right_child=1 3 -4 7 -6 10 8 -9 -10 17 14 12 -14 20 22 -17 -18 -19 19 -21 -22 -23 -24 -25 -26 26 -28 -29 -30 -31
leaf_value=0.019012131854353184 -0.00037842793838874667 0.0024545747943735567 -0.00058834395054099288 0.0062607460276778246 -0.0017692645704901833 0.0030195150451523389 0.036890416279435158 -0.00087091625296197386 0.013216313519942464 0.0040558001312233664 0.024157624364910799 -0.00054094342523859325 0.004670920949425241 -0.00041044982332985201 0.0042917593832346342 0.0068106593716774745 -0.0025763166810564907 -0.0039806411422819909 -0.0016572684265970961 0.00020813212927019511 0.0004783033887432158 0.0043214709081433036 0.017646827705469718 0.0072709188152802811 0.0065812136453804182 0.0048904752583710581 0.030773810108502709 -2.8600842427797728e-05 0.014415390132438569 0.0053191233238979608
leaf_weight=415 1017 3892 14166 3841 4444 2301 50 17181 839 3931 766 17203 4619 1661 2028 1135 36827 1693 69852 19380 13701 275 309 3783 3426 3089 75 8264 1050 4792
leaf_count=415 1017 3892 14166 3841 4444 2301 50 17181 839 3931 766 17203 4619 1661 2028 1135 36827 1693 69852 19380 13701 275 309 3783 3426 3089 75 8264 1050 4792
internal_value=1.19782e-12 -0.000592769 0.00242912 -0.000748076 0.00368302 0.00450032 0.00320231 0.000982248 0.00289525 0.00247341 0.00809561 -0.00121751 0.000562237 0.00230916 0.0101952 0.0131926 -0.00151638 0.00154718 -0.00109721 -0.00125213 0.00155605 0.0166568 0.00605758 0.00565021 0.00701719 0.0021565 0.00550402 0.00128799 0.0185247 0.00384433
internal_weight=246005 197749 48256 192949 34090 29646 21782 41176 21367 20528 7864 151773 21822 23995 5563 3226 129951 17052 93124 89232 20154 2091 2337 4800 3476 15359 3164 12195 1816 6453
internal_count=246005 197749 48256 192949 34090 29646 21782 41176 21367 20528 7864 151773 21822 23995 5563 3226 129951 17052 93124 89232 20154 2091 2337 4800 3476 15359 3164 12195 1816 6453
is_linear=0
shrinkage=0.1


Tree=13
num_leaves=31
num_cat=0
split_feature=33 32 1 309 31 2 718 718 275 635 448 245 10 31 606 600 244 31 390 613 637 631 561 126 602 1 536 528 434 451
split_gain=31.3636 20.5074 15.8872 10.3739 9.93468 9.76007 7.83985 7.58012 7.44338 7.18557 6.72229 6.43008 6.35096 6.05985 5.84341 5.68482 5.61802 5.45278 5.41177 5.06727 7.12978 5.04717 4.88353 4.66307 4.66259 4.55516 4.3876 4.35098 5.55364 4.27624
threshold=-1.5773770488452976 -0.038150414788521575 1.0000000180025095e-35 0.85988068857285038 -1.6507586079697172 1.0000000180025095e-35 0.78428501648862159 1.0000000180025095e-35 -0.94157621550748838 -0.37339584602189013 1.2957947883916774 1.7444332611454951 -0.49035497689958168 0.13522065826188212 0.00097433488063410349 -1.6409393689045562 -0.33859541496427137 -1.5955656593375143 0.57265297088475753 -0.59518850213445107 0.098332564370784109 -0.11272714691638915 0.18839333132530739 1.0000000180025095e-35 -1.9001842115986214 1.0000000180025095e-35 1.0259524109513214 1.6887584138661131 -1.4747319827787855 -1.7321770624015527
decision_type=2 2 2 2 2 2 2 2 2 2 2 2 2 2 2 2 2 2 2 2 2 2 2 2 2 2 2 2 2 2
left_child=3 2 5 8 -4 9 11 17 15 21 27 12 -6 19 -7 26 -12 -3 -10 20 -14 -2 -17 25 -22 -19 -1 28 -5 -18
right_child=1 7 4 10 6 14 -8 -9 18 -11 16 -13 13 -15 -16 22 29 23 -20 -21 24 -23 -24 -25 -26 -27 -28 -29 -30 -31
leaf_value=0.014697854534095648 0.0048942806180691332 0.0012899304929963056 0.0051314946740865716 0.01349252863167031 -0.0017875754931807849 3.2913925327816108e-05 0.0053315485787204988 0.0019241290306098746 -3.3785975035215093e-05 0.0024701448831131205 0.010789705635784391 -0.0040214014500943472 0.0020851409434679488 -0.0022553342910995896 0.0049246320504651008 0.0064002849423536144 0.060525216135111727 -1.4095029637600254e-05 0.0047804707659486389 0.00026644793904134501 0.038988411667998192 0.010542673382398551 -0.0027811004536865405 -0.0024319519061291235 0.0089740242142331925 -0.0015556582454441803 0.051217961389767502 0.0167806914890254 0.0040835029721333687 0.020527073196493661
leaf_weight=245 4329 7727 3375 778 18100 12481 2235 7792 9184 7476 143 5285 6285 5747 3036 3755 55 28188 3131 13909 54 2493 685 34634 1246 59903 38 405 3239 52
leaf_count=245 4329 7727 3375 778 18100 12481 2235 7792 9184 7476 143 5285 6285 5747 3036 3755 55 28188 3131 13909 54 2493 685 34634 1246 59903 38 405 3239 52
internal_value=1.42194e-12 -0.000351286 0.000860679 0.00362928 -0.000128684 0.00272678 -0.000464529 -0.00110568 0.0024846 0.00461163 0.00780374 -0.00072041 -0.000335643 0.000629079 0.00099001 0.00585968 0.0237569 -0.00128666 0.0011902 0.0014003 0.00347951 0.0069584 0.00498379 -0.00144888 0.0102208 -0.00106238 0.0196016 0.00690182 0.00590581 0.0410869
internal_weight=246005 224295 86051 21710 56236 29815 52861 138244 17038 14298 4672 50626 45341 27241 15517 4723 250 130452 12315 21494 7585 6822 4440 122725 1300 88091 283 4422 4017 107
internal_count=246005 224295 86051 21710 56236 29815 52861 138244 17038 14298 4672 50626 45341 27241 15517 4723 250 130452 12315 21494 7585 6822 4440 122725 1300 88091 283 4422 4017 107
is_linear=0
shrinkage=0.1


Tree=14
num_leaves=31
num_cat=0
split_feature=32 31 436 722 631 576 33 272 587 699 448 617 245 635 245 245 108 646 579 31 10 372 646 718 345 252 32 1 561 385
split_gain=28.3019 22.235 17.5026 11.6996 9.62783 14.3847 9.2597 8.07874 8.98866 7.36858 6.70183 6.63614 6.31351 6.95649 5.79506 7.50226 6.13636 5.64168 6.36221 5.3801 5.52773 5.34117 5.30894 5.00457 4.67157 4.48412 4.20106 4.16573 4.05051 4.03354
threshold=-2.0293527352028788 -2.2234329548146428 0.93592135120044173 1.0000000180025095e-35 -0.077815535291238344 0.53690815636856437 -2.1552326713814156 0.67249527733324799 -1.0201343870136876 -0.94831557078890572 1.0947695767341765 0.013790809119597534 1.4493281976691452 -0.70752901087710585 1.7444332611454951 -0.37212018486269455 1.0000000180025095e-35 -0.65206576297325791 0.92894321426674298 -3.0406485681192232 1.3881341298377827 -0.027598567412276911 -0.52376912972123335 2.1197709469936954 -0.003705170675827171 -0.13464280113483437 -0.51002477183500661 1.0000000180025095e-35 -0.069294804727209183 -0.25849423858096993
decision_type=2 2 2 2 2 2 2 2 2 2 2 2 2 2 2 2 2 2 2 2 2 2 2 2 2 2 2 2 2 2
left_child=7 19 3 4 17 28 29 8 25 -5 14 27 13 -10 15 -8 -17 24 -19 -2 -21 22 26 -15 -3 -1 -18 -7 -6 -4
right_child=1 2 6 9 5 11 10 -9 12 -11 -12 -13 -14 23 -16 16 21 18 -20 20 -22 -23 -24 -25 -26 -27 -28 -29 -30 -31
leaf_value=0.0079337647257189461 0.012466010153555954 -0.0012556345269326562 0.012548871798463077 0.0077608616143529929 0.0006204728599756565 0.0058418955279355891 -0.00082341216874361211 -0.0031667889561098148 0.011006453575966042 0.001018681139052217 0.0056607584549338511 0.011131432071145067 -0.0026465893053682524 0.0036148827480941719 -0.0032735316665597671 -0.0020543792581674079 0.012753260560823283 -0.0023137155321890104 -0.00023325505000446257 0.006103752720600682 0.00025476911738335077 0.00057199520578671097 0.0028195408334270229 0.01811842889438274 0.0016072358085971823 0.02203472626151701 0.0054097039561460062 0.0010415596174798856 -0.0013439654425006062 0.0039190729294403077
leaf_weight=437 852 15541 1004 1837 15990 2765 11142 1147 1897 13786 3038 1058 1024 6467 3225 2521 1111 75511 18252 4616 2486 4865 6164 247 9001 466 2607 5222 30550 1176
leaf_count=437 852 15541 1004 1837 15990 2765 11142 1147 1897 13786 3038 1058 1024 6467 3225 2521 1111 75511 18252 4616 2486 4865 6164 247 9001 466 2607 5222 30550 1176
internal_value=2.81814e-12 -0.000239522 -0.000422122 -0.000809881 -0.00104539 4.01572e-05 0.00157189 0.00480315 0.00567063 0.00181145 0.00117443 0.00368921 0.00477653 0.00565927 0.000743597 0.00119961 0.00250494 -0.00155543 -0.00190873 0.00495717 0.00405636 0.00328435 0.00461967 0.00414845 -0.000205651 0.0152107 0.00760408 0.00270338 -0.000669033 0.00789353
internal_weight=246005 234320 226366 189513 173890 55585 36853 11685 10538 15623 34673 9045 9635 8611 31635 28410 17268 118305 93763 7954 7102 14747 9882 6714 24542 903 3718 7987 46540 2180
internal_count=246005 234320 226366 189513 173890 55585 36853 11685 10538 15623 34673 9045 9635 8611 31635 28410 17268 118305 93763 7954 7102 14747 9882 6714 24542 903 3718 7987 46540 2180
is_linear=0
shrinkage=0.1


Tree=15
num_leaves=31
num_cat=0
split_feature=11 129 33 32 245 245 32 310 434 390 245 718 248 23 539 561 645 451 644 713 631 631 31 12 688 617 325 646 257 536
split_gain=25.1959 18.0397 18.1143 11.8447 9.65759 14.6819 7.99374 7.91392 7.48993 6.79096 6.78676 6.32771 5.37541 5.19057 5.14242 5.03653 4.6034 4.55462 4.38646 4.31852 4.29427 4.09818 4.0362 4.0158 4.32972 3.98589 3.97233 3.94329 3.7568 3.63513
threshold=0.39653343763883381 1.0000000180025095e-35 -1.6146675020157477 -0.73765444857488005 1.7444332611454951 1.1042896647495593 -1.982575826945425 1.0000000180025095e-35 -1.1876857572542019 0.41807787161203247 1.1512168960425007 1.0000000180025095e-35 1.7035227690023949 1.0000000180025095e-35 1.0000000180025095e-35 -0.038047300158252438 -0.47185148063480692 -1.7321770624015527 -0.52928253123087599 0.088462078192914587 0.075005890582929738 -0.072015151581476575 -2.7283578181953247 0.56961538746696061 2.8384906168278703 0.17668228007833586 0.08951225095513142 -0.70043265762113582 -0.35049018454630271 1.4330378898748102
decision_type=2 2 2 2 2 2 2 2 2 2 2 2 2 2 2 2 2 2 2 2 2 2 2 2 2 2 2 2 2 2
left_child=4 20 11 7 5 6 17 -4 29 16 -7 12 26 27 25 19 -8 -1 -14 21 -2 -5 -22 -15 -25 -11 -3 -10 -20 -9
right_child=1 2 3 15 -6 10 9 8 13 14 -12 -13 18 23 -16 -17 -18 -19 28 -21 22 -23 -24 24 -26 -27 -28 -29 -30 -31
leaf_value=0.011246502182400411 -0.0010811080558112624 0.0048451235266963122 -0.00081740144989629377 0.00051020224878444136 -0.0030037986495250546 0.0072970340897933854 -8.2271960531796434e-05 0.0093732627605980119 0.0092778817495737954 -0.0003247158789017939 0.00064973632419697356 0.016909875467678571 0.025805805210685318 0.0043574704401768173 0.0028666161309346531 -0.00054806787934411462 -0.0017443372000595443 0.0019655134998555479 0.0037936087655887178 0.0059559428161114793 0.033283014307645235 0.0037552145889511177 0.0027243285189929942 0.011800916155644575 0.05875426523387433 0.022025344786234202 0.029184085108778058 0.0021436010158861372 0.023885558137581461 0.023002962985526926
leaf_weight=587 26400 4833 2644 15587 17108 3376 22008 1708 870 30925 2818 633 231 1235 6301 15846 68629 5330 356 2225 44 5187 2444 1089 20 80 68 7076 126 221
leaf_count=587 26400 4833 2644 15587 17108 3376 22008 1708 870 30925 2818 633 231 1235 6301 15846 68629 5330 356 2225 44 5187 2444 1089 20 80 68 7076 126 221
internal_value=-2.54556e-12 0.00134603 0.00233515 0.00174234 -0.000760905 -0.000486929 -0.000707173 0.00414315 0.00521653 -0.000873358 0.0042728 0.00743176 0.00636306 0.00414457 0.00026223 0.000823738 -0.00134076 0.00288624 0.0144758 0.00176889 -0.000706817 0.00132044 0.00326476 0.00827976 0.0126477 -0.000267048 0.00518282 0.00292473 0.00904586 0.0109348
internal_weight=246005 88843 59955 53708 157162 140054 133860 14863 12219 127943 6194 6247 5614 10290 37306 38845 90637 5917 713 22999 28888 20774 2488 2344 1109 31005 4901 7946 482 1929
internal_count=246005 88843 59955 53708 157162 140054 133860 14863 12219 127943 6194 6247 5614 10290 37306 38845 90637 5917 713 22999 28888 20774 2488 2344 1109 31005 4901 7946 482 1929
is_linear=0
shrinkage=0.1


Tree=16
num_leaves=31
num_cat=0
split_feature=33 31 83 245 245 32 245 33 32 607 245 616 6 242 565 701 556 253 658 617 529 637 718 244 672 1 245 245 358 648
split_gain=21.836 20.2296 20.3341 22.1423 29.6743 13.677 9.99714 8.30336 6.66004 6.546 6.2356 6.07313 7.23927 5.81256 5.66782 4.84762 5.17464 4.61945 4.48729 4.47985 4.22823 4.21579 4.03319 4.0202 5.87684 3.97896 3.95476 3.93067 3.81162 3.74254
threshold=0.23138290759492738 0.01233165304765428 1.0000000180025095e-35 -0.32025932007875907 1.7444332611454951 -0.73765444857488005 -0.16489423783708371 -1.8103096231291638 -2.1899949831849139 1.066423387716122 -0.22654186514470828 1.1197579973061085 0.85565374406105621 0.1298010283717724 -0.24401064887782745 2.619454696873353 -0.80187533973818192 -2.7044813812397128e-05 -0.6732449821360903 -0.0081053862674992632 0.15198458014897356 0.15659035909046479 2.0544254538223634 0.2315178334088755 0.24479000038183976 1.0000000180025095e-35 -1.084373939853746 -0.29570521786251303 -0.11149799036390402 1.3231280608410094
decision_type=2 2 2 2 2 2 2 2 2 2 2 2 2 2 2 2 2 2 2 2 2 2 2 2 2 2 2 2 2 2
left_child=1 2 11 8 5 6 10 13 26 15 27 20 -13 -7 18 16 -8 -11 -9 -18 -1 -2 -10 -12 -25 -20 -4 -5 -19 -15
right_child=21 -3 3 4 -6 7 9 14 22 17 23 12 -14 29 -16 -17 19 28 25 -21 -22 -23 -24 24 -26 -27 -28 -29 -30 -31
leaf_value=-0.00031932533406415554 -0.0015738261994515371 -0.001534271012936807 -0.0042287936764619045 0.012634799815921549 -0.0018911653612847567 0.010863504842333959 0.010542310382112311 -0.00037237699122623304 -0.00037276440457470651 0.00059051881035168978 0.012975519518804974 0.0037627242159011757 0.053265261136823228 0.0015119275901206706 0.0011404880683548238 0.019530665070115041 0.0018324405059907873 -0.0051324250842999979 0.0071143345835289924 0.0088221182752960467 -0.0032777896680689735 0.00011931099647787233 0.0058586548427657491 0.020898976222772689 0.066006493928932375 0.0033725009498077776 0.0098089653410782379 0.0037673895090130252 0.014238163081546081 0.026085332093330534
leaf_weight=29497 72485 31644 248 899 8946 2252 1003 1999 31568 375 1236 86 45 1333 13107 201 6138 109 4473 1078 5777 18449 1074 423 31 7793 1052 1126 1493 65
leaf_count=29497 72485 31644 248 899 8946 2252 1003 1999 31568 375 1236 86 45 1333 13107 201 6138 109 4473 1078 5777 18449 1074 423 31 7793 1052 1126 1493 65
internal_value=1.08804e-12 0.000721461 0.00129978 0.00211382 0.00337033 0.00441321 0.00699418 0.00323912 0.00011181 0.00540319 0.0114468 -0.000724033 0.0207674 0.00771933 0.00264169 0.00418734 0.00381211 0.0105815 0.00402103 0.00287663 -0.000803848 -0.00123032 -0.000167736 0.0159315 0.023979 0.00473702 0.00713099 0.00770408 0.0129202 0.00265447
internal_weight=246005 155071 123427 88022 54080 45134 14112 31022 33942 10397 3715 35405 131 3650 27372 8420 8219 1977 14265 7216 35274 90934 32642 1690 454 12266 1300 2025 1602 1398
internal_count=246005 155071 123427 88022 54080 45134 14112 31022 33942 10397 3715 35405 131 3650 27372 8420 8219 1977 14265 7216 35274 90934 32642 1690 454 12266 1300 2025 1602 1398
is_linear=0
shrinkage=0.1


Tree=17
num_leaves=31
num_cat=0
split_feature=31 275 436 32 1 129 640 245 6 32 347 7 7 617 131 33 718 33 6 718 32 31 390 436 528 579 32 734 32 32
split_gain=19.8435 16.8293 15.7904 11.4102 9.55743 6.71174 6.16219 6.07306 8.02658 6.10874 5.92301 5.56569 5.13657 4.8494 4.74353 4.56499 4.52061 4.28681 4.24627 4.22327 3.92512 3.76237 4.10974 3.72431 3.7155 4.13347 3.92859 3.64718 3.61614 3.55034
threshold=-2.373155576731985 0.04657793678653447 1.1629112243473247 0.20514495382004935 1.0000000180025095e-35 1.0000000180025095e-35 -0.53103783304776542 -0.31622245545446132 -0.79523036962753635 0.19440124143964807 -0.28981846876625328 -0.92220695998096636 -1.0020004528877411 0.019959619600097171 1.0000000180025095e-35 -2.4843415094115451 1.6127275944499477 -2.5791722407388824 -0.80789038652822931 0.042392831623149309 -2.2872757658596345 -2.8565147905075441 0.095714307558124004 1.8553798109061459 1.9040320008800482 1.0580014952839196 -2.2872757658596345 1.9856513147196881 0.97521109957882846 -1.3021672876324104
decision_type=2 2 2 2 2 2 2 2 2 2 2 2 2 2 2 2 2 2 2 2 2 2 2 2 2 2 2 2 2 2
left_child=12 2 3 4 6 -4 11 -7 -9 17 23 -2 -1 21 -13 -8 24 -10 -12 -17 -20 -14 -23 -3 25 -6 -26 -19 -5 -24
right_child=1 10 5 28 16 7 15 8 9 -11 18 14 13 -15 -16 19 -18 27 20 -21 -22 22 29 -25 26 -27 -28 -29 -30 -31
leaf_value=-0.00059888033586114379 -0.0010366966517588742 0.0005609608343193354 0.00028930659870057504 -0.00031668684125443812 -0.00081347316659514241 0.0012523388596932896 0.016362287064916211 0.0022163765327629023 0.031582485968919147 0.0044623369223888753 -0.0024611458060116932 0.016349135440403739 0.010115534543482877 0.020494013108933964 0.0064058830458353757 0.0016274645473476762 0.006608804517489528 0.0097636793977673025 0.0040168217358957379 0.0080555376961179408 -0.0010410465809069136 0.0023815593292471834 0.021258188212333724 0.0077400166091400316 0.016843563237507356 0.0024680128864151929 0.0024238628134557495 0.033339065168775731 -0.0020831314165573249 0.0066774918603148053
leaf_weight=1209 593 11744 5622 39739 25028 4358 228 3939 97 2681 24095 744 1554 240 1351 13775 1078 3187 1567 1104 73582 2865 215 770 203 4534 2728 67 16360 748
leaf_count=1209 593 11744 5622 39739 25028 4358 228 3939 97 2681 24095 744 1554 240 1351 13775 1078 3187 1567 1104 73582 2865 215 770 203 4534 2728 67 16360 748
internal_value=2.63642e-12 -0.000151783 0.000633822 0.000154161 0.001231 0.00321749 0.00310456 0.00436636 0.0057274 0.00802016 -0.00104746 0.00751612 0.00531438 0.00658601 0.00993704 0.0023196 0.00023789 0.0108666 -0.00130597 0.00210442 -0.00093558 0.00596581 0.0042812 0.0010027 2.65259e-05 -0.000310183 0.00342257 0.0102491 -0.00083183 0.00993279
internal_weight=246005 239174 127416 107465 51366 19951 17795 14329 9971 6032 111758 2688 6831 5622 2095 15107 33571 3351 99244 14879 75149 5382 3828 12514 32493 29562 2931 3254 56099 963
internal_count=246005 239174 127416 107465 51366 19951 17795 14329 9971 6032 111758 2688 6831 5622 2095 15107 33571 3351 99244 14879 75149 5382 3828 12514 32493 29562 2931 3254 56099 963
is_linear=0
shrinkage=0.1


Tree=18
num_leaves=31
num_cat=0
split_feature=11 129 33 32 31 390 648 561 528 722 631 248 372 649 325 31 1 131 387 23 390 14 10 631 32 605 568 394 641 32
split_gain=17.6506 14.06 13.3053 8.65625 7.48644 6.51616 6.12627 6.071 5.91751 5.14867 4.96071 4.5092 4.4543 5.19114 4.44165 4.3588 4.18542 4.56018 4.15722 4.11839 4.49987 4.84837 4.10809 3.92982 3.62062 3.62028 3.5097 4.13432 3.46429 3.42291
threshold=0.2833641786593683 1.0000000180025095e-35 -1.6512477345944829 -1.8900268015151103 -1.5955656593375143 0.36764628650134595 1.2679831181175769 -0.046356588478123857 -0.46854243251902067 0.1235527473591773 -0.071365976160700242 -0.17493039671417884 -0.17714108518404165 0.73176983740355794 0.08951225095513142 -2.0336233196678908 1.0000000180025095e-35 1.0000000180025095e-35 0.02946199557916615 -1.0555736313609234 0.83997643170717418 -0.076413287933888352 1.2430885571902159 -0.11310776665274495 -0.8253601416605173 -0.14065911849497478 -0.81341865198482888 -0.071867279038757836 -0.42512473850609372 0.27035024502762328
decision_type=2 2 2 2 2 2 2 2 2 2 2 2 2 2 2 2 2 2 2 2 2 2 2 2 2 2 2 2 2 2
left_child=4 22 6 12 -1 16 14 9 -7 10 -5 -10 23 -14 19 -8 17 24 -12 -3 26 -22 -2 -4 -6 -20 -21 -28 -27 -13
right_child=1 2 3 7 5 8 15 -9 11 -11 18 29 13 -15 -16 -17 -18 -19 25 20 21 -23 -24 -25 -26 28 27 -29 -30 -31
leaf_value=0.002574854690285849 4.9108771953022567e-05 -0.0030936141217114944 0.0051180829654169369 0.00074592176433157327 0.006341263516451247 -0.00099731708669878786 0.037352462634444243 -0.00020261704713440683 -0.00034406969704940649 0.0056651483751148255 0.0016123506840907014 0.004288948069361493 0.00081964129381605338 0.023455965811404113 0.028514207694679501 0.012326030303663183 -0.0017293929923417801 -0.00098627669624952777 0.011882339437292163 0.01459129189562266 0.0085486024269398227 0.027274347560177017 -0.0023934879560907007 0.013088251147600052 0.0007491808761066447 0.0092837643542367492 0.00060615482191235645 0.0068844801289850311 0.0015887760110408088 0.00086305973184345021
leaf_weight=6639 22697 596 1549 22638 1483 20390 80 23341 8434 3273 4266 6242 1905 107 80 535 68820 22477 866 314 705 172 9884 1030 5280 920 2177 2024 1607 5474
leaf_count=6639 22697 596 1549 22638 1483 20390 80 23341 8434 3273 4266 6242 1905 107 80 535 68820 22477 866 314 705 172 9884 1030 5280 920 2177 2024 1607 5474
internal_value=3.14523e-12 0.00101693 0.00183347 0.00137299 -0.000705543 -0.000862675 0.00607113 0.00103603 0.00020372 0.00189725 0.00149021 0.00141906 0.00554999 0.00202346 0.00510724 0.0155815 -0.00130354 -0.000301258 0.00369012 0.00479452 0.00566643 0.0122212 -0.000691894 0.00830121 0.00197542 0.00630249 0.00439323 0.00363099 0.00439028 0.00268829
internal_weight=246005 100766 68185 61502 145239 138600 6683 56911 40540 33570 30297 20150 4591 2012 6068 615 98060 29240 7659 5988 5392 877 32581 2579 6763 3393 4515 4201 2527 11716
internal_count=246005 100766 68185 61502 145239 138600 6683 56911 40540 33570 30297 20150 4591 2012 6068 615 98060 29240 7659 5988 5392 877 32581 2579 6763 3393 4515 4201 2527 11716
is_linear=0
shrinkage=0.1


Tree=19
num_leaves=31
num_cat=0
split_feature=31 124 32 14 33 261 31 637 244 8 718 723 694 617 612 587 607 635 251 33 718 301 309 428 448 309 49 646 576 635
split_gain=16.3133 16.5815 14.2408 11.3606 11.8637 6.90809 5.62775 5.42681 5.05573 5.24729 4.98112 4.83088 4.76498 4.74227 4.71687 4.68997 4.28485 4.05948 4.02696 4.84149 3.99422 3.96282 3.93263 3.85329 3.67546 3.65926 3.6493 3.52265 3.3883 3.35775
threshold=0.01233165304765428 1.0000000180025095e-35 -2.0293527352028788 -0.21673861441577075 -0.60790505053028265 -0.13017570596645142 -2.5304232272444374 0.24978426431432327 -0.14090368825374427 -0.23780772861001817 1.9547328253195591 1.2061509770918588 -0.99752125417905313 0.033109937337487134 0.06635818659903607 -1.0201343870136876 1.1345000323835335 -0.67715326861754077 -0.40536545497651616 -2.4046195397385941 1.3115306305250272 -0.13429750577356109 0.91046715294993252 1.1469562715718526 3.7758429930201021 0.93323106191961946 0.18809914307779779 -0.64150947380943402 1.3355678860647437 -0.66196539748775829
decision_type=2 2 2 2 2 2 2 2 2 2 2 2 2 2 2 2 2 2 2 2 2 2 2 2 2 2 2 2 2 2
left_child=1 6 15 -4 5 17 22 11 16 24 13 27 -13 18 -15 23 25 -5 -8 -20 -18 -17 -1 -3 -10 -7 -23 -6 -24 -26
