tree
version=v4
num_class=1
num_tree_per_iteration=1
label_index=0
max_feature_idx=775
objective=binary sigmoid:1
feature_names=Column_0 Column_1 Column_2 Column_3 Column_4 Column_5 Column_6 Column_7 Column_8 Column_9 Column_10 Column_11 Column_12 Column_13 Column_14 Column_15 Column_16 Column_17 Column_18 Column_19 Column_20 Column_21 Column_22 Column_23 Column_24 Column_25 Column_26 Column_27 Column_28 Column_29 Column_30 Column_31 Column_32 Column_33 Column_34 Column_35 Column_36 Column_37 Column_38 Column_39 Column_40 Column_41 Column_42 Column_43 Column_44 Column_45 Column_46 Column_47 Column_48 Column_49 Column_50 Column_51 Column_52 Column_53 Column_54 Column_55 Column_56 Column_57 Column_58 Column_59 Column_60 Column_61 Column_62 Column_63 Column_64 Column_65 Column_66 Column_67 Column_68 Column_69 Column_70 Column_71 Column_72 Column_73 Column_74 Column_75 Column_76 Column_77 Column_78 Column_79 Column_80 Column_81 Column_82 Column_83 Column_84 Column_85 Column_86 Column_87 Column_88 Column_89 Column_90 Column_91 Column_92 Column_93 Column_94 Column_95 Column_96 Column_97 Column_98 Column_99 Column_100 Column_101 Column_102 Column_103 Column_104 Column_105 Column_106 Column_107 Column_108 Column_109 Column_110 Column_111 Column_112 Column_113 Column_114 Column_115 Column_116 Column_117 Column_118 Column_119 Column_120 Column_121 Column_122 Column_123 Column_124 Column_125 Column_126 Column_127 Column_128 Column_129 Column_130 Column_131 Column_132 Column_133 Column_134 Column_135 Column_136 Column_137 Column_138 Column_139 Column_140 Column_141 Column_142 Column_143 Column_144 Column_145 Column_146 Column_147 Column_148 Column_149 Column_150 Column_151 Column_152 Column_153 Column_154 Column_155 Column_156 Column_157 Column_158 Column_159 Column_160 Column_161 Column_162 Column_163 Column_164 Column_165 Column_166 Column_167 Column_168 Column_169 Column_170 Column_171 Column_172 Column_173 Column_174 Column_175 Column_176 Column_177 Column_178 Column_179 Column_180 Column_181 Column_182 Column_183 Column_184 Column_185 Column_186 Column_187 Column_188 Column_189 Column_190 Column_191 Column_192 Column_193 Column_194 Column_195 Column_196 Column_197 Column_198 Column_199 Column_200 Column_201 Column_202 Column_203 Column_204 Column_205 Column_206 Column_207 Column_208 Column_209 Column_210 Column_211 Column_212 Column_213 Column_214 Column_215 Column_216 Column_217 Column_218 Column_219 Column_220 Column_221 Column_222 Column_223 Column_224 Column_225 Column_226 Column_227 Column_228 Column_229 Column_230 Column_231 Column_232 Column_233 Column_234 Column_235 Column_236 Column_237 Column_238 Column_239 Column_240 Column_241 Column_242 Column_243 Column_244 Column_245 Column_246 Column_247 Column_248 Column_249 Column_250 Column_251 Column_252 Column_253 Column_254 Column_255 Column_256 Column_257 Column_258 Column_259 Column_260 Column_261 Column_262 Column_263 Column_264 Column_265 Column_266 Column_267 Column_268 Column_269 Column_270 Column_271 Column_272 Column_273 Column_274 Column_275 Column_276 Column_277 Column_278 Column_279 Column_280 Column_281 Column_282 Column_283 Column_284 Column_285 Column_286 Column_287 Column_288 Column_289 Column_290 Column_291 Column_292 Column_293 Column_294 Column_295 Column_296 Column_297 Column_298 Column_299 Column_300 Column_301 Column_302 Column_303 Column_304 Column_305 Column_306 Column_307 Column_308 Column_309 Column_310 Column_311 Column_312 Column_313 Column_314 Column_315 Column_316 Column_317 Column_318 Column_319 Column_320 Column_321 Column_322 Column_323 Column_324 Column_325 Column_326 Column_327 Column_328 Column_329 Column_330 Column_331 Column_332 Column_333 Column_334 Column_335 Column_336 Column_337 Column_338 Column_339 Column_340 Column_341 Column_342 Column_343 Column_344 Column_345 Column_346 Column_347 Column_348 Column_349 Column_350 Column_351 Column_352 Column_353 Column_354 Column_355 Column_356 Column_357 Column_358 Column_359 Column_360 Column_361 Column_362 Column_363 Column_364 Column_365 Column_366 Column_367 Column_368 Column_369 Column_370 Column_371 Column_372 Column_373 Column_374 Column_375 Column_376 Column_377 Column_378 Column_379 Column_380 Column_381 Column_382 Column_383 Column_384 Column_385 Column_386 Column_387 Column_388 Column_389 Column_390 Column_391 Column_392 Column_393 Column_394 Column_395 Column_396 Column_397 Column_398 Column_399 Column_400 Column_401 Column_402 Column_403 Column_404 Column_405 Column_406 Column_407 Column_408 Column_409 Column_410 Column_411 Column_412 Column_413 Column_414 Column_415 Column_416 Column_417 Column_418 Column_419 Column_420 Column_421 Column_422 Column_423 Column_424 Column_425 Column_426 Column_427 Column_428 Column_429 Column_430 Column_431 Column_432 Column_433 Column_434 Column_435 Column_436 Column_437 Column_438 Column_439 Column_440 Column_441 Column_442 Column_443 Column_444 Column_445 Column_446 Column_447 Column_448 Column_449 Column_450 Column_451 Column_452 Column_453 Column_454 Column_455 Column_456 Column_457 Column_458 Column_459 Column_460 Column_461 Column_462 Column_463 Column_464 Column_465 Column_466 Column_467 Column_468 Column_469 Column_470 Column_471 Column_472 Column_473 Column_474 Column_475 Column_476 Column_477 Column_478 Column_479 Column_480 Column_481 Column_482 Column_483 Column_484 Column_485 Column_486 Column_487 Column_488 Column_489 Column_490 Column_491 Column_492 Column_493 Column_494 Column_495 Column_496 Column_497 Column_498 Column_499 Column_500 Column_501 Column_502 Column_503 Column_504 Column_505 Column_506 Column_507 Column_508 Column_509 Column_510 Column_511 Column_512 Column_513 Column_514 Column_515 Column_516 Column_517 Column_518 Column_519 Column_520 Column_521 Column_522 Column_523 Column_524 Column_525 Column_526 Column_527 Column_528 Column_529 Column_530 Column_531 Column_532 Column_533 Column_534 Column_535 Column_536 Column_537 Column_538 Column_539 Column_540 Column_541 Column_542 Column_543 Column_544 Column_545 Column_546 Column_547 Column_548 Column_549 Column_550 Column_551 Column_552 Column_553 Column_554 Column_555 Column_556 Column_557 Column_558 Column_559 Column_560 Column_561 Column_562 Column_563 Column_564 Column_565 Column_566 Column_567 Column_568 Column_569 Column_570 Column_571 Column_572 Column_573 Column_574 Column_575 Column_576 Column_577 Column_578 Column_579 Column_580 Column_581 Column_582 Column_583 Column_584 Column_585 Column_586 Column_587 Column_588 Column_589 Column_590 Column_591 Column_592 Column_593 Column_594 Column_595 Column_596 Column_597 Column_598 Column_599 Column_600 Column_601 Column_602 Column_603 Column_604 Column_605 Column_606 Column_607 Column_608 Column_609 Column_610 Column_611 Column_612 Column_613 Column_614 Column_615 Column_616 Column_617 Column_618 Column_619 Column_620 Column_621 Column_622 Column_623 Column_624 Column_625 Column_626 Column_627 Column_628 Column_629 Column_630 Column_631 Column_632 Column_633 Column_634 Column_635 Column_636 Column_637 Column_638 Column_639 Column_640 Column_641 Column_642 Column_643 Column_644 Column_645 Column_646 Column_647 Column_648 Column_649 Column_650 Column_651 Column_652 Column_653 Column_654 Column_655 Column_656 Column_657 Column_658 Column_659 Column_660 Column_661 Column_662 Column_663 Column_664 Column_665 Column_666 Column_667 Column_668 Column_669 Column_670 Column_671 Column_672 Column_673 Column_674 Column_675 Column_676 Column_677 Column_678 Column_679 Column_680 Column_681 Column_682 Column_683 Column_684 Column_685 Column_686 Column_687 Column_688 Column_689 Column_690 Column_691 Column_692 Column_693 Column_694 Column_695 Column_696 Column_697 Column_698 Column_699 Column_700 Column_701 Column_702 Column_703 Column_704 Column_705 Column_706 Column_707 Column_708 Column_709 Column_710 Column_711 Column_712 Column_713 Column_714 Column_715 Column_716 Column_717 Column_718 Column_719 Column_720 Column_721 Column_722 Column_723 Column_724 Column_725 Column_726 Column_727 Column_728 Column_729 Column_730 Column_731 Column_732 Column_733 Column_734 Column_735 Column_736 Column_737 Column_738 Column_739 Column_740 Column_741 Column_742 Column_743 Column_744 Column_745 Column_746 Column_747 Column_748 Column_749 Column_750 Column_751 Column_752 Column_753 Column_754 Column_755 Column_756 Column_757 Column_758 Column_759 Column_760 Column_761 Column_762 Column_763 Column_764 Column_765 Column_766 Column_767 Column_768 Column_769 Column_770 Column_771 Column_772 Column_773 Column_774 Column_775
feature_infos=[-1.7345534563064575:1.7305923700332642] [-1.3874846696853638:0.72072863578796387] [-0.71834069490432739:1.3920971155166626] [-0.66366684436798096:1.5067801475524902] [-0.57784676551818848:16.059446334838867] [-0.54875022172927856:7.1270122528076172] [-1.3767068386077881:5.2163524627685547] [-1.7333372831344604:9.622797966003418] [-1.3360917568206787:4.6539273262023926] [-1.470258355140686:3.730172872543335] [-2.0985734462738037:1.9104585647583008] [-6.5706243515014648:1.0435155630111694] [-4.0224862098693848:1.415024995803833] [-2.1087772846221924:1.9819533824920654] [-1.4095039367675781:7.7116422653198242] none [-2.1354892253875732:0.4682767391204834] [-0.50001907348632812:1.9999238252639771] none [-0.62550610303878784:1.5987054109573364] [-0.24555616080760956:4.0723881721496582] [-1.2660832405090332:13.020748138427734] [-2.0650641918182373:1.8601891994476318] [-2.0488619804382324:1.924291729927063] [-3.3859889507293701:3.0433433055877686] [-0.12374131381511688:8.0813751220703125] [-0.23062796890735626:4.3359875679016113] [-0.20523227751255035:4.8725275993347168] [-0.29152888059616089:3.4301919937133789] [-0.54716825485229492:1.8275914192199707] [-0.46768945455551147:2.1381709575653076] [-3.4868481159210205:3.1175949573516846] [-2.6941618919372559:1.7830277681350708] [-2.9476387500762939:2.1671509742736816] [-1.3210943937301636:11.589228630065918] [-1.5248448848724365:17.216682434082031] [-23.059591293334961:0.47951754927635193] [-11.534944534301758:3.7569880485534668] [-0.64935505390167236:22.348047256469727] [-0.36882677674293518:9.641636848449707] [-2.0271844863891602:12.070499420166016] [-1.8402674198150635:7.5194563865661621] [-2.3433003425598145:8.5168628692626953] [-1.0543497800827026:17.928895950317383] [-1.5650277137756348:17.154716491699219] [-1.1388113498687744:11.387148857116699] [-0.10053326189517975:36.954849243164062] [-0.30599704384803772:20.421525955200195] [-1.279832124710083:11.65889835357666] [-1.46488356590271:16.850713729858398] [-21.273065567016602:0.44964683055877686] [-12.000068664550781:3.7255616188049316] [-0.61278128623962402:22.826137542724609] [-0.35623851418495178:9.8922948837280273] [-1.9807473421096802:12.014247894287109] [-1.8419327735900879:7.6221299171447754] [-2.3386709690093994:8.5628480911254883] [-1.0093702077865601:17.821863174438477] [-1.5197151899337769:16.119146347045898] [-1.1086275577545166:10.173432350158691] [-0.095094054937362671:37.997379302978516] [-0.26124367117881775:20.19825553894043] [-1.3040105104446411:11.491532325744629] [-1.5200400352478027:17.276321411132812] [-22.826213836669922:0.4744715690612793] [-11.708700180053711:3.7461366653442383] [-0.6429097056388855:22.302158355712891] [-0.36561962962150574:9.6690387725830078] [-2.0176899433135986:12.039375305175781] [-1.8340723514556885:7.5033187866210938] [-2.3344714641571045:8.4891223907470703] [-1.0551837682723999:17.710721969604492] [-1.5584607124328613:16.924417495727539] [-1.1313492059707642:9.8469324111938477] [-0.099318861961364746:37.091217041015625] [-0.29607650637626648:20.218786239624023] [-1.0911442041397095:11.06946849822998] [-0.58683395385742188:9.7199678421020508] [-0.31991615891456604:13.061569213867188] [-0.58498889207839966:9.8135671615600586] [-0.27504122257232666:13.496893882751465] [-3.5550720691680908:1.1642460823059082] none [-1.5639625787734985:0.63940149545669556] none [-0.12380902469158173:8.0769557952880859] [-0.31066623330116272:3.218888521194458] none [-0.29763254523277283:3.3598475456237793] [-0.062689222395420074:15.951704978942871] none [-0.062787175178527832:15.92681884765625] none [-0.059194885194301605:16.893352508544922] [-0.054178971797227859:18.457345962524414] none [-0.10062647610902786:9.9377422332763672] none [-0.090146087110042572:11.093105316162109] none none none [-0.070447720587253571:12.691327095031738] [-0.058494437485933304:47.090667724609375] [-0.15507061779499054:25.704574584960938] [-0.26973193883895874:18.39039421081543] [-0.29473954439163208:9.9522085189819336] [-1.0083709955215454:8.6269111633300781] [-3.074601411819458:0.32524541020393372] [-0.32524541020393372:3.074601411819458] [-0.10393370687961578:9.6215181350708008] [-0.38698866963386536:2.5840549468994141] none [-0.052570506930351257:19.022071838378906] [-0.076572373509407043:13.059540748596191] [-0.19532914459705353:5.1195635795593262] [-2.0558395385742188:0.48641929030418396] none [-0.55169504880905151:1.8125956058502197] none [-0.46815416216850281:2.1360485553741455] [-0.27633923292160034:3.6187407970428467] none none [-1.0320702791213989:0.96892625093460083] none [-0.56714671850204468:1.7632123231887817] [-0.18669836223125458:5.3562331199645996] [-0.11176428198814392:8.9474029541015625] [-1.5650744438171387:0.6389472484588623] [-0.3270532488822937:3.0576059818267822] [-1.3293763399124146:0.75223243236541748] [-0.26158291101455688:3.8228795528411865] [-0.41734990477561951:2.3960709571838379] none [-0.23504212498664856:4.2545561790466309] [-0.060966722667217255:16.40239143371582] [-2.8123569488525391:0.35557365417480469] [-0.19448649883270264:5.1417450904846191] [-0.092298112809658051:10.834457397460938] [-0.12584109604358673:7.9465293884277344] [-0.22468174993991852:4.450739860534668] [-0.18170887231826782:5.5033082962036133] [-0.12478695809841156:8.0136585235595703] [-0.14037670195102692:7.1236891746520996] [-0.31437265872955322:3.1809382438659668] [-0.25328865647315979:3.9480648040771484] none [-0.19595630466938019:5.1031785011291504] none [-0.46730858087539673:2.1399135589599609] [-0.083615131676197052:11.959558486938477] [-0.27289828658103943:3.6643688678741455] [-0.16877023875713348:5.9252152442932129] [-0.093566365540027618:10.687601089477539] none [-0.34221750497817993:2.9221181869506836] [-0.065471380949020386:15.273849487304688] [-0.14911486208438873:6.7062397003173828] [-0.066465891897678375:15.045310020446777] [-0.44263216853141785:2.2592122554779053] [-0.44449597597122192:2.2497391700744629] [-0.35200986266136169:2.8408293724060059] [-0.23518653213977814:4.2519440650939941] [-0.44317057728767395:2.256467342376709] [-0.46084576845169067:2.1699233055114746] [-0.45127925276756287:2.2159228324890137] none [-0.090466335415840149:11.053835868835449] [-0.090374946594238281:11.06501293182373] [-0.14079765975475311:7.1023907661437988] [-0.1881508082151413:5.3148856163024902] [-0.53324145078659058:1.8753231763839722] none [-0.14992471039295197:6.6700143814086914] none [-0.056325577199459076:17.753923416137695] none [-0.18674498796463013:5.354896068572998] [-0.055924717336893082:17.881181716918945] [-0.09839756041765213:10.162853240966797] [-0.058673977851867676:17.043331146240234] none [-0.094687208533287048:10.561088562011719] none none none [-0.10341297090053558:9.6699666976928711] [-0.054027825593948364:18.508981704711914] none none [-0.065094590187072754:15.362259864807129] none [-0.10459106415510178:9.5610456466674805] none [-0.15170092880725861:6.5919175148010254] none [-0.19393429160118103:5.1563858985900879] [-0.093101054430007935:10.741016387939453] none [-0.23913533985614777:4.1817326545715332] [-0.087590403854846954:11.416775703430176] [-0.084326997399330139:11.858598709106445] none none [-0.077798143029212952:12.853777885437012] [-0.1727040559053421:5.7902517318725586] [-0.10325223952531815:9.6850204467773438] [-0.079989202320575714:12.501688003540039] [-0.37810757756233215:2.6447501182556152] [-0.071089841425418854:14.066707611083984] none none [-0.07800939679145813:12.818967819213867] [-0.10702662169933319:9.3434696197509766] none none none [-0.16152298450469971:6.1910691261291504] none [-0.085757546126842499:11.660781860351562] [-0.062295883893966675:16.052425384521484] [-0.13328547775745392:7.5026931762695312] [-0.066465891897678375:15.045310020446777] [-0.46819931268692017:2.1358425617218018] [-0.13673487305641174:7.3134231567382812] [-0.13634873926639557:7.334134578704834] [-0.56223827600479126:1.7786053419113159] [-0.20197322964668274:4.9511508941650391] [-0.9800410270690918:1.0203654766082764] [-0.069601692259311676:14.367466926574707] none [-0.17621716856956482:5.6748161315917969] [-0.086021699011325836:11.624973297119141] [-0.076491765677928925:13.07330322265625] [-0.073084048926830292:13.682876586914062] [-0.52329599857330322:1.9109643697738647] [-0.51673543453216553:1.9352263212203979] [-0.13333284854888916:7.5000271797180176] [-1.0382970571517944:0.96311545372009277] [-0.087330855429172516:11.450706481933594] [-1.130576491355896:4.4166946411132812] [-0.65624243021011353:12.890134811401367] [-0.79837697744369507:7.517977237701416] [-1.7840133905410767:8.1134986877441406] [-1.2659457921981812:2.9771418571472168] [-1.4504224061965942:2.1893854141235352] [-4.8797879219055176:0.98114120960235596] [-3.511361837387085:2.0543792247772217] [-1.2220683097839355:8.7554683685302734] [-18.556816101074219:14.676192283630371] [-0.82382822036743164:3.1056294441223145] [-5.3916177749633789:10.978805541992188] [-23.873865127563477:1.2923867702484131] [-0.058400761336088181:31.198707580566406] [-0.04387800395488739:47.865989685058594] [-0.015192721970379353:96.411094665527344] [-0.49395909905433655:18.594215393066406] [-0.44337552785873413:15.726310729980469] [-0.49834921956062317:15.140228271484375] [-0.41048115491867065:27.059965133666992] [-0.43908557295799255:26.155769348144531] [-0.76270955801010132:22.142454147338867] [-0.010443423874676228:96.338516235351562] [-0.20576725900173187:18.910051345825195] [-0.2619769275188446:15.338726997375488] [-0.040206257253885269:5.9435796737670898] [-0.043957211077213287:6.9476003646850586] [-0.17730453610420227:17.14744758605957] [-2.587916374206543:3.7092015743255615] [-25.085369110107422:0.28181657195091248] [-2.8717365264892578:7.436854362487793] [-0.49705910682678223:12.212394714355469] [-1.44813072681427:2.0568883419036865] [-0.0080183316022157669:-1.1200212643581585e-18] [-2.0417771339416504:1.4604332447052002] [-0.10987446457147598:28.563064575195312] none [-60.928623199462891:0.049190070480108261] [-0.045857470482587814:63.400650024414062] [-0.018823577091097832:30.066677093505859] [-0.0057319486513733864:0] none [-0.044079989194869995:60.074798583984375] [-0.22847536206245422:11.165888786315918] [-0.0084876446053385735:290.36553955078125] [-2.8064870834350586:1.0950819253921509] [-1.0082485675811768:3.1986489295959473] [-0.0023535641375929117:-6.3017989825285802e-19] [-0.060356717556715012:48.631553649902344] [-0.0029685699846595526:0] [-0.0051035857759416103:444.81658935546875] [-0.026758275926113129:61.671180725097656] [-0.098505012691020966:23.456899642944336] [-0.0023535641375929117:0] [-0.1901412159204483:13.162522315979004] [-0.0074783386662602425:54.629764556884766] [-0.03368927538394928:110.86685943603516] none [-3.2605788707733154:3.8673274517059326] [-0.62084448337554932:28.362340927124023] [-0.26968684792518616:43.639316558837891] [-0.18698811531066895:32.909145355224609] [-0.16990472376346588:67.261222839355469] [-0.15642881393432617:38.186660766601562] [-2.2953181266784668:4.6544857025146484] [-1.5485484600067139:6.4302859306335449] none [-3.2651903629302979:1.533252477645874] [-6.337308406829834:1.0508445501327515] [-5.4539484977722168:1.5462254285812378] [-0.88407820463180542:10.623114585876465] [-0.9989967942237854:9.0785131454467773] [-0.91011583805084229:3.4353086948394775] [-1.1210887432098389:7.0524439811706543] [-41.451663970947266:0.52060556411743164] [-0.064686790108680725:35.024196624755859] [-0.05439826101064682:47.13458251953125] [-0.14338818192481995:27.802591323852539] [-0.62137717008590698:24.239736557006836] [-0.59986245632171631:13.872613906860352] [-0.65023612976074219:19.325305938720703] [-0.50635272264480591:27.500911712646484] [-0.68901365995407104:14.980578422546387] [-0.86353951692581177:22.586374282836914] [-0.011602478101849556:356.34323120117188] [-0.25928610563278198:17.579313278198242] [-0.30410915613174438:17.016250610351562] [-0.066486842930316925:8.9200277328491211] [-0.12959569692611694:14.977925300598145] [-0.16888591647148132:21.384008407592773] [-5.8481912612915039:2.6279938220977783] [-29.279010772705078:0.33914187550544739] [-2.5372002124786377:10.895661354064941] [-0.55824744701385498:12.777912139892578] [-1.5205258131027222:2.7054567337036133] [-3.6304876804351807:1.6206966638565063] [-2.9557807445526123:2.6385576725006104] [-1.3101016283035278:7.9043416976928711] [-29.768533706665039:23.907426834106445] [-0.81112539768218994:6.9515461921691895] [-9.5090742111206055:21.717002868652344] [-28.590564727783203:1.7644608020782471] [-0.019863573834300041:17.872377395629883] [-0.015678111463785172:2.5004966259002686] [-0.01179339736700058:61.927761077880859] [-0.37283581495285034:23.323450088500977] [-0.35168349742889404:18.84307861328125] [-0.33666664361953735:15.432256698608398] [-0.086707025766372681:85.161888122558594] [-0.1418096125125885:61.894199371337891] [-0.24454095959663391:77.704048156738281] [-0.0037403176538646221:0.31899836659431458] [-0.089016459882259369:65.971427917480469] [-0.10771233588457108:29.095874786376953] [-0.035020079463720322:6.3390989303588867] [-0.027902638539671898:7.3408241271972656] [-0.12817400693893433:22.311580657958984] [-2.7218799591064453:4.5417914390563965] [-13.949777603149414:0.60944592952728271] [-3.3263194561004639:6.4176383018493652] [-0.52986305952072144:13.169003486633301] [-1.1725115776062012:45.115856170654297] [-1.2193974256515503:14.421823501586914] [-1.4968489408493042:33.568771362304688] [-0.48537406325340271:25.271787643432617] [-0.91185671091079712:6.7607312202453613] [-1.0318452119827271:14.768671035766602] [-0.51452511548995972:24.90577507019043] [-0.929237961769104:8.1597690582275391] [-1.0534666776657104:13.877639770507812] [-6.9669456481933594:4.0814247131347656] [-12.493936538696289:26.208587646484375] [-11.079943656921387:12.680108070373535] [-0.2680303156375885:25.312889099121094] [-0.23688086867332458:56.367759704589844] [-0.42564940452575684:38.436019897460938] [-0.42828598618507385:40.420242309570312] [-0.82070541381835938:26.508172988891602] [-0.92438286542892456:6.7883496284484863] [-1.1499971151351929:14.613358497619629] [-3.5653736591339111:4.0815081596374512] [-3.8012857437133789:2.6573531627655029] [-3.8018758296966553:3.8311069011688232] [-0.54240638017654419:14.062249183654785] [-1.1142557859420776:5.8725118637084961] [-1.1430214643478394:12.378863334655762] [-1.6444079875946045:1.8258247375488281] [-4.6499972343444824:0.91060632467269897] [-3.5660674571990967:1.6295641660690308] [-2.0639357566833496:6.864445686340332] [-0.87553340196609497:16.085289001464844] [-1.0186160802841187:2.1922125816345215] [-1.7145730257034302:1.2192933559417725] [-0.59544986486434937:5.4690680503845215] [-0.025433223694562912:52.047183990478516] none [-0.63908088207244873:3.7027802467346191] [-0.63458824157714844:3.7178471088409424] [-0.63258457183837891:3.4620299339294434] [-0.51818215847015381:4.0703353881835938] [-0.63354390859603882:3.7190954685211182] [-0.63981854915618896:3.7218923568725586] [-0.64005368947982788:3.7039191722869873] none [-0.1142926886677742:22.786294937133789] [-22.786294937133789:0.1142926886677742] none [-0.056071039289236069:46.390010833740234] [-0.02255832776427269:31.844875335693359] [-0.01335445512086153:99.709007263183594] [-0.024415476247668266:51.103038787841797] [-0.031211268156766891:43.491470336914062] [-0.033164501190185547:39.829509735107422] [-0.059747803956270218:22.828588485717773] [-0.032219178974628448:72.389854431152344] [-0.046697244048118591:19.885560989379883] [-0.058129750192165375:23.423860549926758] [-0.033071916550397873:37.480037689208984] [-0.020234346389770508:31.996217727661133] [-0.010161685757339001:58.382957458496094] [-0.040095862001180649:31.366369247436523] [-0.050938591361045837:45.305599212646484] [-0.0055623631924390793:-7.3233417066253099e-19] [-0.14072121679782867:18.567468643188477] [-0.052137911319732666:41.831432342529297] [-0.039074864238500595:62.529685974121094] [-0.0060842055827379227:-8.7947952037199913e-19] [-0.16792884469032288:14.511684417724609] [-0.10432931780815125:22.610744476318359] [-0.034443166106939316:34.768363952636719] [-2.1922125816345215:1.0186160802841187] [-0.97419387102127075:2.4643447399139404] none [-2.9357542991638184:0.9845043420791626] [-0.68860596418380737:4.8086380958557129] [-0.61814373731613159:4.9635100364685059] [-0.22473780810832977:14.635909080505371] none [-2.325549840927124:1.085457444190979] [-0.040717579424381256:28.819459915161133] [-0.11093981564044952:18.256427764892578] [-1.0727174282073975:2.3712582588195801] none [-0.22473780810832977:14.635909080505371] [-0.4599757194519043:7.2496137619018555] [-0.28059491515159607:10.913262367248535] [-0.23812469840049744:14.089811325073242] [-0.13344338536262512:19.014081954956055] [-0.03595883771777153:37.157852172851562] [-0.077664338052272797:31.227659225463867] [-4.6221237182617188:0.66562020778656006] [-0.096233390271663666:23.707963943481445] none [-0.2214905172586441:10.069399833679199] [-0.60707056522369385:3.5334744453430176] [-0.05961497500538826:38.066188812255859] [-0.12143109738826752:18.132638931274414] [-0.16985726356506348:13.134795188903809] [-0.32628288865089417:6.593836784362793] [-0.98631632328033447:2.4823353290557861] [-1.4962955713272095:1.6250391006469727] [-1.0535273551940918:1.9588721990585327] [-0.48647236824035645:4.3719367980957031] [-1.5969594717025757:1.3108063936233521] [-0.049687433987855911:26.527547836303711] none [-0.013875088654458523:11.733386993408203] [-0.0021301568485796452:3.1508989742764072e-19] [-0.4232984185218811:4.9420986175537109] [-0.1082717627286911:17.640710830688477] [-0.19520562887191772:8.9141063690185547] [-0.43182539939880371:4.6346030235290527] [-0.19987353682518005:9.0289983749389648] [-0.46915414929389954:4.3439350128173828] [-0.025202140212059021:66.479393005371094] [-0.01380506157875061:48.211963653564453] [-0.020178044214844704:13.68028450012207] [-0.29868844151496887:6.193793773651123] [-0.066756844520568848:27.169599533081055] [-0.090467877686023712:18.37360954284668] none [-0.010883351787924767:60.937816619873047] [-0.096117578446865082:19.298191070556641] [-0.081846721470355988:18.659610748291016] [-0.052380818873643875:28.98478889465332] [-0.64766377210617065:3.0788540840148926] [-0.061921302229166031:35.611652374267578] [-0.069310992956161499:37.107582092285156] [-0.20745894312858582:10.942721366882324] [-0.069641053676605225:27.327377319335938] [-0.049278553575277328:30.234601974487305] [-0.07534441351890564:23.52888298034668] [-0.011032712645828724:56.314338684082031] [-1.2316470146179199:1.698365330696106] none [-0.56430578231811523:6.6444625854492188] [-0.026657998561859131:40.508296966552734] [-0.83504879474639893:3.1939327716827393] [-1.6633403301239014:1.2885562181472778] [-0.77085006237030029:4.3460359573364258] none [-2.5626089572906494:1.024173378944397] [-0.4512595534324646:5.1727967262268066] [-0.86601018905639648:3.3521828651428223] none [-0.2469559907913208:8.0524368286132812] [-0.027516895905137062:39.593597412109375] [-0.074426449835300446:20.571828842163086] [-0.33694219589233398:8.9566736221313477] [-1.0589380264282227:1.800856351852417] [-0.92020177841186523:2.1933743953704834] [-0.42121362686157227:4.2742652893066406] [-0.62324941158294678:2.948361873626709] none [-0.089365698397159576:19.274129867553711] [-0.19494934380054474:8.904261589050293] [-0.70754015445709229:2.6798164844512939] [-0.21763357520103455:8.1372575759887695] [-0.92128795385360718:2.1237764358520508] [-0.3073139488697052:5.9202456474304199] [-0.17682795226573944:9.9669151306152344] [-0.063532762229442596:29.065423965454102] [-0.03973802924156189:41.794452667236328] [-0.027503553777933121:61.621238708496094] [-1.0847784280776978:1.8780723810195923] none [-0.96595209836959839:3.2534923553466797] [-0.83525902032852173:2.6788425445556641] [-0.38295197486877441:5.1889472007751465] [-0.78264367580413818:2.9588141441345215] [-0.89247775077819824:2.6009571552276611] none [-0.43480134010314941:6.9210147857666016] [-0.42890387773513794:10.547245979309082] [-0.64667069911956787:5.233036994934082] [-0.27791759371757507:8.3708686828613281] [-0.19189558923244476:13.398580551147461] [-0.2104836106300354:11.780669212341309] [-0.31845280528068542:11.173807144165039] [-0.46277207136154175:8.2420415878295898] [-0.48046022653579712:7.1969866752624512] [-0.72596889734268188:2.7795345783233643] [-0.37672638893127441:5.2937421798706055] [-0.41243472695350647:4.3592667579650879] [-0.14467431604862213:12.612286567687988] [-0.63363945484161377:3.1259126663208008] [-0.19877099990844727:9.2973146438598633] [-0.19425208866596222:8.9688434600830078] [-0.064542621374130249:26.496669769287109] [-0.025433223694562912:52.047183990478516] [-1.0734292268753052:36.712329864501953] [-1.1731541156768799:15.600764274597168] [-1.3072717189788818:28.925155639648438] [-0.66535001993179321:20.216110229492188] [-0.91166716814041138:6.0023880004882812] [-1.0421421527862549:13.769534111022949] [-0.71620774269104004:19.950626373291016] [-0.90858888626098633:5.8937458992004395] [-1.0179998874664307:12.947869300842285] [-7.3205399513244629:4.3248538970947266] [-13.037775039672852:27.599725723266602] [-9.9594345092773438:11.192138671875] [-0.27818736433982849:21.723230361938477] [-0.24631845951080322:44.238880157470703] [-0.44051319360733032:42.267341613769531] [-0.42287585139274597:38.736282348632812] [-0.74650293588638306:20.604557037353516] [-0.91894018650054932:6.0157427787780762] [-1.0702807903289795:13.779236793518066] [-3.6332588195800781:3.8441038131713867] [-3.6241471767425537:2.7425024509429932] [-3.8586547374725342:3.6840744018554688] [-0.59002953767776489:12.336814880371094] [-1.0762598514556885:5.915611743927002] [-1.0750683546066284:10.769451141357422] [-1.6614953279495239:1.8220459222793579] [-4.2428579330444336:1.0982476472854614] [-3.3008847236633301:1.7942366600036621] [-1.8557592630386353:6.3311977386474609] [-1.0968620777130127:10.977364540100098] [-1.8696365356445312:15.365401268005371] [-1.8917127847671509:10.137007713317871] [-1.9678851366043091:13.757881164550781] [-1.1080412864685059:15.283496856689453] [-1.4085195064544678:10.05208683013916] [-1.3851557970046997:13.421536445617676] [-1.1519259214401245:15.791985511779785] [-1.4520331621170044:12.092639923095703] [-1.4316983222961426:13.840794563293457] [-14.21455192565918:5.8182888031005859] [-21.15986442565918:13.424590110778809] [-19.590360641479492:7.7069549560546875] [-0.53333085775375366:24.634714126586914] [-0.37832149863243103:51.169578552246094] [-0.38916313648223877:28.893878936767578] [-0.44048967957496643:44.772655487060547] [-1.2238843441009521:15.580719947814941] [-1.4611669778823853:10.151557922363281] [-1.4710812568664551:13.599982261657715] [-6.1357669830322266:6.0267081260681152] [-5.8311471939086914:5.0341067314147949] [-5.8577098846435547:5.9499897956848145] [-1.5770902633666992:19.206296920776367] [-1.6873940229415894:14.715709686279297] [-1.8248567581176758:18.451166152954102] [-4.0719680786132812:2.0662627220153809] [-5.1414623260498047:1.7061090469360352] [-4.8711743354797363:1.9909787178039551] [-2.0520265102386475:5.6666603088378906] [-1.1582976579666138:21.189678192138672] [-4.6144533157348633:0.63769316673278809] [-3.2928135395050049:1.5809988975524902] [-1.2095670700073242:7.9001836776733398] [-0.10605877637863159:20.609624862670898] [-0.075377404689788818:27.314117431640625] [-0.049030482769012451:88.910591125488281] [-0.01723148487508297:58.493240356445312] [-12.47862720489502:1.3133225440979004] [-0.0065831867977976799:175.40721130371094] [-0.082297831773757935:35.103519439697266] [-0.0042966213077306747:431.40362548828125] [-1.3365716934204102:14.771655082702637] [-0.024726022034883499:69.811790466308594] [-0.085594736039638519:107.30513763427734] [-0.33525452017784119:31.396221160888672] [-0.0030289592687040567:7.4954118176485907e-19] none [-1.2095670700073242:7.9001836776733398] [-0.72683155536651611:23.798896789550781] [-0.17093370854854584:26.481805801391602] [-0.12369606643915176:29.226621627807617] [-0.12371858209371567:45.114841461181641] [-1.3379521369934082:11.588316917419434] [-1.3709851503372192:18.146846771240234] [-0.98977029323577881:10.864362716674805] [-0.42934855818748474:16.532630920410156] [-21.195846557617188:17.800411224365234] [-15.312493324279785:8.2962064743041992] [-0.098466828465461731:37.569480895996094] [-0.56928807497024536:9.5895509719848633] [-0.7976650595664978:22.414802551269531] [-0.78072726726531982:9.4966850280761719] [-0.36172330379486084:19.867668151855469] [-0.57165896892547607:9.4930963516235352] [-0.75587034225463867:20.813159942626953] [-0.75718086957931519:9.8701972961425781] [-4.9801664352416992:0.62235486507415771] [-3.450718879699707:1.5632221698760986] [-7.3256497383117676:0.76004964113235474] [-0.9769057035446167:6.8295373916625977] [-3.2647690773010254:2.0476222038269043] [-6.7920942306518555:1.3487366437911987] [-3.4115481376647949:2.0763804912567139] [-4.0014424324035645:1.3894249200820923] [-1.3923122882843018:4.2056260108947754] [-8.3901834487915039:31.494167327880859] [-1.57276451587677:10.948050498962402] [-1.2561416625976562:13.827846527099609] [-1.296331524848938:12.179961204528809] [-0.71673285961151123:21.762237548828125] [-1.4083950519561768:7.0060892105102539] [-2.3241076469421387:10.245955467224121] [-2.0460991859436035:6.8043117523193359] [-2.0667979717254639:7.3954248428344727] [-0.57670927047729492:28.109212875366211] [-0.12766417860984802:104.45053863525391] [-2.2039408683776855:16.486177444458008] [-1.2763066291809082:52.089439392089844] [-1.1487185955047607:31.842763900756836] [-0.4901270866394043:59.459793090820312] [-0.11997704952955246:102.24186706542969] [-1.5252623558044434:17.708032608032227] [-0.97345638275146484:34.84197998046875] [-1.1661044359207153:23.965059280395508] [-0.43307963013648987:46.206981658935547] [-0.017516832798719406:-3.0191722194861393e-18] [-0.439983069896698:39.495784759521484] [-0.29385140538215637:44.343219757080078] [-0.27744844555854797:67.515190124511719] [-0.17737008631229401:36.134975433349609] [-0.17565141618251801:63.039108276367188] [-1.1667088270187378:32.539585113525391] [-0.81534469127655029:41.162750244140625] [-0.54793262481689453:37.166316986083984] [-0.34526467323303223:42.377174377441406] [-0.33133286237716675:32.681766510009766] [-1.5733609199523926:10.27973461151123] [-1.3188480138778687:13.61259937286377] [-1.2760156393051147:10.404315948486328] [-0.7577018141746521:18.59333610534668] [-0.42134836316108704:100.84516906738281] [-1.7689601182937622:16.965154647827148] [-1.4107940196990967:38.62872314453125] [-1.2200487852096558:22.639993667602539] [-0.46915197372436523:40.201824188232422] [-0.061866726726293564:140.72581481933594] [-1.1319385766983032:16.257997512817383] [-0.88858550786972046:42.681694030761719] [-1.1720365285873413:22.957263946533203] [-0.3145773708820343:42.134754180908203] [-8.6583213806152344:32.193866729736328] [-1.56236732006073:11.46686840057373] [-1.2524062395095825:13.786818504333496] [-1.2960876226425171:12.217382431030273] [-0.71262234449386597:21.974079132080078] [-8.3966798782348633:31.898200988769531] [-1.5719796419143677:11.032593727111816] [-1.2549598217010498:13.861205101013184] [-1.3002111911773682:12.171648979187012] [-0.71708822250366211:21.651664733886719] [-8.3966217041015625:31.897922515869141] [-1.5721416473388672:11.032271385192871] [-1.2550191879272461:13.860947608947754] [-1.3001173734664917:12.168407440185547] [-0.71712785959243774:21.651678085327148] [-0.15911896526813507:85.209678649902344] [-2.4639594554901123:16.048896789550781] [-1.4399454593658447:39.180793762207031] [-1.1807234287261963:12.611010551452637] [-0.65817439556121826:62.187004089355469] [-0.18000394105911255:53.454811096191406] [-1.2058353424072266:21.127883911132812] [-0.77991366386413574:22.290458679199219] [-0.93587470054626465:22.025829315185547] [-0.42834916710853577:40.142490386962891] [-0.019133804365992546:2.5407332279321526e-18] [-0.61715984344482422:31.147499084472656] [-0.34746849536895752:23.707107543945312] [-0.3173365592956543:33.228965759277344] [-0.20760709047317505:51.791324615478516] [-0.27083894610404968:38.095619201660156] [-1.2233585119247437:21.311399459838867] [-0.91155588626861572:22.847738265991211] [-0.62659591436386108:23.779802322387695] [-0.53353011608123779:41.505241394042969] [-0.69175750017166138:16.714727401733398] [-1.4154366254806519:8.0685272216796875] [-1.4173610210418701:7.2183170318603516] [-1.0869792699813843:7.9367365837097168] [-0.86949795484542847:9.3384237289428711] none [-0.222638338804245:24.953529357910156] [-0.1794067919254303:27.797405242919922] [-0.17400749027729034:30.243492126464844] [-0.16942477226257324:31.829326629638672] none [-0.061442118138074875:4.526648998260498] [-0.024674220010638237:0.58961164951324463] [-0.022571783512830734:0.29487958550453186] [-0.019494304433465004:4.6229403899914606e-18] [-17.137252807617188:0.58607131242752075] [-2.0636248588562012:3.4553995132446289] [-0.68448394536972046:9.4816827774047852] [-0.015914371237158775:2.1305941259663631e-18] [-0.015931293368339539:0] [-0.016034139320254326:2.1305947463518225e-18] [-0.54209941625595093:16.028253555297852] [-0.47757464647293091:14.064699172973633] [-0.61835950613021851:9.985987663269043] [-0.024317465722560883:0] [-0.024120938032865524:0] [-0.024213686585426331:0] [-0.023577747866511345:0] [-0.023630945011973381:0] [-0.02375519834458828:-1.0318443694069192e-17] [-0.13366428017616272:30.769552230834961] [-0.13457819819450378:26.25715446472168] [-0.13467274606227875:30.769130706787109] [-0.22297579050064087:37.052303314208984] [-0.16130279004573822:85.507064819335938] [-0.28431355953216553:29.861404418945312] none none none [-2.0171594619750977:4.7296714782714844]
tree_sizes=3350 3439 3413 3429 3410 3434 3438 3420 3438 3423 3433 3440 3426 3448 3462 3443 3423 3424 3463 3456 3464 3461 3462 3446 3453 3452 3463 3462 3464 3471 3466 3465 3477 3474 3460 3463 3452 3454 3455 3460 3468 3446 3453 3460 3472 3459 3451 3461 3472 3471 3465 3470 3464 3447 3471 3463 3478 3460 3447 3471 3468 3461 3465 3469 3487 3460 3455 3481 3474 3453 3469 3481 3459 3467 3490 3436 3450 3458 3466 3474 3471 3503 3473 3483 3483 3474 3475 3490 3489 3461 3478 3480 3478 3478 3477 3488 3476 3462 3486 3472

Tree=0
num_leaves=31
num_cat=0
split_feature=32 33 33 555 253 451 572 10 669 32 321 455 383 33 315 682 738 561 5 312 527 633 32 459 647 8 256 150 551 345
split_gain=133.459 77.5105 64.059 41.7558 40.8583 37.375 37.0353 32.5193 30.996 30.7998 30.4484 33.4932 30.3973 28.8979 42.9915 27.4264 35.9064 27.3975 32.4505 26.8253 25.8435 25.2609 24.0227 22.2183 56.8492 21.9148 21.8934 31.2707 26.7088 21.6175
threshold=-0.74041396379470814 -2.445900440216064 -1.6072661280632017 -0.83611348271369923 0.48803249001502996 -0.07260377891361712 1.3973105549812319 -0.064154718071222291 1.7383913993835451 0.40743191540241247 -0.30119748413562769 -0.29994222521781916 -0.37829397618770594 -1.5316967964172361 0.44392500817775732 -0.052846370264887803 -0.96145689487457264 -0.44451536238193506 -0.026031126268208023 0.03968735225498677 1.054343104362488 -1.1437048912048338 0.44311793148517614 1.094162702560425 0.48722735047340399 -0.51261663436889637 -0.0035790962865576144 1.0000000180025095e-35 -0.72834512591361988 -0.0078379469923675043
decision_type=2 2 2 2 2 2 2 2 2 2 2 2 2 2 2 2 2 2 2 2 2 2 2 2 2 2 2 2 2 2
left_child=1 -1 4 12 -2 6 8 -7 13 10 20 -12 -3 14 29 16 -9 18 25 -11 -6 -4 -23 26 -25 -17 -15 28 -28 -5
right_child=2 3 21 5 9 7 -8 15 -10 19 11 -13 -14 23 -16 17 -18 -19 -20 -21 -22 22 -24 24 -26 -27 27 -29 -30 -31
leaf_value=-2.1314040677893127 -2.4521591910387195 -2.0864844817085046 -2.3230892197127608 -2.4506085792550549 -2.4811039443337854 -2.4687657430444139 -2.1724074375169469 -2.0986197043632684 -2.1606441757098387 -2.4477376445664887 -2.2846931184029793 -2.0055829973434132 -2.3754326227803695 -2.4532104532649326 -2.0583037979879979 -2.3653249311535207 -2.4014450644671119 -2.4315075973956102 -2.5017787681159755 -2.222668647056409 -2.222668647056409 -2.4531833101932885 -2.4774348910991999 -2.5017787681159755 -2.0864844817085046 -2.1081619307242794 -2.2288710941910663 -2.203285999760606 -2.4716786570213167 -2.222668647056409
leaf_weight=2.5649699941277495 16.122668534517288 1.6855517104268076 3.0779639929532996 2.9313942790031429 2.4184002801775932 36.349289059638977 2.125260852277278 1.6122668534517286 1.4656971395015705 7.4017705544829351 3.2245337069034576 1.6122668534517304 1.9786911383271206 21.619032807648182 1.4656971395015714 1.4656971395015717 2.4916851371526709 39.134113624691963 1.4656971395015705 1.6122668534517286 1.6122668534517286 181.08688158541918 234.14511803537607 1.6122668534517282 1.6855517104268072 1.9054062813520432 1.4656971395015714 2.3451154232025146 4.9833702743053454 1.6122668534517282
leaf_count=35 220 23 42 40 33 496 29 22 20 101 44 22 27 295 20 20 34 534 20 22 22 2471 3195 22 23 26 20 32 68 22
internal_value=-2.44745 -2.40362 -2.46044 -2.40893 -2.39444 -2.41371 -2.37595 -2.43308 -2.38645 -2.3424 -2.27624 -2.19166 -2.24252 -2.39478 -2.29377 -2.40609 -2.28248 -2.41763 -2.30537 -2.40748 -2.37773 -2.4658 -2.46686 -2.41279 -2.28952 -2.21997 -2.42615 -2.35964 -2.4165 -2.36973
internal_weight=586.279 133.965 452.314 131.4 34.0042 127.736 43.3114 84.4242 41.1861 17.8815 8.86747 4.8368 3.66424 39.7204 6.00936 48.0749 4.10395 43.9709 4.8368 9.01404 4.03067 418.31 415.232 33.711 3.29782 3.3711 30.4132 8.79418 6.44907 4.54366
internal_count=8000 1828 6172 1793 464 1743 591 1152 562 244 121 66 50 542 82 656 56 600 66 123 55 5708 5666 460 45 46 415 120 88 62
is_linear=0
shrinkage=1


Tree=1
num_leaves=31
num_cat=0
split_feature=32 33 33 1 499 664 32 640 607 371 300 31 531 720 648 650 528 365 390 643 253 398 553 388 632 536 633 33 32 576
split_gain=115.843 56.0971 54.506 38.942 38.0523 32.0086 30.5547 29.4894 29.2707 26.1262 24.4132 24.0568 28.0817 27.6799 22.2907 21.9132 21.6706 21.0734 20.9856 30.3307 20.9702 23.6208 29.0296 20.3205 20.031 19.6287 19.3876 18.0546 17.9291 17.4179
threshold=-0.74041396379470814 -1.6072661280632017 -1.2884452342987058 1.0000000180025095e-35 0.22472337633371356 -1.6526211500167844 -2.2665612697601314 -0.5267171561717986 1.2448312044143679 -0.85704562067985524 1.0000000180025095e-35 -1.3943322896957395 -0.27231962978839869 -0.027076090686023232 1.1427698731422427 -0.93913260102272023 1.737565338611603 -0.14287455379962918 1.174669146537781 -0.03236515820026397 0.39988158643245703 0.59367513656616222 -0.32818987965583796 0.63343340158462536 -0.11366046220064162 -1.0000000180025095e-35 4.4011697769165048 0.20076559484004977 0.60017690062522899 0.59779253602027904
decision_type=2 2 2 2 2 2 2 2 2 2 2 2 2 2 2 2 2 2 2 2 2 2 2 2 2 2 2 2 2 2
left_child=2 5 4 6 9 -2 7 -4 18 -1 -11 12 13 -3 -5 -13 -6 23 -8 -20 -7 25 -23 -16 -9 -22 27 28 29 -17
right_child=1 11 3 14 16 20 8 24 -10 10 -12 15 -14 -15 17 26 -18 -19 19 -21 21 22 -24 -25 -26 -27 -28 -29 -30 -31
leaf_value=-0.0033866999835510236 0.20029450165183055 0.24234810074217061 0.35374392877939503 -0.00450382864789376 -0.0057479292433205457 -0.012368119290540391 0.018982678384676072 -0.0079919461774302335 0.20587178528165651 0.060905337331224885 0.23610226962717273 0.14247364025223638 -0.022183528145766414 0.045003059539408641 0.28371948559644394 -0.015410004250126938 0.19932645536269561 0.022302010872207192 0.28060618561234402 -0.020441060336936535 0.0077040959425029604 0.025838795976686431 0.29148640984651059 0.041136706377488313 0.19918881195151408 0.15434566215347628 0.12454002271151049 -0.035796743066626745 -0.029100455959710919 0.024755161152909252
leaf_weight=1.9375885352492321 3.1324177607893935 2.0229146182537106 1.5907442420721052 68.058152236044407 7.1375000625848752 14.307088553905485 27.202654503285888 2.1448098272085185 2.6830747053027144 2.5881959199905387 8.5808914005756396 2.0308983251452437 17.146203979849815 14.607808090746401 1.9194260463118555 70.738765753805637 1.5719268396496771 6.5068877115845662 1.9369452148675921 1.4728813245892514 11.21195623278618 1.8548992425203321 2.3081152811646453 1.5689260959625242 2.5581576153635974 2.8651680350303641 2.2372825294733039 159.91620174795389 99.584442347288132 43.646644830703735
leaf_count=24 38 28 20 912 91 196 360 28 33 32 102 27 237 202 24 973 19 86 24 20 144 23 28 21 32 35 31 2218 1392 600
internal_value=-0.000106727 -0.0125042 0.0396845 0.0262235 0.112272 0.0476398 0.0666163 0.167648 0.0475187 0.166102 0.195504 -0.0177136 0.0227162 0.0690076 0.00573599 -0.0213248 0.0312651 0.0754595 0.0336396 0.150568 0.032948 0.0684927 0.173123 0.174615 0.104703 0.0375506 -0.0222092 -0.0230873 -0.0135886 -8.39701e-05
internal_weight=587.07 447.611 139.459 117.643 21.8161 35.6796 39.5893 6.29371 33.2956 13.1067 11.1691 411.931 33.7769 16.6307 78.0534 378.154 8.70943 9.99524 30.6125 3.40983 32.5472 18.2401 4.16301 3.48835 4.70297 14.0771 376.123 373.886 213.97 114.385
internal_count=8000 6172 1828 1560 268 464 517 80 437 158 134 5708 467 230 1043 5241 110 131 404 44 426 230 51 45 60 179 5214 5183 2965 1573
is_linear=0
shrinkage=0.05


Tree=2
num_leaves=31
num_cat=0
split_feature=32 33 11 146 226 662 37 581 555 357 572 2 377 319 559 391 442 469 511 9 460 637 682 12 637 579 77 0 81 14
split_gain=101.907 84.0211 35.3013 30.2357 29.2387 26.7744 30.1304 32.1589 29.1164 26.6193 29.4081 28.4672 34.5431 24.893 23.1727 27.6444 22.9454 22.5898 20.1124 18.8456 27.606 18.6673 18.5106 23.2605 37.4389 17.0273 21.8903 16.9863 20.4874 16.4036
threshold=0.41526672244071966 -1.1845307946205137 0.38437475264072424 1.0000000180025095e-35 1.0000000180025095e-35 -0.75284963846206654 -1.8062171339988706 -1.5251533389091489 -0.25287865102291102 -1.0000000180025095e-35 1.0000000180025095e-35 1.0000000180025095e-35 0.019159866496920589 -0.37255899608135218 -0.70574504137039173 0.22311930358409884 0.86919820308685314 1.9187399148941042 1.3721122741699221 -0.17775520682334897 -0.011400999501347635 0.19394803792238238 -0.89020279049873341 1.0277051329612734 0.10734628140926362 0.39875505864620214 -0.38069789856672281 0.21309547871351245 0.52774316072464 4.6946477890014657
decision_type=2 2 2 2 2 2 2 2 2 2 2 2 2 2 2 2 2 2 2 2 2 2 2 2 2 2 2 2 2 2
left_child=1 5 22 4 9 8 -7 -8 13 -4 11 12 14 -1 -11 27 19 18 -9 -5 -21 -20 23 25 -25 -3 -27 28 -16 -2
right_child=29 2 3 16 -6 6 7 17 -10 10 -12 -13 -14 -15 15 -17 -18 -19 21 20 -22 -23 -24 24 -26 26 -28 -29 -30 -31
leaf_value=0.11693578647594227 -0.02553151640192532 -0.016327966788889346 -0.0036931937534385503 -0.0020445329727845712 0.21943940524948552 0.26197147959473116 0.22340377949049556 0.015691020542183968 0.048911181784473179 0.30081054518377826 0.0023617975751225695 -0.0066156878003378163 -0.035044428177365715 0.32443653672044886 0.29308942825383644 0.29257008637948195 0.27416036248252063 0.19518827618352619 0.050575049370014481 0.27555164321564346 0.0047074767148025673 0.23831090596332799 -0.012836558769606814 0.0032407918821758005 0.34390301911823817 0.20327581696195374 -0.027344753315691795 0.0034712222718240823 0.049863060137144206 0.11642909683999009
leaf_weight=2.8926261067390442 248.06936791539192 11.795601628720762 58.149747543036938 3.8030776008963585 1.8221066519618023 1.7322928458452214 2.5063481032848349 33.949680976569653 4.3089747577905637 2.5304621905088416 16.658410727977753 5.226009175181388 2.5865786001086226 2.8888401612639427 1.5806025117635747 2.0138527750968933 1.8235592618584631 2.194815255701541 3.7826550379395476 2.1186668202281003 1.6923009604215602 2.037255734205246 156.39828426390886 1.7387869358062737 1.5042537823319433 2.3249329030513763 1.8459018096327771 3.4503539279103279 1.9143751189112661 2.0517316162586203
leaf_count=32 3514 158 785 50 23 20 28 423 50 32 217 70 35 30 20 25 23 26 46 27 23 22 2123 24 19 30 25 46 25 29
internal_value=-0.000183367 0.0177513 0.00658091 0.0294602 0.0210594 0.073506 0.0573913 0.0494222 0.147293 0.0172185 0.0510335 0.0930387 0.130037 0.220618 0.1672 0.129463 0.114853 0.0390311 0.030413 0.0766994 0.15528 0.116292 -0.00714738 0.0391724 0.161254 0.0143757 0.101209 0.0821691 0.159862 -0.024367
internal_weight=587.392 337.271 280.978 105.37 95.9325 56.2935 46.203 44.4708 10.0904 94.1104 35.9606 19.3022 14.0762 5.78147 11.4896 8.95918 9.4376 41.9644 39.7696 7.61405 3.81097 5.81991 175.608 19.2095 3.24304 15.9664 4.17083 6.94533 3.49498 250.121
internal_count=8000 4457 3780 1401 1278 677 565 545 112 1255 470 253 183 62 148 116 123 517 491 100 50 68 2379 256 43 213 55 91 45 3543
is_linear=0
shrinkage=0.05


Tree=3
num_leaves=31
num_cat=0
split_feature=32 33 33 1 253 448 644 631 32 31 660 33 544 242 244 346 503 314 33 633 579 256 369 355 648 12 684 336 531 579
split_gain=94.271 45.5078 35.3664 27.4245 23.8511 22.6741 22.1507 28.2316 22.9135 21.4824 24.5055 21.2575 20.7469 22.9957 21.6945 20.3853 19.6694 19.405 18.8722 25.3049 18.8428 17.8329 32.6046 17.7654 17.6182 17.1974 16.5906 16.1042 16.0807 20.3716
threshold=-0.74041396379470814 -1.6072661280632017 -2.445900440216064 1.0000000180025095e-35 0.48803249001502996 4.2585604190826425 -0.5249824821949004 -0.11652776971459387 -1.913656949996948 -1.3943322896957395 1.7160306572914126 -1.5006828308105467 0.043045845814049251 -0.15523447096347806 0.41720727086067205 -0.050246564671397202 1.3808193206787112 -0.31942394375801081 0.33286856114864355 -1.1437048912048338 -0.9870321750640868 -0.0066630828659981481 -0.402259811758995 1.0000000180025095e-35 1.1427698731422427 0.092946741729974761 -0.12375701591372489 0.38411583006381994 -0.27231962978839869 -0.94284856319427479
decision_type=2 2 2 2 2 2 2 2 2 2 2 2 2 2 2 2 2 2 2 2 2 2 2 2 2 2 2 2 2 2
left_child=2 4 -1 5 -2 6 8 -8 15 10 28 26 13 14 23 -4 -15 -16 19 -11 -10 25 -23 -6 -13 -9 -5 -27 29 -3
right_child=1 9 3 11 12 -7 7 21 20 18 -12 24 -14 16 17 -17 -18 -19 -20 -21 -22 22 -24 -25 -26 27 -28 -29 -30 -31
leaf_value=0.18165548754815708 -0.0053725655693883916 0.17470430910587487 0.30985567171778228 0.18943324032510889 0.14247732265832258 0.24031201725769791 -0.011663768820427203 -0.043277245084558061 0.1877006430163661 0.16302937110236781 0.2229570287154001 -0.0039241001527232366 -0.040204331418594384 0.0074074636790053272 -0.054787296589438143 0.10563229175636571 0.17022268517386385 0.17598047699164915 -0.034492740948105623 -0.012881681576599267 -0.0011225970339828609 0.0073021120001760245 0.21110074065995224 0.34201552051911072 0.06308474240425381 0.14088238568324848 0.044705070688233969 -0.0066413069730216975 -0.023350773931700618 0.022825074258852149
leaf_weight=3.9690366312861434 16.306699655950069 2.6138012334704426 2.1820167452096939 2.6366448029875755 2.5090767145156914 1.6830680444836605 17.354629039764401 4.3349696546792966 1.8480468839406965 2.0632940083742133 1.4389207139611233 70.181986540555954 3.3367820531129828 7.8988750725984556 1.7210295498371126 2.7771244123578072 2.4243220463395119 1.9354129433631895 143.14758568257093 222.80436448007822 4.6347061023116094 3.2127507627010345 5.043196186423307 2.0083578005433083 11.403072834014891 4.5786487460136414 7.9525578022003156 3.1040847152471542 16.221345365047455 14.215340070426462
leaf_count=35 220 33 22 25 26 17 220 55 21 25 18 938 41 89 22 29 25 20 2069 3147 57 40 52 21 137 53 88 39 229 187
internal_value=-0.000255271 -0.0118191 0.0344327 0.0303443 0.0403797 0.0598601 0.0536708 0.0351462 0.114591 -0.0167653 0.0209672 0.0140923 0.0745499 0.095251 0.157903 0.19549 0.0456433 0.0673617 -0.0203015 -0.0112676 0.0527055 0.0752165 0.131794 0.231188 0.00544167 0.0363489 0.0807415 0.0812778 0.0121731 0.046414
internal_weight=587.542 440.645 146.897 142.928 38.1406 50.7532 49.0702 37.6283 11.4419 402.505 34.4894 92.1743 21.8339 18.4971 8.17388 4.95914 10.3232 3.65644 368.015 224.868 6.48275 20.2737 8.25595 4.51743 81.5851 12.0177 10.5892 7.68273 33.0505 16.8291
internal_count=8000 6172 1828 1793 464 605 588 459 129 5708 467 1188 244 203 89 51 114 42 5241 3172 78 239 92 47 1075 147 113 92 449 220
is_linear=0
shrinkage=0.05


Tree=4
num_leaves=31
num_cat=0
split_feature=32 33 1 10 32 590 511 542 356 504 397 580 78 645 324 651 13 618 81 5 341 618 637 341 387 131 563 511 7 556
split_gain=86.804 59.9771 29.6731 26.4721 25.5624 23.7261 23.0974 20.3947 21.075 19.0216 22.5816 18.7574 20.0081 20.8448 18.2281 21.4149 18.6694 24.0312 22.0796 17.5751 16.8192 15.9009 15.7326 17.3124 29.7113 26.8444 21.6475 18.7541 15.688 14.4429
threshold=0.41526672244071966 -1.1845307946205137 1.0000000180025095e-35 0.54822173714637767 -2.2665612697601314 -2.9038120508193965 1.0360253453254702 2.5604405403137211 -1.0000000180025095e-35 1.4444091320037844 1.2755593061447146 -0.95734897255897511 1.0000000180025095e-35 -0.31954613327980036 -0.32947969436645502 -2.1743308305740352 0.88312402367591869 0.28516750037670141 0.073357548564672484 -0.20512073487043378 0.072452794760465636 -1.0000000180025095e-35 0.16553772985935214 0.051686469465494163 0.5200277864933015 -1.0000000180025095e-35 -0.2632166296243667 -0.64894324541091908 -0.71728983521461476 -0.40590226650238032
decision_type=2 2 2 2 2 2 2 2 2 2 2 2 2 2 2 2 2 2 2 2 2 2 2 2 2 2 2 2 2 2
left_child=1 11 4 5 21 -4 22 -5 -9 10 -8 -1 14 -14 -13 -16 19 18 -18 28 -15 -3 -6 24 26 -26 -24 -28 -17 -23
right_child=-2 2 3 7 6 -7 9 8 -10 -11 -12 12 13 20 15 16 17 -19 -20 -21 -22 29 23 -25 25 -27 27 -29 -30 -31
leaf_value=0.20856008075864196 -0.0232549777511354 0.0068297703568906132 0.15670797041912798 0.012477585259138217 -0.0030835804200936385 -0.021677112788053898 0.026504023069011024 0.0072949237576500781 0.2076792319056463 0.19932534880297681 0.21385995039323547 0.0037035450359798384 0.014993174160520643 0.27046498239993494 0.22753679944149319 0.0235323709566648 0.18775930256264922 0.24973782229711072 0.00036333034815464317 0.0061611637523387277 0.097880567538939103 0.23267480374762839 -0.043463224153412104 -0.041068346512955031 0.063740600607883655 0.3430208838895083 0.24483061243956331 0.027121494789880199 0.20017044763960273 0.068963057533568503
leaf_weight=2.0617014691233626 242.15627333521843 2.388155497610569 1.892789639532565 53.70869954675436 59.126876980066299 122.61210938543081 12.254860512912275 2.4311548620462418 2.8507215380668631 2.5563828200101844 1.8512198105454434 18.473455846309662 2.8023836016654968 2.7471543550491315 1.9249024018645275 2.4922125339508057 2.4412298649549466 2.4429240673780441 4.4137742221355438 16.921262405812747 2.9040079116821289 3.0953599289059639 4.4787150099873525 3.7223662212491027 1.6844107583165169 1.7589039430022231 1.6655335649847982 2.4359663724899292 2.5362245589494696 2.3854403942823401
leaf_count=19 3543 27 25 716 782 1699 155 33 34 33 21 211 31 27 18 26 23 24 48 193 29 27 59 50 21 22 20 31 28 25
internal_value=-0.0003072 0.0157971 0.00602562 -0.00589298 0.0280268 -0.0189652 0.0205926 0.0216971 0.115446 0.073834 0.0510918 0.0602675 0.0551803 0.126488 0.0435085 0.0656755 0.0557046 0.115086 0.0670995 0.0305507 0.181778 0.114504 0.00874408 0.0531577 0.0823292 0.206402 0.0325378 0.115529 0.112624 0.161422
internal_weight=587.217 345.061 282.9 183.495 99.4042 124.505 91.5352 58.9906 5.28188 16.6625 14.1061 62.1612 60.0995 8.45355 51.646 33.1725 31.2476 9.29793 6.855 21.9497 5.65116 7.86896 74.8728 15.7459 12.0235 3.44331 8.58021 4.1015 5.02844 5.4808
internal_count=8000 4457 3780 2507 1273 1724 1194 783 67 209 176 677 658 87 571 360 342 95 71 247 56 79 985 203 153 43 110 51 54 52
is_linear=0
shrinkage=0.05


Tree=5
num_leaves=31
num_cat=0
split_feature=32 273 610 78 146 324 649 31 16 638 635 692 365 500 552 460 374 374 382 613 12 243 630 4 576 722 32 14 24 379
split_gain=78.5343 38.0806 26.1562 22.1807 21.9115 20.8969 20.7593 19.4735 19.4182 18.7408 21.4528 32.0694 26.3847 29.2328 28.5483 20.9113 17.4178 27.0031 20.1385 16.8186 16.1938 15.8373 15.6371 15.4744 16.9053 14.599 14.5595 14.3337 13.8493 13.4606
threshold=0.41526672244071966 1.0000000180025095e-35 4.9326210021972665 1.0000000180025095e-35 1.0000000180025095e-35 -0.041966835036873811 0.64529201388359081 -1.7375952601432798 1.0000000180025095e-35 0.52560946345329296 -0.67968457937240589 -1.6037193536758421 -0.27679669857025141 1.2474772930145266 -0.39454875886440272 0.2574430257081986 -0.26407943665981287 -0.2140884920954704 -0.12451718002557868 -0.1714791655540466 -0.42995634675025934 -0.09463168308138846 -0.02768909931182861 1.0000000180025095e-35 -1.3493136167526243 0.47805622220039373 -1.1879100203514097 4.6946477890014657 -1.7021161913871763 -0.84451752901077259
decision_type=2 2 2 2 2 2 2 2 2 2 2 2 2 2 2 2 2 2 2 2 2 2 2 2 2 2 2 2 2 2
left_child=1 4 3 9 7 19 -6 26 -7 10 12 -12 13 14 -3 20 -10 -18 -19 21 -11 -5 -22 -13 -25 28 -1 29 -26 -2
right_child=27 2 -4 5 6 8 -8 -9 16 15 11 23 -14 -15 -16 -17 17 18 -20 -21 22 -23 -24 24 25 -27 -28 -29 -30 -31
leaf_value=0.13673388591649871 0.058236750379331653 0.25078265096713798 0.21826477007439971 0.010745406856093343 0.027186680532015468 -0.013518544455401968 0.19790782379911281 -0.014337553296137208 0.026303135011759987 0.025706875234979033 0.15261234700153911 -0.012520936964126386 0.015766047753916702 0.032153060533227217 0.058865701730921371 0.0019493677159719142 0.30044543974011484 0.22207330065168296 0.026760421625908831 -0.04513925677456624 0.1126227775942118 0.17033948218880382 0.28988934554226919 0.13285472511367769 0.1269234373030752 0.12656885227951406 0.015220628695130448 0.10444341273162261 -0.004185669621730565 -0.025480524009860561
leaf_weight=3.6153675243258476 4.9037149846553794 4.3823087140917778 1.8137420192360867 3.7719454765319824 7.2694271579384786 2.4047229066491118 2.3583186268806458 131.7540782764554 2.4422222375869742 2.476845420897007 3.5629917457699767 75.566514223814011 26.734930947422981 8.5062156766653043 3.4736971184611347 5.2681348398327827 2.9254208952188474 2.3343213647603971 3.0366976037621516 5.0983394309878367 3.2358359023928642 2.6442238092422485 2.0211112722754461 3.4455525800585738 2.1789847984910073 2.7368675619363776 7.7482798695564252 2.2014778628945342 26.634529426693916 230.29550586640835
leaf_count=38 73 44 18 46 90 31 25 1781 29 32 36 980 331 97 40 67 27 25 36 66 34 29 22 41 24 31 93 29 344 3441
internal_value=-0.000355018 0.0147212 0.0292664 0.0275075 -0.00400924 0.0718279 0.0690049 -0.00892101 0.11491 0.0210874 0.0163165 0.00496676 0.0463718 0.0963799 0.165923 0.0787782 0.14367 0.178219 0.111646 0.0226507 0.131113 0.0765171 0.180776 0.000208728 0.0276958 0.0162116 0.0538803 -0.0225465 0.00572929 -0.0237351
internal_weight=586.842 349.442 196.696 194.882 152.745 24.6579 9.62775 143.118 13.1434 170.225 157.223 114.125 43.0972 16.3622 7.85601 13.0019 10.7387 8.29644 5.37102 11.5145 7.73379 6.41617 5.25695 110.562 34.9959 31.5504 11.3636 237.401 28.8135 235.199
internal_count=8000 4457 2430 2412 2027 289 115 1912 148 2123 1968 1456 512 181 84 155 117 88 61 141 88 75 56 1420 440 399 131 3543 368 3514
is_linear=0
shrinkage=0.05


Tree=6
num_leaves=31
num_cat=0
split_feature=32 33 1 33 389 242 370 32 642 253 393 374 637 572 256 528 31 343 635 29 613 445 451 606 717 607 643 633 9 5
split_gain=71.1608 35.9152 27.1565 24.8313 17.9437 22.3744 17.4944 17.7952 17.8337 17.1567 16.2555 20.6672 19.23 18.9703 16.9922 16.5584 15.8828 15.4683 29.1848 25.0583 18.3324 16.5868 15.3775 14.9482 15.2237 13.8418 18.8219 17.0145 16.8979 13.6993
threshold=0.017207436263561252 -1.2884452342987058 1.0000000180025095e-35 -1.5006828308105467 1.2915899157524111 -0.14121878892183301 -0.92400699853897084 -2.2665612697601314 2.5178955793380742 1.2417606711387636 0.36008957028388983 0.00014388926501854131 0.10181919485330583 -0.095453228801488862 -0.00026391503342892969 2.1349935531616215 -1.3943322896957395 -1.0000000180025095e-35 -0.44680388271808619 1.0000000180025095e-35 -0.76467221975326527 0.3312716037034989 -0.68505349755287159 -0.12220478430390357 1.0000000180025095e-35 0.95843976736068737 -0.35821311175823206 2.3174270391464238 -0.77976971864700306 0.081104684621095671
decision_type=2 2 2 2 2 2 2 2 2 2 2 2 2 2 2 2 2 2 2 2 2 2 2 2 2 2 2 2 2 2
left_child=1 10 6 9 17 -6 -3 -8 25 -2 11 12 14 -14 22 -12 29 23 19 21 -21 -19 -1 24 -4 27 -27 -9 -28 -5
right_child=3 2 4 16 5 -7 7 8 -10 -11 15 -13 13 -15 -16 -17 -18 18 -20 20 -22 -23 -24 -25 -26 26 28 -29 -30 -31
leaf_value=0.11269583889311574 0.014739359206510714 0.16516289074356405 0.0086454167390529763 -0.0026986102391390113 0.22040117063621567 -0.010196744728133048 0.097132220412011527 0.0019603741220552365 0.15698501189938929 0.14651720700748386 -0.011848024991077056 -0.016176669944340145 0.21161325082741553 0.0779370305281228 0.17590677272912733 0.13411174327176925 -0.023945615765127201 0.010567403993480572 -0.016988661094092687 0.29151214054445884 0.084526194404193705 0.1788942684135677 0.0043522500331238103 -0.024881097261399556 0.15656258281201249 0.17577336487741058 0.13657811109178891 0.17019408713672354 -0.041829683889430994 0.0868734291056176
leaf_weight=4.9282236918807039 29.253537401556972 2.4637259244918814 9.5295064300298673 17.378278158605102 1.989484056830406 2.2321132645010939 8.664949603378771 53.539959616959095 2.3241181522607794 2.6977273225784293 11.399842694401739 4.9767395779490462 5.5235238522291183 5.1087958067655546 2.7601735144853636 2.3423266112804404 270.40864392369986 10.63268116861582 22.569648459553719 1.8695730715990064 2.5004694461822501 1.6971004530787457 9.7633104994893056 81.632433220744133 2.1279264613986006 3.0045279189944267 2.0586650818586349 1.5463171303272236 3.7355271503329259 5.658636361360549
leaf_count=41 372 23 132 236 23 28 78 681 23 27 132 53 44 45 22 21 4066 131 298 20 30 18 100 1138 27 31 20 18 45 77
internal_value=-0.000394587 0.0190579 0.010385 -0.0159927 -0.00300443 0.0984756 0.0340658 0.0297521 0.0209339 0.0258657 0.0587355 0.0777333 0.094375 0.147382 0.0620808 0.0130305 -0.0205504 -0.00623625 0.0200892 0.0701995 0.173078 0.0337363 0.0406957 -0.0173177 0.0356459 0.0159844 0.0742186 0.00668283 0.0215583 0.0193033
internal_weight=586.318 260.922 214.119 325.397 136.781 4.2216 77.3378 74.8741 66.2091 31.9513 46.8029 33.0608 28.084 10.6323 17.4517 13.7422 293.446 132.559 39.2695 16.6998 4.37004 12.3298 14.6915 93.2899 11.6574 63.885 8.79872 55.0863 5.79419 23.0369
internal_count=8000 3222 2764 4778 1845 51 919 896 818 399 458 305 252 89 163 153 4379 1794 497 199 50 149 141 1297 159 795 96 699 65 313
is_linear=0
shrinkage=0.05


Tree=7
num_leaves=31
num_cat=0
split_feature=32 33 11 650 635 643 335 640 160 616 570 634 324 372 572 273 562 569 690 647 650 299 309 460 608 129 310 576 31 7
split_gain=66.0584 40.8359 25.1594 22.7646 19.2044 20.0706 26.5584 16.2036 18.9928 16.0994 15.9554 27.7666 14.4392 14.4199 14.1817 22.9147 21.0855 13.9614 13.952 16.8959 15.9848 13.3802 14.1286 16.3868 13.8127 18.1874 13.282 12.9687 16.7949 12.9421
threshold=0.41526672244071966 -1.1845307946205137 0.38437475264072424 3.7950974702835087 -0.44680388271808619 -0.35226348042488093 0.75952908396720897 -0.50389921665191639 1.0000000180025095e-35 0.29666751623153692 0.43052522838115698 0.082523290067911162 -0.43590663373470301 -0.98985320329666127 -1.3999986648559568 0.60505440831184398 -0.12014809250831603 1.4500896334648135 -0.57086327672004689 0.58881255984306347 -0.63694766163825978 2.3104951381683354 0.95599499344825756 -0.4456560462713241 0.12093359231948854 1.0000000180025095e-35 0.98759233951568615 -1.2991735339164732 -1.7375952601432798 0.28711465001106268
decision_type=2 2 2 2 2 2 2 2 2 2 2 2 2 2 2 2 2 2 2 2 2 2 2 2 2 2 2 2 2 2
left_child=1 12 3 13 5 6 18 10 -9 -6 11 26 -1 -3 15 16 -2 21 -4 20 -20 22 24 -24 27 -26 -7 -14 -29 -23
right_child=14 2 4 -5 9 7 -8 8 -10 -11 -12 -13 17 -15 -16 -17 -18 -19 19 -21 -22 29 23 -25 25 -27 -28 28 -30 -31
leaf_value=-0.0008934747873399233 0.12905751245680416 0.10273863962312929 0.031313147881508234 0.19314397114619794 -0.0023419822433913442 0.0051132985397434032 -0.054788353490705169 -0.023220182942372311 0.11427992870691146 0.11998693935403673 0.013179803986559858 0.20578546910499332 0.10410443944746176 -0.0105931817933516 -0.024202821806532535 0.19681971776410184 -0.0401162445767013 -0.056017097713847608 0.21828554670035985 0.27127766397292324 0.027036842987820615 0.052867169223761071 0.22924618414227771 0.055577338508376289 -0.015522040370187583 0.11139014561671803 0.15903604108796698 0.10873512090980425 -0.0093715915407296679 0.21525909705715462
leaf_weight=12.496254593133925 2.461230367422103 2.853729546070098 2.2654676511883727 1.4079013615846623 56.143075294792652 5.7251686379313451 2.1644276008009902 17.358507700264461 2.936268985271453 2.824953854084014 10.195950292050837 3.987227089703083 4.2895135581493369 170.3739685639739 217.97883214056492 1.7946957722306258 7.3192118108272526 2.5395217835903159 1.987837716937064 2.7378624603152275 2.4259297028183937 2.2299873605370513 2.4076948091387749 3.1163334026932707 3.6424698680639276 12.547026738524437 1.8558147624135015 3.574632726609706 19.05651934444905 2.7276556119322777
leaf_count=132 38 37 24 17 735 67 28 223 34 32 124 39 40 2325 3365 27 113 28 19 27 29 21 17 33 38 106 20 32 208 22
internal_value=-0.00042666 0.0130628 0.00478396 -0.0070987 0.0232118 0.0448613 0.103145 0.0288119 -0.00332653 0.00351837 0.0587806 0.098972 0.0477142 -0.00872617 -0.021339 0.0325916 0.00245602 0.0585354 0.139445 0.173698 0.11317 0.0639637 0.055987 0.131272 0.0463402 0.0828362 0.0427934 0.0243923 0.00928358 0.142214
internal_weight=585.426 355.872 287.244 174.636 112.608 53.6405 11.5815 42.0589 20.2948 58.968 21.7642 11.5682 68.6276 173.228 229.554 11.5751 9.78044 56.1314 9.4171 7.15163 4.41377 53.5918 48.6342 5.52403 43.1102 16.1895 7.58098 26.9207 22.6312 4.95764
internal_count=8000 4457 3780 2379 1401 634 127 507 257 767 250 126 677 2362 3543 178 151 545 99 75 48 517 474 50 424 144 87 280 240 43
is_linear=0
shrinkage=0.05


Tree=8
num_leaves=31
num_cat=0
split_feature=32 33 31 531 11 616 451 12 390 126 544 340 398 287 662 369 510 616 538 12 668 579 637 650 4 381 334 645 633 2
split_gain=60.0291 31.5698 19.2393 18.7648 18.4803 18.3526 17.309 18.0056 18.9451 15.3996 15.7956 15.2865 15.1832 15.4755 15.1704 14.4633 17.8826 15.7131 15.1588 13.7996 13.6602 16.472 13.3338 13.1671 13.6229 18.9737 12.1687 12.0887 11.638 18.0631
threshold=-0.74041396379470814 -0.90997099876403797 -1.3943322896957395 -0.27231962978839869 0.3923246711492539 0.724674552679062 -1.0617094635963438 -0.56851789355278004 2.2259389162063603 1.0000000180025095e-35 1.0000000180025095e-35 -0.024593668058514592 0.59367513656616222 -0.55311641097068776 -1.6746543049812315 -0.8328581154346465 0.67893698811531078 0.066202182322740569 0.34754623472690588 1.4075083732604983 0.20024483650922778 -0.9870321750640868 0.069953192025423064 -0.93913260102272023 2.8882559537887578 1.0000000180025095e-35 -0.4031758308410644 -0.54712453484535206 -0.22544536739587781 1.0000000180025095e-35
decision_type=2 2 2 2 2 2 2 2 2 2 2 2 2 2 2 2 2 2 2 2 2 2 2 2 2 2 2 2 2 2
left_child=4 9 3 20 6 19 11 -8 14 10 12 -1 -2 -14 -9 -6 17 18 28 23 21 -3 -13 -4 -25 -26 -19 -11 29 -17
right_child=1 2 5 -5 15 -7 7 8 -10 27 -12 22 13 -15 -16 16 -18 26 -20 -21 -22 -23 -24 24 25 -27 -28 -29 -30 -31
leaf_value=0.019314775757940578 0.027073922060611513 0.15500023969743018 0.096945421790355091 -0.020594620572373625 0.12038220165350673 0.15974304297363051 -0.039953545450570921 0.11616296671185765 0.16545067695348847 0.092137208949305313 -0.028456344927444751 0.17616986859940797 0.18419217276637753 0.055411078744968201 0.0025782328152360594 0.08895957093969227 -0.010969215392809437 0.053202910422787665 0.1639009542804645 0.11947082060632515 0.18451384545213723 0.016016215920837011 0.032364846651870255 -0.02449385172774475 -0.053929500754977079 0.20333784882569195 0.21237857996106688 -0.026736752498599144 0.0071706042704156384 -0.0098588359235085646
leaf_weight=11.0220994502306 39.234798930585384 2.5926557779312143 2.2880319133400908 14.803386360406874 5.8541868925094596 1.3992251381278027 20.23077030479908 3.1312705948948851 2.0252526178956023 2.3569172620773342 9.5064482763409597 3.8201812356710425 3.2871997058391562 8.0348778255283815 48.039233721792698 15.989464469254015 14.285744972527025 2.2462730705738068 2.4568501636385909 1.7201051712036122 1.8624866530299176 11.99452202022076 2.7885744944214821 299.58544987812638 1.33004792779684 1.5540590472519396 2.579509586095809 23.098294273018837 18.919419765472416 6.5060828179121009
leaf_count=117 486 26 26 208 53 19 271 30 22 30 128 35 32 95 592 162 157 23 21 23 19 153 29 4572 20 23 24 312 217 75
internal_value=-0.000454407 -0.0102865 -0.0171325 0.0202461 0.0256576 -0.0209269 0.010878 0.000195875 0.015465 0.0168619 0.0306746 0.0553655 0.0417933 0.0928008 0.00952881 0.0452078 0.0382205 0.0526506 0.0432309 -0.0217517 0.0569996 0.0407186 0.115491 -0.0225488 -0.0234527 0.0846953 0.138287 -0.0157301 0.0360724 0.0603797
internal_weight=584.543 424.649 339.13 31.2531 159.895 307.877 91.0574 73.4265 53.1958 85.5185 60.0633 17.6309 50.5569 11.3221 51.1705 68.8375 62.9833 48.6976 43.8718 306.478 16.4497 14.5872 6.60876 304.758 302.47 2.88411 4.82578 25.4552 41.415 22.4955
internal_count=8000 6172 5089 406 1828 4683 1096 915 644 1083 741 181 613 127 622 732 679 522 475 4664 198 179 64 4641 4615 43 47 342 454 237
is_linear=0
shrinkage=0.05


Tree=9
num_leaves=31
num_cat=0
split_feature=32 33 33 1 10 571 390 243 631 346 546 631 564 513 334 637 44 401 13 247 261 568 309 63 322 323 34 613 371 366
split_gain=56.55 34.7874 20.746 20.4143 20.5552 19.5071 15.2733 22.3649 14.2869 14.0933 14.0447 19.9091 22.1161 14.0197 13.7451 13.6035 13.9494 13.2746 12.9864 12.9464 12.6281 12.3908 12.6927 16.734 18.2756 37.3988 11.8587 14.276 16.5709 15.6576
threshold=0.41526672244071966 0.22118500620126727 -2.2355549335479732 1.0000000180025095e-35 0.54822173714637767 -0.59998862445354451 0.79543551802635204 -0.20085738599300382 -0.11953342705965041 -0.33066713809967035 2.143302440643311 -0.12074477598071097 -0.084351345896720872 0.54023000597953807 1.2164611220359804 0.1506331413984299 -0.86865323781967152 -0.1626443341374397 0.26600506901741033 0.91572907567024242 -0.21050587296485898 4.3094863891601571 0.44507166743278509 0.65187963843345653 -0.30346560478210444 0.2082285284996033 -0.54582947492599476 -0.3833338320255279 0.47024342417716986 -0.78843221068382252
decision_type=2 2 2 2 2 2 2 2 2 2 2 2 2 2 2 2 2 2 2 2 2 2 2 2 2 2 2 2 2 2
left_child=1 2 8 6 -5 26 9 -8 -1 13 21 -12 -13 -4 15 16 -11 -10 -17 -7 -20 22 -2 -24 -25 -26 -6 28 -28 -30
right_child=10 -3 3 4 5 19 7 -9 17 14 11 12 -14 -15 -16 18 -18 -19 20 -21 -22 -23 23 24 25 -27 27 -29 29 -31
leaf_value=0.003360210424896537 -0.033097961737197597 -0.012516274071399101 0.051433078054895276 -0.0090954109190562876 0.18490510619215048 0.0037758612686593189 0.16121209825783489 0.028000868735164608 0.057550305145331597 0.11393064505656721 -0.019982696931571252 0.24838499548196064 0.028014084680910312 0.2039939642548729 0.11412393281465948 0.012593954314071008 -0.0047702732677281723 0.16509617165094637 0.18738281360256634 0.12101799590864287 0.057412840153257649 0.088190510624103768 -0.015711786674224303 -0.024367666379752368 0.2659088858392018 -0.028564096461797795 0.15666335938728107 -0.020712321222319113 0.13372134697672972 -0.020963206786728316
leaf_weight=4.7710082307457951 141.46638499572873 104.72389409318566 5.5064353644847861 86.967619761824608 2.0647004172205952 41.189317606389523 5.6860128939151764 7.066830210387705 6.346850313246251 2.619639165699474 7.3813677504658699 1.8168465606868265 3.0494274757802469 2.0727289393544197 3.781841203570365 10.070240348577501 44.846699424088008 5.2366959750652287 2.6304055377840996 2.4973892495036116 6.4558744728565198 2.4630083926022044 59.020331747829914 3.3973889797925949 2.3442338705062857 1.9964960925281046 4.8719947487115896 4.2741660401225063 2.6051463186740911 4.3974127620458567
leaf_count=42 2284 1468 56 1139 21 499 54 79 52 27 113 26 46 18 41 110 531 35 22 24 62 38 916 53 35 32 46 52 24 55
internal_value=-0.000476356 0.0117599 0.0216923 0.0179734 0.00657924 0.0286016 0.0366672 0.0873947 0.0761778 0.0283716 -0.0202732 0.0317779 0.110291 0.093155 0.0213976 0.016134 0.00178076 0.10617 0.0516987 0.0104781 0.0950381 -0.023299 -0.0246177 -0.0066475 0.0624878 0.130468 0.0720726 0.0576464 0.085851 0.0365837
internal_weight=583.618 360.683 255.959 239.604 148.868 61.9001 90.7367 12.7528 16.3546 77.9839 222.935 12.2476 4.86627 7.57916 70.4047 66.6229 47.4663 11.5835 19.1565 43.6867 9.08628 210.688 208.225 66.7585 7.73812 4.34073 18.2134 16.1487 11.8746 7.00256
internal_count=8000 4457 2989 2860 1860 721 1000 133 129 867 3543 185 72 74 793 752 558 87 194 523 84 3358 3320 1036 120 67 198 177 125 79
is_linear=0
shrinkage=0.05


Tree=10
num_leaves=31
num_cat=0
split_feature=33 33 31 568 362 695 752 631 635 383 445 11 81 616 503 640 643 309 397 365 242 539 10 371 337 9 577 260 496 287
split_gain=44.6898 28.3649 27.056 22.2185 20.8027 17.7573 21.9687 17.6513 16.1153 15.5844 19.8933 18.5908 16.9189 14.7678 14.4565 17.6648 19.2822 14.345 15.7411 13.7589 13.046 12.794 12.793 13.2569 16.8116 12.5741 18.2551 14.5974 13.472 12.0218
threshold=0.23138290643692019 -2.2355549335479732 0.27903297543525701 -0.82903775572776783 -1.1137902140617368 -0.45282456278800959 -1.6899409890174864 -0.11953342705965041 -0.74043607711791981 -0.18741326779127118 0.072353065013885512 0.43815353512763983 1.1551705002784731 0.26374389231204992 0.89315766096115123 -0.50860419869422901 -0.34174074232578272 0.86241003870964061 -0.053587457165122025 -0.22138911485671994 0.55410245060920726 3.2010519504547124 1.6384695172309878 -0.34509116411209101 1.7116222977638247 -0.88739097118377674 0.70393168926239025 -0.35308066010475153 0.0061978469602764659 1.0451180636882784
decision_type=2 2 2 2 2 2 2 2 2 2 2 2 2 2 2 2 2 2 2 2 2 2 2 2 2 2 2 2 2 2
left_child=1 7 3 8 -5 6 -6 -1 19 10 11 17 -11 -4 -2 16 -16 -7 -19 -3 29 -13 23 -14 -25 26 28 -27 -12 -9
right_child=14 2 13 4 5 9 -8 20 -10 12 25 21 22 -15 15 -17 -18 18 -20 -21 -22 -23 -24 24 -26 27 -28 -29 -30 -31
leaf_value=-0.0047063337371960811 -0.025716020651051372 0.083081468231561914 -0.02774419173180144 0.20629284445956531 0.15024556912737963 -0.024654630192197914 0.027533248688846747 0.083541454647003771 0.0092809131218389521 -0.013694497612743235 0.01208873913177414 0.026283653287480786 0.13162756720413821 0.10391761143749062 0.22612526876241251 -0.0029878794802829433 -0.00074259744146278788 0.13177327257021951 -0.054434859239620693 0.23969675292843884 -0.03076093244194893 0.16286958327998188 0.14349816193908968 -0.0045622536051459937 0.14982245722814599 -0.044652007492295857 0.26116762361776513 0.053805397138099779 0.17556373223916863 0.19292828331547107
leaf_weight=6.5418220236897495 164.86474792286754 4.5421347618103027 63.668397232890129 1.3349828124046315 4.2749614007771042 41.636951964348555 24.83984386920929 10.284434989094732 4.5833184942603094 126.35042028874159 3.6731145754456547 32.075922410935163 2.3822525180876317 2.2034949809312812 1.9388876631855967 17.584695499390364 1.8117850758135343 3.1840419918298721 1.7635760195553292 2.0286781713366508 1.8648542761802662 1.8113013766705979 2.24739234894514 21.836294643580917 1.9182658419013012 4.6441596485674443 1.5692189112305639 19.877483025193211 1.9185595065355299 3.32345176488161
leaf_count=66 2552 42 920 16 38 581 300 85 54 1742 45 379 26 30 22 265 24 38 25 23 19 20 25 293 19 58 17 234 18 24
internal_value=-0.000499019 0.0089924 0.00574891 0.0119602 0.00936126 0.00847309 0.0455512 0.064149 0.0812409 0.00442825 0.01862 0.00540694 -0.00585817 -0.0233399 -0.0207042 0.0180238 0.116535 -0.0150902 0.0653995 0.131435 0.0932608 0.0335843 0.0290247 0.0191816 0.00790486 0.0521804 0.11047 0.0351585 0.0681787 0.110257
internal_weight=582.579 396.379 374.365 308.493 297.339 296.004 29.1148 22.0146 11.1541 266.889 112.154 80.4718 154.735 65.8719 186.2 21.3354 3.75067 46.5846 4.94762 6.57081 15.4727 33.8872 28.3842 26.1368 23.7546 31.6825 7.16089 24.5216 5.59167 13.6079
internal_count=8000 5137 4943 3993 3874 3858 338 194 119 3520 1415 1043 2105 950 2863 311 46 644 63 65 128 399 363 338 312 372 80 292 63 109
is_linear=0
shrinkage=0.05


Tree=11
num_leaves=31
num_cat=0
split_feature=32 33 646 33 78 664 334 1 390 382 364 371 268 667 10 241 546 573 367 638 346 572 7 10 335 160 38 376 628 499
split_gain=49.4474 27.7356 17.0282 17.1491 16.5625 17.5087 17.1349 16.3168 19.5127 19.6179 17.6926 27.2397 14.7422 15.5987 13.5062 15.7553 12.6173 16.2283 16.8473 12.1228 13.8689 13.7596 12.0597 16.2244 15.0629 16.0025 13.0823 14.5256 16.8958 11.7698
threshold=0.41526672244071966 0.6780952811241151 -0.71874806284904469 -2.2355549335479732 1.0000000180025095e-35 -1.9481109380722044 -0.29979473352432245 1.0000000180025095e-35 0.70500704646110546 0.23536354675889018 0.91280534863471996 0.3247171044349671 1.0000000180025095e-35 -0.7134040594100951 1.0295301675796511 -0.16197133809328076 2.143302440643311 0.96324044466018688 -0.77781498432159413 0.43604512512683874 -0.34185095131397242 0.93786257505416881 -0.014051447622478007 0.55669990181922924 0.025901979766786102 1.0000000180025095e-35 -0.30324412882328028 -0.036863733083009713 -0.67993038892745961 -1.3125855922698972
decision_type=2 2 2 2 2 2 2 2 2 2 2 2 2 2 2 2 2 2 2 2 2 2 2 2 2 2 2 2 2 2
left_child=1 2 -1 -4 5 6 -5 8 19 10 11 -10 13 -6 29 -16 -2 18 -18 20 -7 -21 -9 -24 25 26 -25 28 -28 -15
right_child=16 -3 3 4 12 7 -8 22 9 -11 -12 -13 -14 14 15 -17 17 -19 -20 21 -22 -23 23 24 -26 -27 27 -29 -30 -31
leaf_value=0.068016204631819011 -0.02236368892925255 -0.018139159484268162 0.064055783969537927 -0.010071793442578698 0.14403060130332096 0.081648010785710087 0.17541830026407657 -0.01792368081123524 0.2404253096300345 0.0056571890165883982 -0.0042112011147437539 0.0028568556642930374 0.097411857293080051 0.090504345840857009 0.13188044644784475 -0.021080049748627334 0.20501301006689535 -0.019424244771070936 0.023319610551992467 0.030205337119717065 -0.0025966507379449688 0.18114951131175921 -0.0092054271385769472 0.18102482444990819 -0.0088360290916345285 0.19133076060853721 0.19371241306753528 -0.054605409320582388 0.0081198430248124089 -0.030448844522115777
leaf_weight=15.701498337090014 204.94257352128625 67.637576259672642 16.442041702568531 2.1378866769373417 2.4502625502645996 5.320556614547967 2.9811681360006324 84.849783286452293 4.1596399396657926 5.5863838605582714 1.8959168717265127 1.6996226273477075 9.2865758910775167 2.3449439592659536 4.144389234483242 2.8351267278194419 2.116087157279253 7.2618429102003574 3.213012505322693 5.6341827511787406 59.729620676487684 2.0624448880553246 32.829637553542852 1.653546318411826 7.4243115335702887 2.6036381721496573 1.9935844540595997 3.3051812537014511 3.1862360946834087 14.135546069592236
leaf_count=147 3358 984 119 23 24 52 27 1116 35 62 20 20 94 24 34 33 28 112 45 54 711 16 443 15 90 26 21 44 42 181
internal_value=-0.00051866 0.0107517 0.0173446 0.0145101 0.0114273 0.00652038 0.0979515 0.0044303 0.0215089 0.0770942 0.128553 0.171513 0.0433605 0.0239877 0.0114499 0.0697469 -0.019379 0.0292032 0.0954667 0.0113147 0.00429385 0.0706534 -0.00623574 0.0124773 0.0477753 0.0807602 0.0523651 0.027292 0.0795498 -0.0132389
internal_weight=581.565 364.031 296.394 280.692 264.25 229.053 5.11905 223.934 86.0884 13.3416 7.75518 5.85926 35.1968 25.9103 23.46 6.97952 217.534 12.5909 5.3291 72.7468 65.0502 7.69663 137.846 52.9961 20.1665 12.7422 10.1385 8.485 5.17982 16.4805
internal_count=8000 4457 3473 3326 3207 2817 50 2767 970 137 75 55 390 296 272 67 3543 185 73 833 763 70 1797 681 238 148 122 107 63 205
is_linear=0
shrinkage=0.05


Tree=12
num_leaves=31
num_cat=0
split_feature=32 33 6 245 618 322 631 45 647 579 670 331 496 390 525 388 528 737 397 445 432 32 631 10 668 402 557 346 374 602
split_gain=44.9261 24.8137 16.675 17.451 20.8477 21.1979 17.8223 19.7023 19.2286 16.0809 15.7121 15.3912 14.1221 12.464 12.2059 13.0467 12.0721 21.3129 14.5015 12.0175 20.3794 12.0006 11.9137 11.861 13.2053 12.7383 17.0961 10.3729 14.3731 11.8341
threshold=0.41526672244071966 0.6780952811241151 -0.79318192601203907 -0.37967979907989496 1.1204186677932741 -0.37578238546848292 -0.10037940740585326 -0.74111214280128468 0.60989627242088329 -0.36101937294006342 0.13667866587638858 2.1372673511505131 2.2290918827056889 0.24955785274505618 1.2561275362968447 0.39150235056877142 1.1292213797569277 0.10721817240118982 3.0695921182632451 2.5534948110580449 0.51481612026691448 -2.5458450317382808 0.13418778032064441 0.34188123047351843 0.076514501124620451 0.58907619118690502 -0.2727875411510467 -0.33613948523998255 -0.23016842454671857 0.50532822310924541
decision_type=2 2 2 2 2 2 2 2 2 2 2 2 2 2 2 2 2 2 2 2 2 2 2 2 2 2 2 2 2 2
left_child=1 2 10 6 11 -6 -4 -8 12 -7 21 19 14 -11 -9 -16 -2 18 22 -5 -21 -1 -18 -3 25 -25 -27 28 29 -23
right_child=16 23 3 4 5 9 7 8 -10 13 -12 -13 -14 -15 15 -17 17 -19 -20 20 -22 27 -24 24 -26 26 -28 -29 -30 -31
leaf_value=0.079479036309402312 -0.022567118313165147 -0.033084441194734561 -0.010716946551208971 0.021119110734822245 -0.03544654036513014 0.18925508841048785 0.14845589973956552 -0.0065290450315852793 0.14875758622544416 -0.005057137276234646 0.12252002632135151 0.13493520379744792 0.14558374308404284 0.14014625128784952 0.1580345423601828 0.0093318283868325577 -0.023982566286215021 0.21359726369959803 0.1593862882080373 0.17370830532484821 -0.015767434530732802 -0.055712742438458099 0.098346484290672082 -0.019334821267543045 0.14497637399080984 0.14564491548616618 -0.054156554505039825 -0.016142561899397358 0.12350297057938212 0.096708922236168435
leaf_weight=3.9470825791358939 193.80677539855242 43.106809303164482 54.344565223902464 89.909632243216038 2.5265541523694983 5.1889147832989684 3.3537020981311789 30.574382904917002 2.8086477927863589 2.9116425551474086 2.4593692496418944 3.3330055922269812 1.9159171953797329 3.0012844577431679 2.522087335586547 3.5530119799077511 15.115002192556867 1.3041386753320683 1.4001128636300553 3.4206979647278777 2.4253153167665005 3.9707959182560444 2.2921770550310603 17.143499117344625 1.7073486335575569 2.9834867268800735 1.66987158730626 72.298592880368233 3.3149262927472574 1.8746504858136175
leaf_count=35 3231 659 682 1013 31 44 32 392 22 33 22 32 16 27 22 36 241 19 19 30 28 48 33 246 16 39 24 878 35 15
internal_value=-0.000535011 0.0100981 0.0162341 0.0238312 0.037287 0.0952691 0.00852221 0.0318979 0.02245 0.125017 -0.00207792 0.0293123 0.0132512 0.0686452 0.00633328 0.071066 -0.0187409 0.0181315 0.00457747 0.0256358 0.0951012 -0.00566587 -0.00787428 -0.0175048 0.0110684 0.000579381 0.0739456 -0.00979155 0.040334 -0.0068307
internal_weight=580.184 366.266 299.655 211.789 112.717 13.6284 99.0723 44.7277 41.374 11.1018 87.8654 99.0887 38.5654 5.91293 36.6495 6.0751 213.918 20.1114 18.8073 95.7556 5.84601 85.406 17.4072 66.611 23.5042 21.7969 4.65336 81.459 9.16037 5.84545
internal_count=8000 4457 3473 2440 1238 135 1202 520 488 104 1033 1103 466 60 450 58 3543 312 293 1071 58 1011 274 984 325 309 63 976 98 63
is_linear=0
shrinkage=0.05


Tree=13
num_leaves=31
num_cat=0
split_feature=32 33 10 31 33 635 247 362 382 542 580 1 591 311 641 4 253 31 503 583 581 646 634 32 241 402 32 572 649 544
split_gain=41.491 24.0078 15.0664 13.8683 13.4727 17.3544 23.4693 20.6714 13.9483 14.4508 16.6445 16.0616 20.365 15.7172 13.4886 22.1822 12.6655 12.4503 12.6839 11.7267 18.7921 15.129 12.6498 15.0597 13.8718 12.9655 11.339 11.156 11.1557 10.5829
threshold=-0.74041396379470814 0.33286856114864355 -0.89318296313285817 0.26504279673099523 -1.6072661280632017 -0.93028444051742543 0.25556947290897375 -1.1137902140617368 -0.12451718002557868 -0.06347049772739409 2.9870674610137944 1.0000000180025095e-35 -0.61880630254745472 -0.41655565798282618 -0.46670983731746668 1.0000000180025095e-35 0.48803249001502996 -0.31334899365901941 2.1247941255569462 0.32915841042995458 1.6481960415840151 -0.69973504543304432 -0.62241101264953602 -1.0581111311912534 -0.28882141411304468 2.7405072450637822 -1.5677154064178465 -0.46620272099971766 0.65058937668800365 0.043045845814049251
decision_type=2 2 2 2 2 2 2 2 2 2 2 2 2 2 2 2 2 2 2 2 2 2 2 2 2 2 2 2 2 2
left_child=2 4 -1 19 16 6 -6 -7 9 10 11 12 -9 -14 15 -15 -2 18 -3 21 -21 27 23 26 -25 -24 -23 -4 -29 -18
right_child=1 17 3 -5 5 7 -8 8 -10 -11 -12 -13 13 14 -16 -17 29 -19 -20 20 -22 22 25 24 -26 -27 -28 28 -30 -31
leaf_value=-0.0095465639002070349 -0.0088205710594173904 -0.0019132530247355593 0.13951245838756357 -0.019598612755217199 -0.030196719884618101 0.20318683377830321 0.2025817677802913 0.2246247031863888 -0.018187158372024649 -0.019906198378347367 0.1916690777807456 -0.0024437830439467765 0.11943399612071498 -0.0040731562600422383 -0.022298308879255189 0.21894742980493437 0.05773641280984413 -0.033449958868680955 0.1513135778707386 0.12291559591831634 -0.015271469141066338 0.060559866692442357 0.006669491223990508 0.18189329383244987 0.033297969589984835 0.1084227501698673 -0.021688790490405035 0.11846802928695643 -0.010626102355386406 -0.039621149584017225
leaf_weight=33.530230302363634 17.229234054684639 19.158306207507852 4.8841282576322556 13.770779583603142 2.039191246032714 1.1593609899282444 2.3087768256664276 1.5991750881075883 142.17579292878509 31.893987353891134 1.4115571081638325 35.494568794965744 4.5515900962054756 2.9075418747961548 9.3338703066110558 1.808418847620487 23.509392537176613 110.20756235718727 1.4530225433409203 8.1199653521180135 3.5297240689396849 11.031232953071598 69.216181602329016 3.6891130283474922 2.7349578104913226 3.2789415195584288 6.7573028579354295 2.7879260852932912 4.1865336745977402 3.1673617400228968
leaf_count=435 220 296 32 172 27 14 24 18 2179 468 17 514 55 37 135 20 203 1884 20 66 36 98 762 31 30 30 71 23 42 41
internal_value=-0.000548576 -0.00908996 0.0204284 0.0279296 -0.000842717 -0.0055616 0.093409 -0.00741375 -0.00846992 0.00705307 0.0221098 0.0178124 0.0534046 0.0386847 0.0125252 0.081448 0.0245953 -0.0267792 0.00888867 0.033374 0.0810465 0.0282585 0.0217225 0.0530131 0.118631 0.0112718 0.0293162 0.0815603 0.0409772 0.046177
internal_weight=578.926 411.409 167.517 133.987 280.59 236.684 4.34797 232.336 231.177 89.0007 57.1067 55.6952 20.2006 18.6014 14.0498 4.71596 43.906 130.819 20.6113 120.216 11.6497 108.566 96.7077 24.2126 6.42407 72.4951 17.7885 11.8586 6.97446 26.6768
internal_count=8000 6172 1828 1393 3972 3508 51 3457 3443 1264 796 779 265 247 192 57 464 2200 316 1221 102 1119 1022 230 61 792 169 97 65 244
is_linear=0
shrinkage=0.05


Tree=14
num_leaves=31
num_cat=0
split_feature=10 241 379 174 498 609 256 650 718 378 634 310 245 572 340 587 617 721 12 640 616 579 373 562 650 400 246 313 390 595
split_gain=27.2964 21.3177 22.8373 18.3954 24.3168 17.2787 16.8706 15.6428 15.1973 15.0601 14.4067 14.0209 12.6883 12.5816 12.332 17.4317 14.9586 12.1089 11.8961 12.348 13.2974 12.5299 11.8563 16.6081 12.1103 11.7811 11.1309 10.8278 10.6355 10.5691
threshold=0.15834014862775805 -0.25168737769126887 -0.84451752901077259 1.0000000180025095e-35 -0.05443360656499862 0.029517468996346 0.09989559650421144 2.7374503612518315 0.3774226605892182 -0.35746487975120539 -1.0465851426124571 1.0185107588768008 -0.22652212530374524 -0.24892001599073407 -0.024593668058514592 -0.72029060125350941 -0.0033575325505807991 2.4152289628982548 1.4075083732604983 -0.54572913050651539 0.56005647778511058 -0.81419640779495228 0.32369896769523626 -0.30121314525604242 -0.73767599463462818 2.2922848463058476 -0.61927035450935353 2.948538184165955 -0.43278923630714411 0.35316199064254766
decision_type=2 2 2 2 2 2 2 2 2 2 2 2 2 2 2 2 2 2 2 2 2 2 2 2 2 2 2 2 2 2
left_child=5 2 -2 6 -5 17 10 8 -3 -9 12 -10 -4 22 -7 -16 -17 18 19 21 27 -1 23 26 28 29 -12 -21 -24 -15
right_child=1 7 3 4 -6 14 -8 9 11 -11 13 -13 -14 25 15 16 -18 -19 -20 20 -22 -23 24 -25 -26 -27 -28 -29 -30 -31
leaf_value=0.085795020041005837 0.13718301141466469 -0.010587710156935168 -0.0098593278987612106 0.0073346325830037813 0.23988100434918996 -0.0029060889027236539 0.15966406308606873 0.015782611268734714 0.024641790934204919 0.20695923665693303 0.080735651673058892 0.1761779519151585 0.1425371759095653 -0.0084909292389967611 0.14416433807959708 0.0013218454422789484 0.16833932712216987 0.13699901120910843 0.11269193412414358 -0.025892182403987316 0.086245535811086987 -0.0088982619813968416 0.094104071066553621 0.078547909611591096 -0.025053152188225437 0.084612233136664425 -0.056386302341942522 0.01980200953968932 -0.034268639446141384 0.079871523862359378
leaf_weight=5.4363291785120955 4.2966492399573317 132.98197402432561 2.0807616338133812 2.3276573531329632 2.1742008291184893 27.455641951411963 2.0397604443132868 2.6435436978936195 7.8601357750594598 1.6878894865512837 2.1773958057165146 1.8943373970687387 3.975046031177043 75.750473789870739 3.9056385830044755 10.515187736600632 1.5365229956805713 1.2719451785087574 1.7369510941207398 205.47097910568118 2.8208356313407412 9.7745932787656766 5.2133771926164627 19.082212306559086 13.170328505337237 3.8869872055947772 4.6205967627465752 13.837650179862974 2.3365714028477695 3.5423443503677836
leaf_count=52 38 1855 25 28 22 381 19 32 94 19 25 17 39 984 39 146 16 13 17 3191 36 138 53 191 173 48 55 187 30 37
internal_value=-0.000560896 0.0101232 0.023611 0.0201836 0.119644 -0.0116208 0.0169361 -0.00332839 -0.00616904 0.0902811 0.0147928 0.0540704 0.0901741 0.0112754 0.01741 0.0523652 0.0226156 -0.0168645 -0.0176831 -0.0186372 -0.0216216 0.0249448 0.0320746 0.0546411 0.00388849 -0.000377169 -0.0124662 -0.023009 0.0543751 -0.00454341
internal_weight=577.505 293.742 146.674 142.378 4.50186 283.762 137.876 147.068 142.736 4.33143 135.836 9.75447 6.05581 129.78 43.413 15.9573 12.0517 240.349 239.077 237.34 222.129 15.2109 46.6005 25.8802 20.7203 83.1798 6.79799 219.309 7.54995 79.2928
internal_count=8000 3784 1767 1729 50 4216 1679 2017 1966 51 1660 111 64 1596 582 201 162 3634 3621 3604 3414 190 527 271 256 1069 80 3378 83 1021
is_linear=0
shrinkage=0.05


Tree=15
num_leaves=31
num_cat=0
split_feature=32 261 32 447 273 556 579 44 10 641 636 365 365 613 247 641 31 557 249 648 12 37 335 572 35 611 394 635 617 460
split_gain=37.1546 19.0548 14.8278 17.6776 14.3741 13.1913 14.4209 14.2585 14.0784 13.7963 12.9864 14.7233 19.3433 13.2391 12.8109 12.7919 13.6026 15.3349 12.7101 12.6085 12.2983 19.204 14.7834 12.1012 18.2361 11.7775 11.6976 11.6953 11.6212 11.6155
threshold=0.41526672244071966 -0.24003800749778745 -1.5174100399017332 0.49712465703487402 1.0000000180025095e-35 1.4545810818672182 1.405378580093384 0.68882936239242565 -1.0284900665283201 -0.43095558881759638 -0.30416563153266901 -0.14489027112722394 -0.19085840135812757 -0.93415597081184376 -1.0104073286056516 2.5528923273086552 -1.4914606809616087 -0.10626141354441641 -0.27686661481857294 1.1690925359725954 0.30284546315670019 -0.76636570692062367 -0.28207613527774805 -1.3999986648559568 0.72694966197013866 -1.0000000180025095e-35 1.4576421380043032 -0.66955932974815358 0.10167682170867921 0.14362319931387904
decision_type=2 2 2 2 2 2 2 2 2 2 2 2 2 2 2 2 2 2 2 2 2 2 2 2 2 2 2 2 2 2
left_child=1 2 3 14 15 6 7 8 -6 -8 11 12 19 -12 18 16 17 -3 -1 -10 25 -22 -23 24 -2 -15 27 -24 -25 -20
right_child=23 4 -4 -5 5 -7 9 -9 10 -11 13 -13 -14 20 -16 -17 -18 -19 29 -21 21 22 26 28 -26 -27 -28 -29 -30 -31
leaf_value=-0.031848526710074286 0.0094307633042093886 0.005444115570395508 -0.014622953717074495 0.13251446841661971 -0.016483994120224818 -0.037537582455106883 -0.024129050300546802 -0.038842024915931785 0.012953175448891059 0.091052903539950672 0.16470630356457139 -0.0073335034733515592 0.17958341033427666 -0.046950980921799806 -0.0057074291773823258 0.13632269756007925 -0.019037714635050312 0.16596304093925759 0.045829552208818104 0.084542053597969777 0.18686045114485261 0.13487665822335074 0.11039985672714997 -0.021508086341869407 0.2055181581214176 0.037126319323811684 0.1405149729424286 0.0049739508883917677 0.12220538208507577 0.20841920713518425
leaf_weight=1.9563705772161482 10.231391057372091 4.6737713143229485 107.10607143491507 3.3516966104507437 16.723867982625961 8.109499301761387 3.1663008779287365 8.8514332957565767 26.031773116439581 14.529475416988133 2.4143172651529303 31.534642495214939 2.303201049566268 5.2828449793159988 23.416576635092497 1.5580352433025826 45.161505062133074 2.182753048837184 2.3684313930571106 8.0532727204263193 3.0070381015539196 4.5744924321770695 3.1598736271262267 194.0450251288712 1.3411118499934662 19.687762591987848 2.368656061589717 15.705728147178883 1.4169494248926628 2.048644345253706
leaf_count=23 161 48 1473 32 226 99 40 110 286 140 18 378 23 65 273 19 599 16 24 63 26 42 23 3344 17 207 16 170 21 18
internal_value=-0.000569337 0.00893547 -0.00557937 0.0236473 0.0178218 0.0247418 0.027759 0.0227133 0.0265816 0.0704434 0.0323841 0.0176729 0.0393438 0.0501638 0.0113986 -0.00484685 -0.00907514 0.0565448 0.0742477 0.0298675 0.0450223 0.0672787 0.053346 -0.0175249 0.0321549 0.0193387 0.0357818 0.0226321 -0.0204663 0.121239
internal_weight=576.363 369.328 140.248 33.1417 229.08 175.504 167.395 149.699 140.847 17.6958 124.124 67.9229 36.3882 56.2007 29.79 53.5761 52.018 6.85652 6.37345 34.085 53.7864 28.8158 25.8088 207.034 11.5725 24.9706 21.2343 18.8656 195.462 4.41708
internal_count=8000 4457 1843 370 2614 1932 1833 1653 1543 180 1317 750 372 567 338 682 663 64 65 349 549 277 251 3543 178 272 209 193 3365 42
is_linear=0
shrinkage=0.05


Tree=16
num_leaves=31
num_cat=0
split_feature=33 31 383 609 496 11 10 78 663 616 13 503 0 310 638 7 692 0 608 400 562 51 9 346 161 393 313 324 9 531
split_gain=30.8281 20.6845 16.1831 13.757 19.9822 12.7681 12.6953 15.4159 13.2595 12.6599 17.4759 12.076 12.4165 15.8949 11.5485 11.4683 16.489 15.5841 13.2062 12.5037 11.0446 11.2065 10.9617 10.9072 12.6069 10.6553 10.4852 14.6364 10.299 12.1701
threshold=0.23138290643692019 0.27903297543525701 -0.1801950857043266 0.029517468996346 0.10664019733667375 0.29832871258258825 0.15834014862775805 3.0254552960395817 -1.7087705731391905 0.16497304290533069 0.27991008758544927 0.89315766096115123 -0.37638883292675013 0.82639622688293468 0.090600829571485533 -0.63252863287925709 -0.97029286623001088 -0.35062056779861445 1.4690245389938357 3.3602075576782231 -1.159023582935333 0.79744932055473339 -1.2430939674377439 -0.34276211261749262 1.0000000180025095e-35 -0.35295815765857691 0.53724193572998058 0.29783651232719427 -1.1309930086135862 -0.69268977642059315
decision_type=2 2 2 2 2 2 2 2 2 2 2 2 2 2 2 2 2 2 2 2 2 2 2 2 2 2 2 2 2 2
left_child=1 2 3 5 -5 26 7 8 -4 -3 -11 -2 13 14 -13 23 17 -17 19 -18 -7 22 -22 -8 -25 -19 -1 -28 -24 -30
right_child=11 9 6 4 -6 20 15 -9 -10 10 -12 12 -14 -15 -16 16 18 25 -20 -21 21 -23 28 24 -26 -27 27 -29 29 -31
leaf_value=-0.0052892866285571454 -0.023145389372146608 -0.023672606516464398 0.11807670369343784 0.027557938538931556 0.12353160254528839 -0.056094430380909943 0.075833843824063385 0.12743817997467979 -0.022505711277936772 -0.028124858759167561 0.19796300108215639 -0.029294569698909364 -0.016708702156449397 0.1941986154303757 0.094279732218668075 0.16469049891215851 0.0065636230326962079 0.08847979704731386 0.10879137450847316 0.14141780006267762 -0.056242992968354534 -0.044011114039532652 0.16198171021975794 -0.032920323817966411 0.045142418581744476 -0.05531639511998826 0.015290115704819487 0.18114569495989269 0.072600938464944198 0.022090120077128572
leaf_weight=55.631749611347914 151.98934888094664 62.622791308909655 1.7220608852803696 16.853032466024164 7.9970529265701762 3.2028885558247557 3.3371873237192622 1.8512588143348683 64.495129130780697 1.878344047814607 1.5684164464473722 4.0426417142152804 11.996780898422001 1.7880209051072595 3.5516900755465031 3.7242220304906368 68.204774752259254 3.2623353339731693 3.5518448241055003 1.7633398622274388 2.527006857097148 3.760189536958932 1.9890661723911751 28.562877651304007 6.3156149946153155 2.1290227025747281 4.8117061741650096 1.8384167067706583 22.532236505299803 25.332378450781111
leaf_count=730 2552 937 21 189 66 38 34 21 944 26 18 64 187 20 40 33 866 25 36 20 29 42 15 372 73 28 58 16 220 280
internal_value=-0.000576 0.0070331 0.0120703 0.0245435 0.0584434 0.0176172 0.00239941 -0.0148711 -0.0188497 -0.0185378 0.0747543 -0.0181962 0.0169888 0.0600762 0.0284982 0.0121269 0.0226013 0.0860313 0.0147368 0.00996222 0.0342137 0.0393658 0.0453511 -0.0105225 -0.0187851 0.0316953 0.00180374 0.0611406 0.0505008 0.0458681
internal_weight=574.833 401.465 335.395 146.476 24.8501 121.626 188.92 68.0684 66.2172 66.0696 3.44676 173.368 21.3791 9.38235 7.59433 120.851 82.6355 9.11558 73.52 69.9681 59.3438 56.1409 52.3807 38.2157 34.8785 5.39136 62.2819 6.65012 49.8537 47.8646
internal_count=8000 5137 4156 1683 255 1428 2473 986 965 981 44 2863 311 124 104 1487 1008 86 922 886 624 586 544 479 445 53 804 74 515 500
is_linear=0
shrinkage=0.05


Tree=17
num_leaves=31
num_cat=0
split_feature=32 33 6 685 245 649 631 512 12 618 553 579 319 14 81 631 653 315 239 575 647 69 7 241 635 32 662 324 702 646
split_gain=32.4906 17.5207 13.3981 14.7442 12.2629 16.5213 14.11 15.2251 12.0357 12.6394 15.6621 12.9817 20.3135 12.0174 11.3781 11.2189 15.351 13.1307 11.2877 11.1321 11.6472 11.2286 10.9754 10.7405 10.6695 10.5995 10.3706 10.1433 10.7108 10.0476
threshold=0.41526672244071966 0.6780952811241151 -0.79318192601203907 -0.20502970367670056 -0.37967979907989496 0.32384681701660162 -0.10037940740585326 -0.23818145692348477 -0.91981458663940419 0.83567029237747203 -0.76446598768234242 1.096093535423279 -0.18825144320726392 4.6946477890014657 0.041895424947142608 -0.010859054047614334 -3.2155506610870357 0.44530485570430761 1.0000000180025095e-35 -0.7061333656311034 0.60989627242088329 -0.569789558649063 0.2096497714519501 -0.55886638164520253 1.9959120750427248 -2.5458450317382808 -1.6746543049812315 -0.2838220596313476 0.5238950550556184 -0.65758916735649098
decision_type=2 2 2 2 2 2 2 2 2 2 2 2 2 2 2 2 2 2 2 2 2 2 2 2 2 2 2 2 2 2
left_child=1 2 3 14 6 15 -4 19 -7 11 -11 -10 -13 29 -1 16 -6 18 22 -8 21 -21 -17 -12 -9 -5 -23 -28 -29 -2
right_child=13 -3 4 25 5 8 7 24 9 10 23 12 -14 -15 -16 17 -18 -19 -20 20 -22 26 -24 -25 -26 -27 27 28 -30 -31
leaf_value=-0.018061307031986405 0.0090085294291517015 -0.015730082793146551 -0.010547564553729476 0.06910455221471741 0.11592738486946666 -0.011106329583174502 0.14035870919963586 -0.023444398397179933 0.032807923157357428 0.17664515514728094 0.11214148338091177 0.21085773157819965 0.023253555610820213 0.096937297726797697 0.075563019299459022 0.062299090514928206 -0.020980703627675189 -0.043388975703237603 0.014293139513171788 0.14355222197646647 0.14480598954426016 0.11592745110109084 0.19832784384356317 0.001037201526769243 0.10874785279862026 -0.016656300317369945 -0.04723069430459724 0.013421205385937569 0.14881750688435416 -0.022637300528410509
leaf_weight=4.9645471163094035 29.398366793990135 63.347651854157448 53.764917630702257 3.7975052148103705 2.2102702967822578 8.3858557455241662 2.9959503412246731 15.409774903208019 46.48096464946866 4.1656269468367091 4.5288347266614428 2.7443602383136749 3.0426707826554766 2.3006738200783721 9.369849715381859 4.0873208455741388 27.798133719712496 3.5203324109315863 5.5561352148652077 1.9365897029638386 2.3505128696560851 2.4042645990848639 2.3271339312195778 4.1855685003101817 1.6942408829927433 70.295756723731756 6.1553328074514999 11.679634321480966 1.6694424115121353 170.85059548914433
leaf_count=56 477 984 682 31 19 94 30 198 463 31 37 21 30 29 79 40 333 42 63 16 16 17 22 43 13 867 82 132 16 3037
