tree
version=v4
num_class=1
num_tree_per_iteration=1
label_index=0
max_feature_idx=775
objective=regression
feature_names=Column_0 Column_1 Column_2 Column_3 Column_4 Column_5 Column_6 Column_7 Column_8 Column_9 Column_10 Column_11 Column_12 Column_13 Column_14 Column_15 Column_16 Column_17 Column_18 Column_19 Column_20 Column_21 Column_22 Column_23 Column_24 Column_25 Column_26 Column_27 Column_28 Column_29 Column_30 Column_31 Column_32 Column_33 Column_34 Column_35 Column_36 Column_37 Column_38 Column_39 Column_40 Column_41 Column_42 Column_43 Column_44 Column_45 Column_46 Column_47 Column_48 Column_49 Column_50 Column_51 Column_52 Column_53 Column_54 Column_55 Column_56 Column_57 Column_58 Column_59 Column_60 Column_61 Column_62 Column_63 Column_64 Column_65 Column_66 Column_67 Column_68 Column_69 Column_70 Column_71 Column_72 Column_73 Column_74 Column_75 Column_76 Column_77 Column_78 Column_79 Column_80 Column_81 Column_82 Column_83 Column_84 Column_85 Column_86 Column_87 Column_88 Column_89 Column_90 Column_91 Column_92 Column_93 Column_94 Column_95 Column_96 Column_97 Column_98 Column_99 Column_100 Column_101 Column_102 Column_103 Column_104 Column_105 Column_106 Column_107 Column_108 Column_109 Column_110 Column_111 Column_112 Column_113 Column_114 Column_115 Column_116 Column_117 Column_118 Column_119 Column_120 Column_121 Column_122 Column_123 Column_124 Column_125 Column_126 Column_127 Column_128 Column_129 Column_130 Column_131 Column_132 Column_133 Column_134 Column_135 Column_136 Column_137 Column_138 Column_139 Column_140 Column_141 Column_142 Column_143 Column_144 Column_145 Column_146 Column_147 Column_148 Column_149 Column_150 Column_151 Column_152 Column_153 Column_154 Column_155 Column_156 Column_157 Column_158 Column_159 Column_160 Column_161 Column_162 Column_163 Column_164 Column_165 Column_166 Column_167 Column_168 Column_169 Column_170 Column_171 Column_172 Column_173 Column_174 Column_175 Column_176 Column_177 Column_178 Column_179 Column_180 Column_181 Column_182 Column_183 Column_184 Column_185 Column_186 Column_187 Column_188 Column_189 Column_190 Column_191 Column_192 Column_193 Column_194 Column_195 Column_196 Column_197 Column_198 Column_199 Column_200 Column_201 Column_202 Column_203 Column_204 Column_205 Column_206 Column_207 Column_208 Column_209 Column_210 Column_211 Column_212 Column_213 Column_214 Column_215 Column_216 Column_217 Column_218 Column_219 Column_220 Column_221 Column_222 Column_223 Column_224 Column_225 Column_226 Column_227 Column_228 Column_229 Column_230 Column_231 Column_232 Column_233 Column_234 Column_235 Column_236 Column_237 Column_238 Column_239 Column_240 Column_241 Column_242 Column_243 Column_244 Column_245 Column_246 Column_247 Column_248 Column_249 Column_250 Column_251 Column_252 Column_253 Column_254 Column_255 Column_256 Column_257 Column_258 Column_259 Column_260 Column_261 Column_262 Column_263 Column_264 Column_265 Column_266 Column_267 Column_268 Column_269 Column_270 Column_271 Column_272 Column_273 Column_274 Column_275 Column_276 Column_277 Column_278 Column_279 Column_280 Column_281 Column_282 Column_283 Column_284 Column_285 Column_286 Column_287 Column_288 Column_289 Column_290 Column_291 Column_292 Column_293 Column_294 Column_295 Column_296 Column_297 Column_298 Column_299 Column_300 Column_301 Column_302 Column_303 Column_304 Column_305 Column_306 Column_307 Column_308 Column_309 Column_310 Column_311 Column_312 Column_313 Column_314 Column_315 Column_316 Column_317 Column_318 Column_319 Column_320 Column_321 Column_322 Column_323 Column_324 Column_325 Column_326 Column_327 Column_328 Column_329 Column_330 Column_331 Column_332 Column_333 Column_334 Column_335 Column_336 Column_337 Column_338 Column_339 Column_340 Column_341 Column_342 Column_343 Column_344 Column_345 Column_346 Column_347 Column_348 Column_349 Column_350 Column_351 Column_352 Column_353 Column_354 Column_355 Column_356 Column_357 Column_358 Column_359 Column_360 Column_361 Column_362 Column_363 Column_364 Column_365 Column_366 Column_367 Column_368 Column_369 Column_370 Column_371 Column_372 Column_373 Column_374 Column_375 Column_376 Column_377 Column_378 Column_379 Column_380 Column_381 Column_382 Column_383 Column_384 Column_385 Column_386 Column_387 Column_388 Column_389 Column_390 Column_391 Column_392 Column_393 Column_394 Column_395 Column_396 Column_397 Column_398 Column_399 Column_400 Column_401 Column_402 Column_403 Column_404 Column_405 Column_406 Column_407 Column_408 Column_409 Column_410 Column_411 Column_412 Column_413 Column_414 Column_415 Column_416 Column_417 Column_418 Column_419 Column_420 Column_421 Column_422 Column_423 Column_424 Column_425 Column_426 Column_427 Column_428 Column_429 Column_430 Column_431 Column_432 Column_433 Column_434 Column_435 Column_436 Column_437 Column_438 Column_439 Column_440 Column_441 Column_442 Column_443 Column_444 Column_445 Column_446 Column_447 Column_448 Column_449 Column_450 Column_451 Column_452 Column_453 Column_454 Column_455 Column_456 Column_457 Column_458 Column_459 Column_460 Column_461 Column_462 Column_463 Column_464 Column_465 Column_466 Column_467 Column_468 Column_469 Column_470 Column_471 Column_472 Column_473 Column_474 Column_475 Column_476 Column_477 Column_478 Column_479 Column_480 Column_481 Column_482 Column_483 Column_484 Column_485 Column_486 Column_487 Column_488 Column_489 Column_490 Column_491 Column_492 Column_493 Column_494 Column_495 Column_496 Column_497 Column_498 Column_499 Column_500 Column_501 Column_502 Column_503 Column_504 Column_505 Column_506 Column_507 Column_508 Column_509 Column_510 Column_511 Column_512 Column_513 Column_514 Column_515 Column_516 Column_517 Column_518 Column_519 Column_520 Column_521 Column_522 Column_523 Column_524 Column_525 Column_526 Column_527 Column_528 Column_529 Column_530 Column_531 Column_532 Column_533 Column_534 Column_535 Column_536 Column_537 Column_538 Column_539 Column_540 Column_541 Column_542 Column_543 Column_544 Column_545 Column_546 Column_547 Column_548 Column_549 Column_550 Column_551 Column_552 Column_553 Column_554 Column_555 Column_556 Column_557 Column_558 Column_559 Column_560 Column_561 Column_562 Column_563 Column_564 Column_565 Column_566 Column_567 Column_568 Column_569 Column_570 Column_571 Column_572 Column_573 Column_574 Column_575 Column_576 Column_577 Column_578 Column_579 Column_580 Column_581 Column_582 Column_583 Column_584 Column_585 Column_586 Column_587 Column_588 Column_589 Column_590 Column_591 Column_592 Column_593 Column_594 Column_595 Column_596 Column_597 Column_598 Column_599 Column_600 Column_601 Column_602 Column_603 Column_604 Column_605 Column_606 Column_607 Column_608 Column_609 Column_610 Column_611 Column_612 Column_613 Column_614 Column_615 Column_616 Column_617 Column_618 Column_619 Column_620 Column_621 Column_622 Column_623 Column_624 Column_625 Column_626 Column_627 Column_628 Column_629 Column_630 Column_631 Column_632 Column_633 Column_634 Column_635 Column_636 Column_637 Column_638 Column_639 Column_640 Column_641 Column_642 Column_643 Column_644 Column_645 Column_646 Column_647 Column_648 Column_649 Column_650 Column_651 Column_652 Column_653 Column_654 Column_655 Column_656 Column_657 Column_658 Column_659 Column_660 Column_661 Column_662 Column_663 Column_664 Column_665 Column_666 Column_667 Column_668 Column_669 Column_670 Column_671 Column_672 Column_673 Column_674 Column_675 Column_676 Column_677 Column_678 Column_679 Column_680 Column_681 Column_682 Column_683 Column_684 Column_685 Column_686 Column_687 Column_688 Column_689 Column_690 Column_691 Column_692 Column_693 Column_694 Column_695 Column_696 Column_697 Column_698 Column_699 Column_700 Column_701 Column_702 Column_703 Column_704 Column_705 Column_706 Column_707 Column_708 Column_709 Column_710 Column_711 Column_712 Column_713 Column_714 Column_715 Column_716 Column_717 Column_718 Column_719 Column_720 Column_721 Column_722 Column_723 Column_724 Column_725 Column_726 Column_727 Column_728 Column_729 Column_730 Column_731 Column_732 Column_733 Column_734 Column_735 Column_736 Column_737 Column_738 Column_739 Column_740 Column_741 Column_742 Column_743 Column_744 Column_745 Column_746 Column_747 Column_748 Column_749 Column_750 Column_751 Column_752 Column_753 Column_754 Column_755 Column_756 Column_757 Column_758 Column_759 Column_760 Column_761 Column_762 Column_763 Column_764 Column_765 Column_766 Column_767 Column_768 Column_769 Column_770 Column_771 Column_772 Column_773 Column_774 Column_775
feature_infos=[-1.7345534563064575:1.7305923700332642] [-1.3874846696853638:0.72072863578796387] [-0.71834069490432739:1.3920971155166626] [-0.66366684436798096:1.5067801475524902] [-0.57784676551818848:16.059446334838867] [-0.54875022172927856:7.1270122528076172] [-1.3767068386077881:5.2163524627685547] [-1.7333372831344604:9.622797966003418] [-1.3360917568206787:4.6539273262023926] [-1.470258355140686:3.730172872543335] [-2.0985734462738037:1.9104585647583008] [-6.5706243515014648:1.0435155630111694] [-4.0224862098693848:1.415024995803833] [-2.1087772846221924:1.9819533824920654] [-1.4095039367675781:7.7116422653198242] none [-2.1354892253875732:0.4682767391204834] [-0.50001907348632812:1.9999238252639771] [-22.954471588134766:0.043564498424530029] [-0.62550610303878784:1.5987054109573364] [-0.24555616080760956:4.0723881721496582] [-1.2660832405090332:13.020748138427734] [-2.0650641918182373:1.8601891994476318] [-2.0488619804382324:1.924291729927063] [-3.3859889507293701:3.0433433055877686] [-0.12374131381511688:8.0813751220703125] [-0.23062796890735626:4.3359875679016113] [-0.20523227751255035:4.8725275993347168] [-0.29152888059616089:3.4301919937133789] [-0.54716825485229492:1.8275914192199707] [-0.46768945455551147:2.1381709575653076] [-3.4868481159210205:3.1175949573516846] [-2.6941618919372559:1.7830277681350708] [-2.9476387500762939:2.1671509742736816] [-1.3210943937301636:11.589228630065918] [-1.5248448848724365:17.216682434082031] [-23.059591293334961:0.47951754927635193] [-11.534944534301758:3.7569880485534668] [-0.64935505390167236:22.348047256469727] [-0.36882677674293518:9.641636848449707] [-2.0271844863891602:12.070499420166016] [-1.8402674198150635:7.5194563865661621] [-2.3433003425598145:8.5168628692626953] [-1.0543497800827026:17.928895950317383] [-1.5650277137756348:17.154716491699219] [-1.1388113498687744:11.387148857116699] [-0.10053326189517975:36.954849243164062] [-0.30599704384803772:20.421525955200195] [-1.279832124710083:11.65889835357666] [-1.46488356590271:16.850713729858398] [-21.273065567016602:0.44964683055877686] [-12.000068664550781:3.7255616188049316] [-0.61278128623962402:22.826137542724609] [-0.35623851418495178:9.8922948837280273] [-1.9807473421096802:12.014247894287109] [-1.8419327735900879:7.6221299171447754] [-2.3386709690093994:8.5628480911254883] [-1.0093702077865601:17.821863174438477] [-1.5197151899337769:16.119146347045898] [-1.1086275577545166:10.173432350158691] [-0.095094054937362671:37.997379302978516] [-0.26124367117881775:20.19825553894043] [-1.3040105104446411:11.491532325744629] [-1.5200400352478027:17.276321411132812] [-22.826213836669922:0.4744715690612793] [-11.708700180053711:3.7461366653442383] [-0.6429097056388855:22.302158355712891] [-0.36561962962150574:9.6690387725830078] [-2.0176899433135986:12.039375305175781] [-1.8340723514556885:7.5033187866210938] [-2.3344714641571045:8.4891223907470703] [-1.0551837682723999:17.710721969604492] [-1.5584607124328613:16.924417495727539] [-1.1313492059707642:9.8469324111938477] [-0.099318861961364746:37.091217041015625] [-0.29607650637626648:20.218786239624023] [-1.0911442041397095:11.06946849822998] [-0.58683395385742188:9.7199678421020508] [-0.31991615891456604:13.061569213867188] [-0.58498889207839966:9.8135671615600586] [-0.27504122257232666:13.496893882751465] [-3.5550720691680908:1.1642460823059082] [-0.0066870423033833504:149.54293823242188] [-1.5639625787734985:0.63940149545669556] [-0.00878863874822855:113.78326416015625] [-0.12380902469158173:8.0769557952880859] [-0.31066623330116272:3.218888521194458] [-0.013526144437491894:73.930900573730469] [-0.29763254523277283:3.3598475456237793] [-0.062689222395420074:15.951704978942871] none [-0.062787175178527832:15.92681884765625] none [-0.059194885194301605:16.893352508544922] [-0.054178971797227859:18.457345962524414] [-0.034590858966112137:28.909370422363281] [-0.10062647610902786:9.9377422332763672] [-0.015488384291529655:64.56451416015625] [-0.090146087110042572:11.093105316162109] [-0.024452118203043938:40.896251678466797] [-0.022993998602032661:43.489608764648438] [-0.018036141991615295:55.444229125976562] [-0.070447720587253571:12.691327095031738] [-0.058494437485933304:47.090667724609375] [-0.15507061779499054:25.704574584960938] [-0.26973193883895874:18.39039421081543] [-0.29473954439163208:9.9522085189819336] [-1.0083709955215454:8.6269111633300781] [-3.074601411819458:0.32524541020393372] [-0.32524541020393372:3.074601411819458] [-0.10393370687961578:9.6215181350708008] [-0.38698866963386536:2.5840549468994141] [-0.02964460477232933:33.732952117919922] [-0.052570506930351257:19.022071838378906] [-0.076572373509407043:13.059540748596191] [-0.19532914459705353:5.1195635795593262] [-2.0558395385742188:0.48641929030418396] none [-0.55169504880905151:1.8125956058502197] none [-0.46815416216850281:2.1360485553741455] [-0.27633923292160034:3.6187407970428467] none [-0.0080649582669138908:123.99319458007812] [-1.0320702791213989:0.96892625093460083] [-0.022547241300344467:44.351325988769531] [-0.56714671850204468:1.7632123231887817] [-0.18669836223125458:5.3562331199645996] [-0.11176428198814392:8.9474029541015625] [-1.5650744438171387:0.6389472484588623] [-0.3270532488822937:3.0576059818267822] [-1.3293763399124146:0.75223243236541748] [-0.26158291101455688:3.8228795528411865] [-0.41734990477561951:2.3960709571838379] none [-0.23504212498664856:4.2545561790466309] [-0.060966722667217255:16.40239143371582] [-2.8123569488525391:0.35557365417480469] [-0.19448649883270264:5.1417450904846191] [-0.092298112809658051:10.834457397460938] [-0.12584109604358673:7.9465293884277344] [-0.22468174993991852:4.450739860534668] [-0.18170887231826782:5.5033082962036133] [-0.12478695809841156:8.0136585235595703] [-0.14037670195102692:7.1236891746520996] [-0.31437265872955322:3.1809382438659668] [-0.25328865647315979:3.9480648040771484] [-0.043564498424530029:22.954471588134766] [-0.19595630466938019:5.1031785011291504] [-0.04125584289431572:24.238990783691406] [-0.46730858087539673:2.1399135589599609] [-0.083615131676197052:11.959558486938477] [-0.27289828658103943:3.6643688678741455] [-0.16877023875713348:5.9252152442932129] [-0.093566365540027618:10.687601089477539] [-0.049363631755113602:20.257827758789062] [-0.34221750497817993:2.9221181869506836] [-0.065471380949020386:15.273849487304688] [-0.14911486208438873:6.7062397003173828] [-0.066465891897678375:15.045310020446777] [-0.44263216853141785:2.2592122554779053] [-0.44449597597122192:2.2497391700744629] [-0.35200986266136169:2.8408293724060059] [-0.23518653213977814:4.2519440650939941] [-0.44317057728767395:2.256467342376709] [-0.46084576845169067:2.1699233055114746] [-0.45127925276756287:2.2159228324890137] [-0.037853870540857315:26.417377471923828] [-0.090466335415840149:11.053835868835449] [-0.090374946594238281:11.06501293182373] [-0.14079765975475311:7.1023907661437988] [-0.1881508082151413:5.3148856163024902] [-0.53324145078659058:1.8753231763839722] [-0.028595885261893272:34.970066070556641] [-0.14992471039295197:6.6700143814086914] [-0.035174936056137085:28.429332733154297] [-0.056325577199459076:17.753923416137695] [-0.042665489017963409:23.438146591186523] [-0.18674498796463013:5.354896068572998] [-0.055924717336893082:17.881181716918945] [-0.09839756041765213:10.162853240966797] [-0.058673977851867676:17.043331146240234] [-0.01923663355410099:51.984149932861328] [-0.094687208533287048:10.561088562011719] [-0.034590858966112137:28.909370422363281] [-0.015356535091996193:65.118858337402344] [-0.038547560572624207:25.941980361938477] [-0.10341297090053558:9.6699666976928711] [-0.054027825593948364:18.508981704711914] [-0.044399529695510864:22.522762298583984] [-0.018808946013450623:53.166191101074219] [-0.065094590187072754:15.362259864807129] [-0.0090169711038470268:110.90198516845703] [-0.10459106415510178:9.5610456466674805] [-0.043891105800867081:22.783658981323242] [-0.15170092880725861:6.5919175148010254] [-0.031444579362869263:31.801984786987305] [-0.19393429160118103:5.1563858985900879] [-0.093101054430007935:10.741016387939453] [-0.032401546835899353:30.862724304199219] [-0.23913533985614777:4.1817326545715332] [-0.087590403854846954:11.416775703430176] [-0.084326997399330139:11.858598709106445] [-0.036594565957784653:27.326461791992188] [-0.016991037875413895:58.854560852050781] [-0.077798143029212952:12.853777885437012] [-0.1727040559053421:5.7902517318725586] [-0.10325223952531815:9.6850204467773438] [-0.079989202320575714:12.501688003540039] [-0.37810757756233215:2.6447501182556152] [-0.071089841425418854:14.066707611083984] [-0.043046291917562485:23.230806350708008] [-0.033996798098087311:29.414533615112305] [-0.07800939679145813:12.818967819213867] [-0.10702662169933319:9.3434696197509766] [-0.014399855397641659:69.445137023925781] none [-0.044993042945861816:22.225658416748047] [-0.16152298450469971:6.1910691261291504] [-0.026219271123409271:38.139884948730469] [-0.085757546126842499:11.660781860351562] [-0.062295883893966675:16.052425384521484] [-0.13328547775745392:7.5026931762695312] [-0.066465891897678375:15.045310020446777] [-0.46819931268692017:2.1358425617218018] [-0.13673487305641174:7.3134231567382812] [-0.13634873926639557:7.334134578704834] [-0.56223827600479126:1.7786053419113159] [-0.20197322964668274:4.9511508941650391] [-0.9800410270690918:1.0203654766082764] [-0.069601692259311676:14.367466926574707] [-0.062689222395420074:15.951704978942871] [-0.17621716856956482:5.6748161315917969] [-0.086021699011325836:11.624973297119141] [-0.076491765677928925:13.07330322265625] [-0.073084048926830292:13.682876586914062] [-0.52329599857330322:1.9109643697738647] [-0.51673543453216553:1.9352263212203979] [-0.13333284854888916:7.5000271797180176] [-1.0382970571517944:0.96311545372009277] [-0.087330855429172516:11.450706481933594] [-1.130576491355896:4.4166946411132812] [-0.65624243021011353:12.890134811401367] [-0.79837697744369507:7.517977237701416] [-1.7840133905410767:8.1134986877441406] [-1.2659457921981812:2.9771418571472168] [-1.4504224061965942:2.1893854141235352] [-4.8797879219055176:0.98114120960235596] [-3.511361837387085:2.0543792247772217] [-1.2220683097839355:8.7554683685302734] [-18.556816101074219:14.676192283630371] [-0.82382822036743164:3.1056294441223145] [-5.3916177749633789:10.978805541992188] [-23.873865127563477:1.2923867702484131] [-0.058400761336088181:31.198707580566406] [-0.04387800395488739:47.865989685058594] [-0.015192721970379353:96.411094665527344] [-0.49395909905433655:18.594215393066406] [-0.44337552785873413:15.726310729980469] [-0.49834921956062317:15.140228271484375] [-0.41048115491867065:27.059965133666992] [-0.43908557295799255:26.155769348144531] [-0.76270955801010132:22.142454147338867] [-0.010443423874676228:96.338516235351562] [-0.20576725900173187:18.910051345825195] [-0.2619769275188446:15.338726997375488] [-0.040206257253885269:5.9435796737670898] [-0.043957211077213287:6.9476003646850586] [-0.17730453610420227:17.14744758605957] [-2.587916374206543:3.7092015743255615] [-25.085369110107422:0.28181657195091248] [-2.8717365264892578:7.436854362487793] [-0.49705910682678223:12.212394714355469] [-1.44813072681427:2.0568883419036865] [-0.0080183316022157669:-1.1200212643581585e-18] [-2.0417771339416504:1.4604332447052002] [-0.10987446457147598:28.563064575195312] none [-60.928623199462891:0.049190070480108261] [-0.045857470482587814:63.400650024414062] [-0.018823577091097832:30.066677093505859] [-0.0057319486513733864:0] none [-0.044079989194869995:60.074798583984375] [-0.22847536206245422:11.165888786315918] [-0.0084876446053385735:290.36553955078125] [-2.8064870834350586:1.0950819253921509] [-1.0082485675811768:3.1986489295959473] [-0.0023535641375929117:-6.3017989825285802e-19] [-0.060356717556715012:48.631553649902344] [-0.0029685699846595526:0] [-0.0051035857759416103:444.81658935546875] [-0.026758275926113129:61.671180725097656] [-0.098505012691020966:23.456899642944336] [-0.0023535641375929117:0] [-0.1901412159204483:13.162522315979004] [-0.0074783386662602425:54.629764556884766] [-0.03368927538394928:110.86685943603516] none [-3.2605788707733154:3.8673274517059326] [-0.62084448337554932:28.362340927124023] [-0.26968684792518616:43.639316558837891] [-0.18698811531066895:32.909145355224609] [-0.16990472376346588:67.261222839355469] [-0.15642881393432617:38.186660766601562] [-2.2953181266784668:4.6544857025146484] [-1.5485484600067139:6.4302859306335449] none [-3.2651903629302979:1.533252477645874] [-6.337308406829834:1.0508445501327515] [-5.4539484977722168:1.5462254285812378] [-0.88407820463180542:10.623114585876465] [-0.9989967942237854:9.0785131454467773] [-0.91011583805084229:3.4353086948394775] [-1.1210887432098389:7.0524439811706543] [-41.451663970947266:0.52060556411743164] [-0.064686790108680725:35.024196624755859] [-0.05439826101064682:47.13458251953125] [-0.14338818192481995:27.802591323852539] [-0.62137717008590698:24.239736557006836] [-0.59986245632171631:13.872613906860352] [-0.65023612976074219:19.325305938720703] [-0.50635272264480591:27.500911712646484] [-0.68901365995407104:14.980578422546387] [-0.86353951692581177:22.586374282836914] [-0.011602478101849556:356.34323120117188] [-0.25928610563278198:17.579313278198242] [-0.30410915613174438:17.016250610351562] [-0.066486842930316925:8.9200277328491211] [-0.12959569692611694:14.977925300598145] [-0.16888591647148132:21.384008407592773] [-5.8481912612915039:2.6279938220977783] [-29.279010772705078:0.33914187550544739] [-2.5372002124786377:10.895661354064941] [-0.55824744701385498:12.777912139892578] [-1.5205258131027222:2.7054567337036133] [-3.6304876804351807:1.6206966638565063] [-2.9557807445526123:2.6385576725006104] [-1.3101016283035278:7.9043416976928711] [-29.768533706665039:23.907426834106445] [-0.81112539768218994:6.9515461921691895] [-9.5090742111206055:21.717002868652344] [-28.590564727783203:1.7644608020782471] [-0.019863573834300041:17.872377395629883] [-0.015678111463785172:2.5004966259002686] [-0.01179339736700058:61.927761077880859] [-0.37283581495285034:23.323450088500977] [-0.35168349742889404:18.84307861328125] [-0.33666664361953735:15.432256698608398] [-0.086707025766372681:85.161888122558594] [-0.1418096125125885:61.894199371337891] [-0.24454095959663391:77.704048156738281] [-0.0037403176538646221:0.31899836659431458] [-0.089016459882259369:65.971427917480469] [-0.10771233588457108:29.095874786376953] [-0.035020079463720322:6.3390989303588867] [-0.027902638539671898:7.3408241271972656] [-0.12817400693893433:22.311580657958984] [-2.7218799591064453:4.5417914390563965] [-13.949777603149414:0.60944592952728271] [-3.3263194561004639:6.4176383018493652] [-0.52986305952072144:13.169003486633301] [-1.1725115776062012:45.115856170654297] [-1.2193974256515503:14.421823501586914] [-1.4968489408493042:33.568771362304688] [-0.48537406325340271:25.271787643432617] [-0.91185671091079712:6.7607312202453613] [-1.0318452119827271:14.768671035766602] [-0.51452511548995972:24.90577507019043] [-0.929237961769104:8.1597690582275391] [-1.0534666776657104:13.877639770507812] [-6.9669456481933594:4.0814247131347656] [-12.493936538696289:26.208587646484375] [-11.079943656921387:12.680108070373535] [-0.2680303156375885:25.312889099121094] [-0.23688086867332458:56.367759704589844] [-0.42564940452575684:38.436019897460938] [-0.42828598618507385:40.420242309570312] [-0.82070541381835938:26.508172988891602] [-0.92438286542892456:6.7883496284484863] [-1.1499971151351929:14.613358497619629] [-3.5653736591339111:4.0815081596374512] [-3.8012857437133789:2.6573531627655029] [-3.8018758296966553:3.8311069011688232] [-0.54240638017654419:14.062249183654785] [-1.1142557859420776:5.8725118637084961] [-1.1430214643478394:12.378863334655762] [-1.6444079875946045:1.8258247375488281] [-4.6499972343444824:0.91060632467269897] [-3.5660674571990967:1.6295641660690308] [-2.0639357566833496:6.864445686340332] [-0.87553340196609497:16.085289001464844] [-1.0186160802841187:2.1922125816345215] [-1.7145730257034302:1.2192933559417725] [-0.59544986486434937:5.4690680503845215] [-0.025433223694562912:52.047183990478516] none [-0.63908088207244873:3.7027802467346191] [-0.63458824157714844:3.7178471088409424] [-0.63258457183837891:3.4620299339294434] [-0.51818215847015381:4.0703353881835938] [-0.63354390859603882:3.7190954685211182] [-0.63981854915618896:3.7218923568725586] [-0.64005368947982788:3.7039191722869873] none [-0.1142926886677742:22.786294937133789] [-22.786294937133789:0.1142926886677742] none [-0.056071039289236069:46.390010833740234] [-0.02255832776427269:31.844875335693359] [-0.01335445512086153:99.709007263183594] [-0.024415476247668266:51.103038787841797] [-0.031211268156766891:43.491470336914062] [-0.033164501190185547:39.829509735107422] [-0.059747803956270218:22.828588485717773] [-0.032219178974628448:72.389854431152344] [-0.046697244048118591:19.885560989379883] [-0.058129750192165375:23.423860549926758] [-0.033071916550397873:37.480037689208984] [-0.020234346389770508:31.996217727661133] [-0.010161685757339001:58.382957458496094] [-0.040095862001180649:31.366369247436523] [-0.050938591361045837:45.305599212646484] [-0.0055623631924390793:-7.3233417066253099e-19] [-0.14072121679782867:18.567468643188477] [-0.052137911319732666:41.831432342529297] [-0.039074864238500595:62.529685974121094] [-0.0060842055827379227:-8.7947952037199913e-19] [-0.16792884469032288:14.511684417724609] [-0.10432931780815125:22.610744476318359] [-0.034443166106939316:34.768363952636719] [-2.1922125816345215:1.0186160802841187] [-0.97419387102127075:2.4643447399139404] none [-2.9357542991638184:0.9845043420791626] [-0.68860596418380737:4.8086380958557129] [-0.61814373731613159:4.9635100364685059] [-0.22473780810832977:14.635909080505371] none [-2.325549840927124:1.085457444190979] [-0.040717579424381256:28.819459915161133] [-0.11093981564044952:18.256427764892578] [-1.0727174282073975:2.3712582588195801] none [-0.22473780810832977:14.635909080505371] [-0.4599757194519043:7.2496137619018555] [-0.28059491515159607:10.913262367248535] [-0.23812469840049744:14.089811325073242] [-0.13344338536262512:19.014081954956055] [-0.03595883771777153:37.157852172851562] [-0.077664338052272797:31.227659225463867] [-4.6221237182617188:0.66562020778656006] [-0.096233390271663666:23.707963943481445] none [-0.2214905172586441:10.069399833679199] [-0.60707056522369385:3.5334744453430176] [-0.05961497500538826:38.066188812255859] [-0.12143109738826752:18.132638931274414] [-0.16985726356506348:13.134795188903809] [-0.32628288865089417:6.593836784362793] [-0.98631632328033447:2.4823353290557861] [-1.4962955713272095:1.6250391006469727] [-1.0535273551940918:1.9588721990585327] [-0.48647236824035645:4.3719367980957031] [-1.5969594717025757:1.3108063936233521] [-0.049687433987855911:26.527547836303711] none [-0.013875088654458523:11.733386993408203] [-0.0021301568485796452:3.1508989742764072e-19] [-0.4232984185218811:4.9420986175537109] [-0.1082717627286911:17.640710830688477] [-0.19520562887191772:8.9141063690185547] [-0.43182539939880371:4.6346030235290527] [-0.19987353682518005:9.0289983749389648] [-0.46915414929389954:4.3439350128173828] [-0.025202140212059021:66.479393005371094] [-0.01380506157875061:48.211963653564453] [-0.020178044214844704:13.68028450012207] [-0.29868844151496887:6.193793773651123] [-0.066756844520568848:27.169599533081055] [-0.090467877686023712:18.37360954284668] none [-0.010883351787924767:60.937816619873047] [-0.096117578446865082:19.298191070556641] [-0.081846721470355988:18.659610748291016] [-0.052380818873643875:28.98478889465332] [-0.64766377210617065:3.0788540840148926] [-0.061921302229166031:35.611652374267578] [-0.069310992956161499:37.107582092285156] [-0.20745894312858582:10.942721366882324] [-0.069641053676605225:27.327377319335938] [-0.049278553575277328:30.234601974487305] [-0.07534441351890564:23.52888298034668] [-0.011032712645828724:56.314338684082031] [-1.2316470146179199:1.698365330696106] none [-0.56430578231811523:6.6444625854492188] [-0.026657998561859131:40.508296966552734] [-0.83504879474639893:3.1939327716827393] [-1.6633403301239014:1.2885562181472778] [-0.77085006237030029:4.3460359573364258] none [-2.5626089572906494:1.024173378944397] [-0.4512595534324646:5.1727967262268066] [-0.86601018905639648:3.3521828651428223] none [-0.2469559907913208:8.0524368286132812] [-0.027516895905137062:39.593597412109375] [-0.074426449835300446:20.571828842163086] [-0.33694219589233398:8.9566736221313477] [-1.0589380264282227:1.800856351852417] [-0.92020177841186523:2.1933743953704834] [-0.42121362686157227:4.2742652893066406] [-0.62324941158294678:2.948361873626709] none [-0.089365698397159576:19.274129867553711] [-0.19494934380054474:8.904261589050293] [-0.70754015445709229:2.6798164844512939] [-0.21763357520103455:8.1372575759887695] [-0.92128795385360718:2.1237764358520508] [-0.3073139488697052:5.9202456474304199] [-0.17682795226573944:9.9669151306152344] [-0.063532762229442596:29.065423965454102] [-0.03973802924156189:41.794452667236328] [-0.027503553777933121:61.621238708496094] [-1.0847784280776978:1.8780723810195923] none [-0.96595209836959839:3.2534923553466797] [-0.83525902032852173:2.6788425445556641] [-0.38295197486877441:5.1889472007751465] [-0.78264367580413818:2.9588141441345215] [-0.89247775077819824:2.6009571552276611] none [-0.43480134010314941:6.9210147857666016] [-0.42890387773513794:10.547245979309082] [-0.64667069911956787:5.233036994934082] [-0.27791759371757507:8.3708686828613281] [-0.19189558923244476:13.398580551147461] [-0.2104836106300354:11.780669212341309] [-0.31845280528068542:11.173807144165039] [-0.46277207136154175:8.2420415878295898] [-0.48046022653579712:7.1969866752624512] [-0.72596889734268188:2.7795345783233643] [-0.37672638893127441:5.2937421798706055] [-0.41243472695350647:4.3592667579650879] [-0.14467431604862213:12.612286567687988] [-0.63363945484161377:3.1259126663208008] [-0.19877099990844727:9.2973146438598633] [-0.19425208866596222:8.9688434600830078] [-0.064542621374130249:26.496669769287109] [-0.025433223694562912:52.047183990478516] [-1.0734292268753052:36.712329864501953] [-1.1731541156768799:15.600764274597168] [-1.3072717189788818:28.925155639648438] [-0.66535001993179321:20.216110229492188] [-0.91166716814041138:6.0023880004882812] [-1.0421421527862549:13.769534111022949] [-0.71620774269104004:19.950626373291016] [-0.90858888626098633:5.8937458992004395] [-1.0179998874664307:12.947869300842285] [-7.3205399513244629:4.3248538970947266] [-13.037775039672852:27.599725723266602] [-9.9594345092773438:11.192138671875] [-0.27818736433982849:21.723230361938477] [-0.24631845951080322:44.238880157470703] [-0.44051319360733032:42.267341613769531] [-0.42287585139274597:38.736282348632812] [-0.74650293588638306:20.604557037353516] [-0.91894018650054932:6.0157427787780762] [-1.0702807903289795:13.779236793518066] [-3.6332588195800781:3.8441038131713867] [-3.6241471767425537:2.7425024509429932] [-3.8586547374725342:3.6840744018554688] [-0.59002953767776489:12.336814880371094] [-1.0762598514556885:5.915611743927002] [-1.0750683546066284:10.769451141357422] [-1.6614953279495239:1.8220459222793579] [-4.2428579330444336:1.0982476472854614] [-3.3008847236633301:1.7942366600036621] [-1.8557592630386353:6.3311977386474609] [-1.0968620777130127:10.977364540100098] [-1.8696365356445312:15.365401268005371] [-1.8917127847671509:10.137007713317871] [-1.9678851366043091:13.757881164550781] [-1.1080412864685059:15.283496856689453] [-1.4085195064544678:10.05208683013916] [-1.3851557970046997:13.421536445617676] [-1.1519259214401245:15.791985511779785] [-1.4520331621170044:12.092639923095703] [-1.4316983222961426:13.840794563293457] [-14.21455192565918:5.8182888031005859] [-21.15986442565918:13.424590110778809] [-19.590360641479492:7.7069549560546875] [-0.53333085775375366:24.634714126586914] [-0.37832149863243103:51.169578552246094] [-0.38916313648223877:28.893878936767578] [-0.44048967957496643:44.772655487060547] [-1.2238843441009521:15.580719947814941] [-1.4611669778823853:10.151557922363281] [-1.4710812568664551:13.599982261657715] [-6.1357669830322266:6.0267081260681152] [-5.8311471939086914:5.0341067314147949] [-5.8577098846435547:5.9499897956848145] [-1.5770902633666992:19.206296920776367] [-1.6873940229415894:14.715709686279297] [-1.8248567581176758:18.451166152954102] [-4.0719680786132812:2.0662627220153809] [-5.1414623260498047:1.7061090469360352] [-4.8711743354797363:1.9909787178039551] [-2.0520265102386475:5.6666603088378906] [-1.1582976579666138:21.189678192138672] [-4.6144533157348633:0.63769316673278809] [-3.2928135395050049:1.5809988975524902] [-1.2095670700073242:7.9001836776733398] [-0.10605877637863159:20.609624862670898] [-0.075377404689788818:27.314117431640625] [-0.049030482769012451:88.910591125488281] [-0.01723148487508297:58.493240356445312] [-12.47862720489502:1.3133225440979004] [-0.0065831867977976799:175.40721130371094] [-0.082297831773757935:35.103519439697266] [-0.0042966213077306747:431.40362548828125] [-1.3365716934204102:14.771655082702637] [-0.024726022034883499:69.811790466308594] [-0.085594736039638519:107.30513763427734] [-0.33525452017784119:31.396221160888672] [-0.0030289592687040567:7.4954118176485907e-19] none [-1.2095670700073242:7.9001836776733398] [-0.72683155536651611:23.798896789550781] [-0.17093370854854584:26.481805801391602] [-0.12369606643915176:29.226621627807617] [-0.12371858209371567:45.114841461181641] [-1.3379521369934082:11.588316917419434] [-1.3709851503372192:18.146846771240234] [-0.98977029323577881:10.864362716674805] [-0.42934855818748474:16.532630920410156] [-21.195846557617188:17.800411224365234] [-15.312493324279785:8.2962064743041992] [-0.098466828465461731:37.569480895996094] [-0.56928807497024536:9.5895509719848633] [-0.7976650595664978:22.414802551269531] [-0.78072726726531982:9.4966850280761719] [-0.36172330379486084:19.867668151855469] [-0.57165896892547607:9.4930963516235352] [-0.75587034225463867:20.813159942626953] [-0.75718086957931519:9.8701972961425781] [-4.9801664352416992:0.62235486507415771] [-3.450718879699707:1.5632221698760986] [-7.3256497383117676:0.76004964113235474] [-0.9769057035446167:6.8295373916625977] [-3.2647690773010254:2.0476222038269043] [-6.7920942306518555:1.3487366437911987] [-3.4115481376647949:2.0763804912567139] [-4.0014424324035645:1.3894249200820923] [-1.3923122882843018:4.2056260108947754] [-8.3901834487915039:31.494167327880859] [-1.57276451587677:10.948050498962402] [-1.2561416625976562:13.827846527099609] [-1.296331524848938:12.179961204528809] [-0.71673285961151123:21.762237548828125] [-1.4083950519561768:7.0060892105102539] [-2.3241076469421387:10.245955467224121] [-2.0460991859436035:6.8043117523193359] [-2.0667979717254639:7.3954248428344727] [-0.57670927047729492:28.109212875366211] [-0.12766417860984802:104.45053863525391] [-2.2039408683776855:16.486177444458008] [-1.2763066291809082:52.089439392089844] [-1.1487185955047607:31.842763900756836] [-0.4901270866394043:59.459793090820312] [-0.11997704952955246:102.24186706542969] [-1.5252623558044434:17.708032608032227] [-0.97345638275146484:34.84197998046875] [-1.1661044359207153:23.965059280395508] [-0.43307963013648987:46.206981658935547] [-0.017516832798719406:-3.0191722194861393e-18] [-0.439983069896698:39.495784759521484] [-0.29385140538215637:44.343219757080078] [-0.27744844555854797:67.515190124511719] [-0.17737008631229401:36.134975433349609] [-0.17565141618251801:63.039108276367188] [-1.1667088270187378:32.539585113525391] [-0.81534469127655029:41.162750244140625] [-0.54793262481689453:37.166316986083984] [-0.34526467323303223:42.377174377441406] [-0.33133286237716675:32.681766510009766] [-1.5733609199523926:10.27973461151123] [-1.3188480138778687:13.61259937286377] [-1.2760156393051147:10.404315948486328] [-0.7577018141746521:18.59333610534668] [-0.42134836316108704:100.84516906738281] [-1.7689601182937622:16.965154647827148] [-1.4107940196990967:38.62872314453125] [-1.2200487852096558:22.639993667602539] [-0.46915197372436523:40.201824188232422] [-0.061866726726293564:140.72581481933594] [-1.1319385766983032:16.257997512817383] [-0.88858550786972046:42.681694030761719] [-1.1720365285873413:22.957263946533203] [-0.3145773708820343:42.134754180908203] [-8.6583213806152344:32.193866729736328] [-1.56236732006073:11.46686840057373] [-1.2524062395095825:13.786818504333496] [-1.2960876226425171:12.217382431030273] [-0.71262234449386597:21.974079132080078] [-8.3966798782348633:31.898200988769531] [-1.5719796419143677:11.032593727111816] [-1.2549598217010498:13.861205101013184] [-1.3002111911773682:12.171648979187012] [-0.71708822250366211:21.651664733886719] [-8.3966217041015625:31.897922515869141] [-1.5721416473388672:11.032271385192871] [-1.2550191879272461:13.860947608947754] [-1.3001173734664917:12.168407440185547] [-0.71712785959243774:21.651678085327148] [-0.15911896526813507:85.209678649902344] [-2.4639594554901123:16.048896789550781] [-1.4399454593658447:39.180793762207031] [-1.1807234287261963:12.611010551452637] [-0.65817439556121826:62.187004089355469] [-0.18000394105911255:53.454811096191406] [-1.2058353424072266:21.127883911132812] [-0.77991366386413574:22.290458679199219] [-0.93587470054626465:22.025829315185547] [-0.42834916710853577:40.142490386962891] [-0.019133804365992546:2.5407332279321526e-18] [-0.61715984344482422:31.147499084472656] [-0.34746849536895752:23.707107543945312] [-0.3173365592956543:33.228965759277344] [-0.20760709047317505:51.791324615478516] [-0.27083894610404968:38.095619201660156] [-1.2233585119247437:21.311399459838867] [-0.91155588626861572:22.847738265991211] [-0.62659591436386108:23.779802322387695] [-0.53353011608123779:41.505241394042969] [-0.69175750017166138:16.714727401733398] [-1.4154366254806519:8.0685272216796875] [-1.4173610210418701:7.2183170318603516] [-1.0869792699813843:7.9367365837097168] [-0.86949795484542847:9.3384237289428711] none [-0.222638338804245:24.953529357910156] [-0.1794067919254303:27.797405242919922] [-0.17400749027729034:30.243492126464844] [-0.16942477226257324:31.829326629638672] none [-0.061442118138074875:4.526648998260498] [-0.024674220010638237:0.58961164951324463] [-0.022571783512830734:0.29487958550453186] [-0.019494304433465004:4.6229403899914606e-18] [-17.137252807617188:0.58607131242752075] [-2.0636248588562012:3.4553995132446289] [-0.68448394536972046:9.4816827774047852] [-0.015914371237158775:2.1305941259663631e-18] [-0.015931293368339539:0] [-0.016034139320254326:2.1305947463518225e-18] [-0.54209941625595093:16.028253555297852] [-0.47757464647293091:14.064699172973633] [-0.61835950613021851:9.985987663269043] [-0.024317465722560883:0] [-0.024120938032865524:0] [-0.024213686585426331:0] [-0.023577747866511345:0] [-0.023630945011973381:0] [-0.02375519834458828:-1.0318443694069192e-17] [-0.13366428017616272:30.769552230834961] [-0.13457819819450378:26.25715446472168] [-0.13467274606227875:30.769130706787109] [-0.22297579050064087:37.052303314208984] [-0.16130279004573822:85.507064819335938] [-0.28431355953216553:29.861404418945312] none none none [-2.0171594619750977:4.7296714782714844]
tree_sizes=3082 3122 3142 3085 3207 3113 3108 3139 3114 3145 3154 3169 3166 3212 3151 3151 3186 3214 3202 3105 3194 3183 3222 3148 3192 3120 3176 3240 3288 3210 3206 3246 3201 3251 3236 3247 3234 3155 3187 3200 3236 3206 3204 3203 3198 3234 3161 3226 3186 3205 3201 3223 3207 3195 3183 3147 3213 3242 3258 3193 3224 3199 3257 3211 3230 3183 3135 3197 3212 3269 3145 3178 3198 3203 3231 3218 3176 3192 3247 3248 3200 3170 3134 3188 3234 3205 3178 3161 3247 3199 3187 3235 3237 3227 3196 3173 3224 3245 3255 3267

Tree=0
num_leaves=31
num_cat=0
split_feature=32 33 33 262 555 253 596 605 345 572 614 33 612 287 76 577 635 459 253 388 273 10 446 336 647 32 691 324 319 242
split_gain=9.78049 5.68035 4.69455 3.27662 3.06007 2.9943 2.99823 2.90053 2.78349 3.15989 2.70969 2.8584 2.84749 2.7 2.53676 2.5 2.44792 2.3497 3.74401 2.34966 2.52083 2.34807 2.27907 2.17778 2.16676 2.14739 2.46025 2.54716 2.36083 2.34905
threshold=-0.74041396379470814 -2.445900440216064 -1.6072661280632017 -0.2208893224596977 -0.83611348271369923 0.48803249001502996 0.52113744616508495 1.0000000180025095e-35 -8.81300184119134e-06 1.4791231751441958 -0.042100699618458741 -1.5316967964172361 0.61792221665382396 -0.23627580702304837 -0.22171606123447415 -0.24389040470123288 -0.79106229543685902 1.094162702560425 0.70102757215499889 -0.36286523938179011 0.60505440831184398 -0.064154718071222291 7.3685412406921396 -0.28693901002407068 -2.8401682376861568 0.40743191540241247 0.46978813409805303 -0.15733008831739423 -0.59540143609046925 -0.12352577224373816
decision_type=2 2 2 2 2 2 2 2 2 2 2 2 2 2 2 2 2 2 2 2 2 2 2 2 2 2 2 2 2 2
left_child=1 3 5 -1 14 -2 25 8 17 10 11 12 -10 -5 -3 -12 23 19 -19 20 -6 -9 -4 -16 -13 26 27 -7 -27 -29
right_child=2 4 22 13 7 6 -8 21 9 -11 15 24 -14 -15 16 -17 -18 18 -20 -21 -22 -23 -24 -25 -26 28 -28 29 -30 -31
leaf_value=0.080753408719192857 0.078935226914557538 0.071662499696016319 0.076856393322874153 0.071662499696016319 0.09041249955631793 0.083427205490715362 0.17166249895095825 0.076854807349638302 0.08416249960288405 0.15348068090460518 0.088329166238506632 0.17166249895095825 0.1625715899277817 0.16166249902546406 0.071662499696016319 0.17166249895095825 0.097978288973632616 0.078329166313012441 0.15023392768204213 0.080753408719192857 0.15916249904409052 0.08567082136695825 0.12721805483765072 0.16499583233396214 0.085575543070616933 0.17166249895095825 0.17166249895095825 0.13984431736984038 0.081831991145671426 0.09916249949112535
leaf_weight=10.999999999999998 220 12.999999999999998 5699 4.0000000000000027 16.000000000000004 51 4.9999999999999991 520 8.0000000000000018 10.999999999999998 5.9999999999999991 2.9999999999999991 10.999999999999998 20 3.0000000000000027 8.9999999999999982 19.000000000000004 15.000000000000002 13.999999999999998 286 7.9999999999999991 721 8.9999999999999982 14.999999999999995 115 2.9999999999999991 4.9999999999999991 22 118 40
leaf_count=11 220 13 5699 4 16 51 5 520 8 11 6 3 11 20 3 9 19 15 14 286 8 721 9 15 115 3 5 22 118 40
internal_value=0.079625 0.0860498 0.0777221 0.125948 0.085271 0.0873953 0.0950232 0.0845713 0.0909852 0.101724 0.0979783 0.0935603 0.129557 0.146662 0.109662 0.138329 0.123014 0.0858218 0.113042 0.0832754 0.113329 0.0819768 0.0769358 0.14944 0.0877642 0.0934198 0.103018 0.0999811 0.0840592 0.113598
internal_weight=8000 1828 6172 35 1793 464 244 1743 502 163 152 137 19 24 50 15 37 339 29 310 24 1241 5708 18 118 239 118 113 121 62
internal_count=8000 1828 6172 35 1793 464 244 1743 502 163 152 137 19 24 50 15 37 339 29 310 24 1241 5708 18 118 239 118 113 121 62
is_linear=0
shrinkage=1


Tree=1
num_leaves=31
num_cat=0
split_feature=32 33 33 1 593 644 246 367 32 383 262 664 33 565 345 622 247 630 245 330 244 311 259 365 314 510 398 632 263 13
split_gain=7.9222 4.60108 3.80259 2.8036 3.2802 3.0325 2.75684 2.72489 3.34626 2.688 2.65406 2.63077 2.58169 2.48832 2.35223 2.24581 2.31729 2.39416 2.23706 2.2176 2.19495 2.18729 2.17143 2.21323 2.41879 2.25004 2.13711 1.95381 2.62867 2.59011
threshold=-0.74041396379470814 -2.445900440216064 -1.6072661280632017 1.0000000180025095e-35 -0.39237461984157557 -0.5249824821949004 -0.01888968143612146 -0.89709290862083424 -2.2665612697601314 0.45719677209854132 -0.2208893224596977 -1.6526211500167844 -1.5006828308105467 0.22647206485271457 0.073447320610284819 0.78693079948425304 0.8895641863346101 -1.0000000180025095e-35 -1.1974794268608091 7.9134492874145517 2.4526280164718632 -0.88314580917358387 0.72204345464706432 -0.27679669857025141 -0.50998935103416432 1.1722542047500613 0.97318270802497875 -0.11366046220064162 -1.0000000180025095e-35 1.6154562234878542
decision_type=2 2 2 2 2 2 2 2 2 2 2 2 2 2 2 2 2 2 2 2 2 2 2 2 2 2 2 2 2 2
left_child=1 10 11 4 6 7 -3 -6 -9 26 -1 15 20 -12 -14 16 17 -2 -13 27 22 -10 23 24 -5 -26 -8 -7 29 -29
right_child=2 3 -4 12 5 19 9 8 21 -11 13 18 14 -15 -16 -17 -18 -19 -20 -21 -22 -23 -24 -25 25 -27 -28 28 -30 -31
leaf_value=0.0010155684568665245 0.077307529374957079 0.0030827447772026062 -0.0024202789542198018 0.089993250370025646 0.06932522051713684 -0.003307873362658221 0.019509123506084566 0.046133273377500734 0.070429359972476957 0.080934066272207672 0.074733748286962498 0.071239450722932821 0.0005006540900290902 -0.011666250228881837 0.08917258779207865 -0.0084748106449842459 -0.008353789647420248 -0.0082230795174837047 0.0039546090534350658 0.089444728692372646 0.089391855895519262 0.0020908206600595168 0.086282242834568035 -0.0062201757417168733 0.011995889682252452 0.089775379002094272 0.089962078332900999 0.0013541018642071222 0.035759961999514527 0.049710004155834514
leaf_weight=10.999999999999998 18.000000000000004 25 5708 4.9999999999999991 10.999999999999998 218 31 29 4.9999999999999991 13.999999999999998 20.000000000000004 4.9999999999999991 1072 3.9999999999999991 2.9999999999999991 9.9999999999999982 5.9999999999999991 4.0000000000000027 421 2.9999999999999991 3.9999999999999991 74 3.9999999999999991 43 53 3.9999999999999991 4.9999999999999991 144 34 11.999999999999998
leaf_count=11 18 25 5708 5 11 218 31 29 5 14 20 5 1072 4 3 10 6 4 421 3 4 74 4 43 53 4 5 144 34 12
internal_value=3.19351e-10 0.00578233 -0.00171259 0.00508138 0.0106225 0.0078526 0.0301965 0.0219102 0.0170809 0.0437534 0.0416909 0.00699323 0.00225951 0.0603337 0.000748111 0.0322045 0.0467329 0.0617565 0.00474434 0.0037824 0.0166379 0.00641604 0.013968 0.0112132 0.023304 0.0174541 0.0292943 0.00315253 0.010565 0.00507379
internal_weight=8000 1828 6172 1793 605 530 75 119 108 50 35 464 1188 24 1075 38 28 22 426 411 113 79 109 105 62 57 36 408 190 156
internal_count=8000 1828 6172 1793 605 530 75 119 108 50 35 464 1188 24 1075 38 28 22 426 411 113 79 109 105 62 57 36 408 190 156
is_linear=0
shrinkage=0.1


Tree=2
num_leaves=31
num_cat=0
split_feature=32 33 11 662 37 389 572 581 665 575 146 520 226 32 33 261 650 377 461 428 357 244 275 564 572 664 434 553 424 469
split_gain=7.07823 6.34867 2.46943 2.38199 2.65949 2.88603 2.62565 2.60985 2.53046 2.75586 2.23748 2.92221 2.2713 2.69886 2.13743 2.5572 2.08973 2.14895 2.03371 2.08702 1.99014 2.20959 1.98339 2.26186 1.88664 2.48893 2.07297 2.81234 1.84873 1.98326
threshold=0.41526672244071966 -1.1845307946205137 0.38437475264072424 -0.75284963846206654 -1.8062171339988706 0.24489015340805056 -0.4156810194253921 -1.5251533389091489 -0.57199758291244496 0.10442346334457399 1.0000000180025095e-35 1.5164713859558108 1.0000000180025095e-35 -0.80780664086341847 -2.0728527307510372 -0.15977109968662259 4.1980106830596933 -0.28642530739307398 0.71082463860511791 0.78012949228286754 -1.0000000180025095e-35 2.7814861536026005 0.13026680052280429 -0.093054693192243562 1.0000000180025095e-35 -2.0095008611679073 -1.1022166609764097 -0.15789406746625897 3.9424155950546269 1.9187399148941042
decision_type=2 2 2 2 2 2 2 2 2 2 2 2 2 2 2 2 2 2 2 2 2 2 2 2 2 2 2 2 2 2
left_child=1 3 16 6 5 -5 8 22 -1 -10 12 18 20 -14 15 -8 -3 -18 19 -12 -4 24 23 -6 25 -22 27 -27 29 -9
right_child=-2 2 10 4 7 -7 14 28 9 -11 11 -13 13 -15 -16 -17 17 -19 -20 -21 21 -23 -24 -25 -26 26 -28 -29 -30 -31
leaf_value=0.070403252169489866 -0.0033362080384337096 -0.0010892579924582429 -0.00050631952703378768 0.086739857329262593 0.076135971716472073 0.010383015667850321 -0.0086276749769846547 0.0040033823043658752 0.0020615547457162068 0.086517540216445921 0.0027085982814983086 0.092146074771881109 0.077010171280966835 0.0068212502769061508 0.0031362325234233208 0.072530954805287456 0.090894058942794786 -0.0074436113238334671 0.034729318211183829 0.087646261850992835 0.091088138520717621 0.063484737915652137 0.001642756015062332 -0.0091299392282962726 5.218983386401777e-05 0.064876767527312029 0.0080279619028826923 0.0046056871612866722 0.066516379415988924 0.032882951825857168
leaf_weight=20 3543 2370 785 9.0000000000000018 14.000000000000002 10.999999999999998 6.0000000000000027 487 17.000000000000004 4.9999999999999991 81 4.9999999999999991 9.0000000000000018 13.999999999999998 53 10.999999999999998 5 3.9999999999999982 34 2.9999999999999991 3.9999999999999991 6.9999999999999991 9.9999999999999982 4.0000000000000027 216 16.000000000000004 212 14.999999999999998 4.9999999999999991 25
leaf_count=20 3543 2370 785 9 14 11 6 487 17 5 81 5 9 14 53 11 5 4 34 3 4 7 10 4 216 16 212 15 5 25
internal_value=4.25614e-11 0.00265205 0.00105482 0.0115701 0.00892918 0.0447436 0.0248928 0.00761489 0.0446595 0.0212561 0.00438548 0.0172672 0.00314569 0.0342865 0.0130328 0.0438867 -0.000906619 0.0471884 0.0140943 0.00574209 0.00257498 0.0077214 0.0373504 0.057188 0.00687833 0.0128477 0.0115598 0.0357133 0.00600445 0.00541352
internal_weight=8000 4457 3780 677 565 20 112 545 42 22 1401 123 1278 23 70 17 2379 9 118 84 1255 470 28 18 463 247 243 31 517 512
internal_count=8000 4457 3780 677 565 20 112 545 42 22 1401 123 1278 23 70 17 2379 9 118 84 1255 470 28 18 463 247 243 31 517 512
is_linear=0
shrinkage=0.1


Tree=3
num_leaves=31
num_cat=0
split_feature=32 33 1 32 390 632 373 640 10 551 334 618 556 34 580 293 124 509 33 435 0 11 572 273 81 180 12 636 286 8
split_gain=5.73337 5.14242 2.27523 2.89857 2.05289 2.67712 2.63484 2.24162 1.95827 2.34554 1.95471 1.95221 2.24144 2.00381 1.93644 2.27357 2.25679 2.16415 2.10074 2.43577 2.18692 1.93554 1.89877 2.39003 2.34181 1.94979 1.88847 2.17366 1.85374 3.00063
threshold=0.41526672244071966 -1.1845307946205137 1.0000000180025095e-35 -2.2665612697601314 0.70500704646110546 -0.038942981511354439 -0.13270280510187146 -0.20837704092264173 0.54822173714637767 3.4160922765731816 3.4219242334365849 -1.0000000180025095e-35 -0.40590226650238032 -0.94475847482681263 -0.95734897255897511 3.3959782123565678 1.0000000180025095e-35 0.55017563700675975 -2.2355549335479732 -0.28867419064044947 1.0945714712142947 0.91000387072563182 -0.4156810194253921 0.72565507888793956 -0.64180064201354969 1.0000000180025095e-35 -0.56851789355278004 0.63592535257339489 0.69465771317482006 -0.2411016300320625
decision_type=2 2 2 2 2 2 2 2 2 2 2 2 2 2 2 2 2 2 2 2 2 2 2 2 2 2 2 2 2 2
left_child=1 14 3 11 -5 10 7 -7 -4 -10 -6 -3 13 -13 16 18 -1 -17 19 -16 -21 -14 23 28 -25 -24 -26 -28 -20 -30
right_child=-2 2 8 4 5 6 -8 -9 9 -11 -12 12 21 -15 15 17 -18 -19 22 20 -22 -23 25 24 26 -27 27 -29 29 -31
leaf_value=0.0014736146666109559 -0.003002587254147324 0.0011274845787772427 -0.0026824438373996874 0.0013780272934796676 0.0045492985728361928 0.016640726756304496 0.0093464500137737817 0.082997242840273044 0.0029094377537389649 0.071620638370513912 0.086123478412628185 -0.011076689139008514 0.0024195422841743986 0.065609425403501676 0.0064638793834897335 0.0754508166015148 0.071277682144533491 0.0029539908681597031 -0.0025130191743373874 0.027336934734793275 0.083572702109813699 0.088044210275014245 0.0010877711161011074 0.075086725130677226 0.087677367031574249 0.082043939828872689 0.0088827470317482948 0.086197532713413239 0.0013072425389991085 0.068336476995186371
leaf_weight=8 3543 27 1724 1007 141 8.0000000000000018 21 13.999999999999998 778 4.9999999999999991 2.9999999999999991 4.0000000000000027 22.000000000000004 23 61 10.000000000000002 11 6.9999999999999991 75 51 7.9999999999999991 2.9999999999999991 357 9.9999999999999982 3.9999999999999991 2.9999999999999991 40 3.9999999999999991 17.000000000000004 10.999999999999998
leaf_count=8 3543 27 1724 1007 141 8 21 14 778 5 3 4 22 23 61 10 11 7 75 51 8 3 357 10 4 3 40 4 17 11
internal_value=6.59376e-11 0.00238684 0.000949335 0.00439228 0.00316487 0.0127871 0.0346829 0.0588676 -0.000798918 0.00334821 0.00624876 0.0229432 0.0342706 0.0542485 0.0104131 0.00950431 0.0418865 0.0455992 0.00854704 0.0204755 0.0349621 0.0126945 0.0057996 0.0148269 0.0310634 0.00176241 0.0218919 0.0159114 0.00568396 0.0276402
internal_weight=8000 4457 3780 1273 1194 187 43 22 2507 783 144 79 52 27 677 658 19 17 641 120 59 25 521 161 58 360 48 44 103 28
internal_count=8000 4457 3780 1273 1194 187 43 22 2507 783 144 79 52 27 677 658 19 17 641 120 59 25 521 161 58 360 48 44 103 28
is_linear=0
shrinkage=0.1


Tree=4
num_leaves=31
num_cat=0
split_feature=32 33 31 634 555 669 486 581 638 693 33 637 262 287 376 650 11 226 691 387 616 256 460 76 635 367 496 631 625 645
split_gain=4.87301 2.84821 2.46135 2.17706 2.11572 2.00895 1.92951 3.88045 2.15831 2.05026 1.89738 1.8678 1.85255 1.84299 1.81867 1.80024 1.82929 3.00399 1.81045 2.44222 1.91122 2.43769 1.84912 1.79831 1.8696 1.77974 1.76676 1.865 1.70561 1.70289
threshold=-0.74041396379470814 -2.445900440216064 -1.6009082198143003 -0.99418544769287098 -0.83611348271369923 6.2168219089508066 -0.14514851570129392 1.2779460549354555 -2.8453137874603267 -1.1021615266799925 0.33286856114864355 0.61065417528152477 -0.2208893224596977 -0.23627580702304837 -0.079780533909797655 4.1980106830596933 0.3923246711492539 1.0000000180025095e-35 0.53230243921279918 0.55748915672302257 0.29666751623153692 -0.0021379975369200106 1.810283958911896 -0.22171606123447415 -0.79106229543685902 -0.10033398121595381 2.2290918827056889 -0.060554556548595422 24.073573112487797 -0.3874943852424621
decision_type=2 2 2 2 2 2 2 2 2 2 2 2 2 2 2 2 2 2 2 2 2 2 2 2 2 2 2 2 2 2
left_child=1 12 3 25 23 15 -5 8 -8 -10 28 -11 -1 -14 -13 16 26 18 20 -20 -18 -22 -23 -3 29 -2 -6 -28 -4 -25
right_child=2 4 10 6 5 -7 7 -9 9 11 -12 14 13 -15 -16 -17 17 -19 19 -21 21 22 -24 24 -26 -27 27 -29 -30 -31
leaf_value=-0.0011955611407756805 0.018877790048718451 -0.0077294498108900524 -0.0005676349736132675 -0.0026336751254321319 -0.00032405516143821584 0.085163456201553356 0.092863641182581586 0.090089708566665649 0.089586756626764935 0.0045658280264656501 -0.0042946707982392538 -0.0077656646569569865 -0.013601366430521001 0.060755681470036509 0.090720812082290658 0.063178467303514493 0.0043431588051936554 0.061473018154501916 -0.008613837616784227 0.066944657740267852 -0.0010731808220346766 0.07932790571993048 -0.0092427258690198268 0.0723566311597824 0.013627233826800395 0.09194770097732545 0.013128561937603459 0.079257926940917975 0.091805186867713939 -0.01017551496624948
leaf_weight=10.999999999999998 9.9999999999999982 12.999999999999998 3620 203 1006 2.9999999999999991 2.9999999999999991 5.9999999999999991 2.9999999999999991 212 2100 3.0000000000000009 4.0000000000000027 20 4.9999999999999991 4.9999999999999991 641 9.9999999999999982 7.0000000000000027 10.999999999999998 12.000000000000002 10.999999999999998 2.9999999999999991 15.000000000000002 19.000000000000004 4.9999999999999991 29 4.9999999999999991 1.9999999999999989 2.9999999999999956
leaf_count=11 10 13 3620 203 1006 3 3 6 3 212 2100 3 4 20 5 5 641 10 7 11 12 11 3 15 19 5 29 5 2 3
internal_value=1.39512e-10 0.00453501 -0.00134316 0.00577785 0.00398352 0.00340172 0.00448624 0.0107162 0.00860891 0.00747544 -0.00190319 0.00635574 0.0327873 0.0483628 0.0537884 0.00326075 0.00308807 0.00706013 0.00626578 0.0375608 0.00542124 0.032 0.0603485 0.0242652 0.0355065 0.0432344 0.000433672 0.0228535 -0.000516628 0.0586013
internal_weight=8000 1828 6172 450 1793 1743 435 232 226 223 5722 220 35 24 8 1740 1735 695 685 18 667 26 14 50 37 15 1040 34 3622 18
internal_count=8000 1828 6172 450 1793 1743 435 232 226 223 5722 220 35 24 8 1740 1735 695 685 18 667 26 14 50 37 15 1040 34 3622 18
is_linear=0
shrinkage=0.1


Tree=5
num_leaves=31
num_cat=0
split_feature=33 32 1 32 633 569 758 664 107 362 33 640 503 470 622 544 263 32 299 620 244 688 503 543 388 379 287 527 249 246
split_gain=4.31229 2.96508 2.50948 2.37116 2.14416 1.99892 1.98216 1.96434 1.87815 1.8721 1.95316 1.85845 2.47672 1.81813 1.73969 1.71043 2.81751 1.67573 2.58558 1.7182 1.6919 1.66421 2.09395 2.18486 1.66377 1.6484 1.63267 2.18377 1.88354 1.88515
threshold=-1.5316967964172361 0.076248422265052809 1.0000000180025095e-35 -2.2665612697601314 4.4364874362945566 -0.94543999433517445 10.117510318756105 -1.8130533099174497 -0.72498033940792073 -1.1137902140617368 1.1557297706604006 -0.5267171561717986 -1.0000000180025095e-35 14.682547092437746 0.78693079948425304 1.0000000180025095e-35 0.015940191689878706 0.40743191540241247 2.3104951381683354 2.8810466527938847 -0.87487533688545216 1.8036254644393923 1.0000000180025095e-35 0.35570913553237921 0.54580479860305797 -0.77962037920951832 -0.60668107867240895 0.38593566417694097 0.26870758831501013 -1.0457907915115354
decision_type=2 2 2 2 2 2 2 2 2 2 2 2 2 2 2 2 2 2 2 2 2 2 2 2 2 2 2 2 2 2
left_child=7 2 3 11 5 8 21 14 -5 10 -4 25 -13 -3 24 16 17 18 26 -19 -20 -7 23 -23 -1 -2 27 28 -9 -30
right_child=1 13 9 4 -6 6 -8 15 -10 -11 -12 12 -14 -15 -16 -17 -18 19 20 -21 -22 22 -24 -25 -26 -27 -28 -29 29 -31
leaf_value=-0.01062050580978393 0.023415987690289811 -0.0024808226332944986 0.08678721547126772 -0.0082764538004994389 0.088688208659489953 0.0024772582260332581 0.084653707345326748 -0.010108703449368477 0.077621349266597223 -0.00059059103238039937 -0.0069635936990380277 0.0027018552646040916 0.051907098579865245 0.092886507511138916 -0.0034164600695172943 -0.0044033356362909786 0.063951962027284842 -0.00030368176244554066 -0.01006488218903541 0.092824345827102667 0.054661120013112123 -0.0039411097764968858 0.070477892272174367 0.088622802495956429 0.052789073996245862 0.080030602878994425 0.0061188525531052623 0.048565105154462489 -0.010131409764289855 0.078495764732360862
leaf_weight=5.0000000000000027 12.000000000000002 4250 4.9999999999999982 4 2.9999999999999991 886 2.9999999999999991 20.000000000000004 6.9999999999999982 1999 4 48 12.999999999999998 1.9999999999999989 11.999999999999998 127 8.9999999999999982 210 5.0000000000000027 1.9999999999999989 21 17.000000000000007 7.9999999999999991 2.9999999999999991 24 8.9999999999999982 259 23 4 5.9999999999999982
leaf_count=5 12 4250 5 4 3 886 3 20 7 1999 4 48 13 2 12 127 9 210 5 2 21 17 8 3 24 9 259 23 4 6
internal_value=1.21072e-12 -0.00073404 0.00166139 0.00571921 0.00428337 0.0040105 0.00350219 0.00734343 0.0463858 -0.000385712 0.0451202 0.0220213 0.0131882 -0.00243596 0.0286058 0.00607264 0.0084527 0.00754453 0.011916 0.000574885 0.0422138 0.00323582 0.027239 0.00994348 0.0418564 0.0476794 0.0093912 0.0253825 0.00760916 0.0430449
internal_weight=8000 7273 3021 1013 931 928 917 727 11 2008 9 82 61 4252 41 686 559 550 338 212 26 914 28 20 29 21 312 53 30 10
internal_count=8000 7273 3021 1013 931 928 917 727 11 2008 9 82 61 4252 41 686 559 550 338 212 26 914 28 20 29 21 312 53 30 10
is_linear=0
shrinkage=0.1


Tree=6
num_leaves=31
num_cat=0
split_feature=33 32 630 275 770 391 32 506 12 323 616 364 451 613 635 554 83 386 643 528 721 692 616 251 612 31 12 642 246 384
split_gain=3.64318 2.91541 2.19673 2.19052 2.60221 2.32971 2.04007 2.07526 1.84374 2.02478 1.73657 1.71507 1.66937 1.66468 1.62118 2.29507 2.15314 1.92217 1.73212 2.55897 1.86346 1.66661 1.645 2.0127 1.64349 1.6145 1.5948 1.83407 1.7923 1.57658
threshold=-2.2355549335479732 0.41526672244071966 -0.15707132965326306 1.0000000180025095e-35 1.9452964663505556 5.7163827419281015 -0.56830003857612599 2.3811851739883427 -1.4822864532470701 0.022411976940929893 0.033278564922511585 1.2873989343643191 -2.3758264780044551 -1.1883816123008726 -0.74043607711791981 -0.38854086399078364 1.0000000180025095e-35 0.0096516045741736906 -0.33908182382583613 1.9118759632110598 1.0000000180025095e-35 -1.6037193536758421 0.29666751623153692 -0.50414100289344776 0.80003321170806896 0.16714312881231311 0.86262264847755443 -0.67803561687469471 1.2006335258483889 8.1950607299804705
decision_type=2 2 2 2 2 2 2 2 2 2 2 2 2 2 2 2 2 2 2 2 2 2 2 2 2 2 2 2 2 2
left_child=2 3 -1 4 5 13 10 8 -8 12 -4 -11 -10 -2 15 16 -15 -18 19 20 -17 26 -23 -24 -25 -7 27 -16 -28 -20
right_child=1 -3 6 -5 -6 25 7 -9 9 11 -12 -13 -14 14 21 18 17 -19 29 -21 -22 22 23 24 -26 -27 28 -29 -30 -31
leaf_value=-0.0001633749841010734 0.077462653319040939 -0.002492250646279762 0.054636732323302163 -0.001058442165004278 0.060394044034183025 0.083147420485814416 0.085049502054850262 0.065118005978209645 0.05734404269605875 0.053547639571703387 0.0075000340288335632 -0.011087849239508313 -0.0097923049330711359 -0.0038577311113476755 0.083439618349075317 0.0066631131470203404 0.051613647416234025 0.014465016255585049 0.00068851219954100694 0.066408567205071448 0.087806429465611791 0.00065624959775138607 0.08565323352813721 0.0085950560606362532 0.084533359607060765 0.014525472745299341 0.070984496772289282 0.0017735178949254934 -0.0082181403413414955 0.063934489712119111
leaf_weight=73 2.9999999999999991 3478 27 1976 7.9999999999999991 5.9999999999999991 2.9999999999999991 6.9999999999999991 3.9999999999999991 13.000000000000002 10.999999999999998 5.9999999999999991 50 20 2.9999999999999991 50 30 26 269 9.9999999999999982 2.9999999999999991 1801 3.9999999999999991 57 2.9999999999999991 7.9999999999999991 9.9999999999999982 33 3.9999999999999991 3.9999999999999991
leaf_count=73 3 3478 27 1976 8 6 3 7 4 13 11 6 50 20 3 50 30 26 269 10 3 1801 4 57 3 8 10 33 4 4
internal_value=3.53437e-11 -0.00033642 0.0135366 0.00139602 0.00345809 0.00326377 0.0218018 0.013016 0.00821713 0.00505963 0.0409919 0.0331364 -0.00481924 0.0030194 0.00292342 0.00861397 0.0243072 0.0343661 0.00506431 0.0200105 0.0112561 0.00169914 0.00121611 0.0169708 0.012392 0.0439349 0.0197163 0.00857903 0.0483552 0.00161519
internal_weight=8000 7806 194 4328 2352 2344 121 83 76 73 38 19 54 2330 2327 412 76 56 336 63 53 1915 1865 64 60 14 50 36 14 273
internal_count=8000 7806 194 4328 2352 2344 121 83 76 73 38 19 54 2330 2327 412 76 56 336 63 53 1915 1865 64 60 14 50 36 14 273
is_linear=0
shrinkage=0.1


Tree=7
num_leaves=31
num_cat=0
split_feature=33 32 446 12 648 656 242 45 474 372 669 383 662 552 339 650 13 634 580 322 321 424 590 506 257 432 160 226 341 13
split_gain=3.18722 1.97296 2.0077 1.70747 1.70353 1.7812 1.63921 1.77106 1.95271 1.67488 1.6147 1.61217 2.14981 2.02403 1.78749 1.60978 2.13781 1.94542 1.48612 1.39132 1.38329 1.35556 1.33384 1.78235 1.94934 1.28222 1.53851 1.25235 1.26605 1.24244
threshold=-1.1845307946205137 -0.78706693649291981 7.3685412406921396 -1.0000000180025095e-35 1.1517828702926638 1.4440183639526369 -0.1238664537668228 -0.19748549163341519 3.5188341140747075 -0.70145872235298146 6.2168219089508066 -0.36351829767227167 -1.1718517541885374 0.17820912599563601 0.24532809853553775 -0.93913260102272023 -0.22133353352546689 -0.26214292645454401 6.8173367977142343 1.0000000180025095e-35 -0.60225436091423024 9.8815236091613787 -2.8098298311233516 0.70232099294662487 -0.28500238060951227 0.96465599536895763 1.0000000180025095e-35 1.0000000180025095e-35 -0.36247746646404261 -0.34151282906532282
decision_type=2 2 2 2 2 2 2 2 2 2 2 2 2 2 2 2 2 2 2 2 2 2 2 2 2 2 2 2 2 2
left_child=11 4 15 -4 10 6 7 20 -9 -8 18 12 13 14 -1 16 -3 -18 22 -19 -6 -13 23 24 -2 -11 -27 28 -22 -14
right_child=1 2 3 -5 5 -7 9 8 -10 25 -12 21 29 -15 -16 -17 17 19 -20 -21 27 -23 -24 -25 -26 26 -28 -29 -30 -31
leaf_value=0.065503240211142427 0.0041545855502287546 -0.0065938504269489858 -0.011259160687526061 0.084168895483016981 0.080769429604212448 0.065017132212718334 0.0903606802225113 0.08766955988747735 -0.0087597697973251318 -0.0071262460604712766 0.074440433581670129 0.002280189361708328 -0.00032796085290952564 -0.010363441240042449 0.012772430628538133 -0.0018716047385205154 0.092765926321347544 0.089670941233635004 0.087124422192573547 -0.006638263662656148 0.053097504501541465 0.069630853335062665 0.00041208474008362032 -0.0080344156920909883 0.079557258635759326 0.00279390336945653 0.078750619292259197 0.074927520751953122 0.0052062573208325157 0.013257985265756195
leaf_weight=18.000000000000004 5.9999999999999991 13.000000000000002 3.0000000000000009 4.9999999999999991 2.9999999999999991 5.9999999999999991 1.9999999999999989 6.9999999999999982 3 74 2.9999999999999991 771 109 7.9999999999999991 9.9999999999999982 5395 6 1.999999999999998 1.9999999999999989 6 5.9999999999999991 2.9999999999999991 1261 9.9999999999999982 8.0000000000000018 7.9999999999999982 4 2.9999999999999991 69 176
leaf_count=18 6 13 3 5 3 6 2 7 3 74 3 771 109 8 10 5395 6 2 2 6 6 3 1261 10 8 8 4 3 69 176
internal_value=-1.42492e-11 -0.000794852 -0.00167585 0.0483834 0.00244841 0.0114224 0.00962597 0.0190364 0.0587408 -0.000105308 0.00116143 0.00501228 0.0109705 0.0339965 0.0466708 -0.00174971 0.022607 0.049722 0.000990621 0.017439 0.0141347 0.00254124 0.000856561 0.0242101 0.0472418 -0.00220917 0.0281128 0.0115718 0.00903756 0.00806196
internal_weight=8000 6905 5430 8 1475 185 179 91 10 88 1290 1095 321 36 28 5422 27 14 1287 8 81 774 1285 24 14 86 12 78 75 285
internal_count=8000 6905 5430 8 1475 185 179 91 10 88 1290 1095 321 36 28 5422 27 14 1287 8 81 774 1285 24 14 86 12 78 75 285
is_linear=0
shrinkage=0.1


Tree=8
num_leaves=31
num_cat=0
split_feature=33 32 630 31 32 602 323 348 531 391 45 705 655 387 287 78 342 345 445 617 612 268 369 9 663 383 241 9 614 424
split_gain=2.68221 2.15022 1.75287 1.62201 1.59916 1.64908 1.84558 1.59936 1.43792 2.03914 1.86791 1.79353 1.75967 1.6263 1.44996 1.44053 1.42001 1.39153 2.13956 1.87897 2.31828 1.8457 1.78927 1.76405 1.6404 1.57389 2.17804 1.39089 1.38672 1.37417
threshold=-2.2355549335479732 -0.74041396379470814 -0.15707132965326306 -1.3943322896957395 -0.56830003857612599 -0.10848472267389296 -0.27042943239212031 0.22572274506092074 -0.27231962978839869 -0.79833078384399403 -0.20625366270542142 3.0685297250747685 -1.3689505457878111 0.86907279491424572 2.5244665145874028 5.2557029724121103 -1.9220383763313291 -8.81300184119134e-06 1.9619511961936953 0.050795149058103568 0.67412167787551891 6.3194773197174081 -0.87656697630882252 0.28939849138259893 -1.8625496625900266 0.5441691279411317 -0.52214908599853505 0.63780391216278087 0.0050263029406778523 5.783539056777955
decision_type=2 2 2 2 2 2 2 2 2 2 2 2 2 2 2 2 2 2 2 2 2 2 2 2 2 2 2 2 2 2
left_child=2 17 -1 8 28 6 -6 -8 9 10 -3 12 27 -13 -12 16 -14 21 19 22 23 -2 -19 -21 -24 26 -20 -11 -4 -26
right_child=1 3 4 -5 5 -7 7 -9 -10 11 14 13 15 -15 -16 -17 -18 18 25 20 -22 -23 24 -25 29 -27 -28 -29 -30 -31
leaf_value=-0.00062297460151045298 0.00032258376472472721 0.088659003376960754 0.043424162539568822 -0.0016942039943580987 -0.010165898626049354 0.0032774391805841813 0.073774375698783187 -0.0085976518690586094 -0.0011204345677872651 0.07679343819618227 -0.0097314730286598219 0.081143533190091474 0.062246443517506127 -0.0090312320739030817 0.088586407899856529 0.088425001502037054 0.0021369738860262766 0.039147178456187252 0.047320584813132886 -0.009476324238560414 0.076542959362268459 0.051832326714481625 0.076710985104242957 0.077032820383707679 0.0022759202035500647 0.071233340672084269 -0.001653266769079935 -0.0065999695410331079 -0.013088297247886658 0.085313206911087042
leaf_weight=73 1116 6 33 5509 6.0000000000000027 63 10.999999999999998 2.9999999999999991 262 5.9999999999999982 5.9999999999999982 5.9999999999999982 3.9999999999999991 3 1.9999999999999998 1.9999999999999989 225 13.999999999999998 15.999999999999998 11.000000000000002 7.9999999999999991 6.9999999999999991 2.9999999999999991 2.9999999999999991 564 6.9999999999999991 21 3 4.9999999999999991 1.9999999999999989
leaf_count=73 1116 6 33 5509 6 63 11 3 262 6 6 6 4 3 2 2 225 14 16 11 8 7 3 3 564 7 21 3 5 2
internal_value=-1.72295e-12 -0.000288661 0.0116149 -0.00118807 0.0189981 0.0112194 0.0362365 0.0561232 0.00412299 0.00934647 0.0464813 0.00725857 0.00561507 0.0510853 0.014848 0.00392491 0.00318692 0.00277399 0.00646022 0.0049118 0.0336001 0.00064366 0.00382923 0.00906135 0.00296024 0.027751 0.0195246 0.0489956 0.0359883 0.00256934
internal_weight=8000 7806 194 6034 121 83 20 14 525 263 14 249 240 9 8 231 229 1772 649 605 22 1123 583 14 569 44 37 9 38 566
internal_count=8000 7806 194 6034 121 83 20 14 525 263 14 249 240 9 8 231 229 1772 649 605 22 1123 583 14 569 44 37 9 38 566
is_linear=0
shrinkage=0.1


Tree=9
num_leaves=31
num_cat=0
split_feature=33 32 770 650 310 447 146 362 11 259 390 33 649 249 299 287 393 253 45 81 489 381 8 735 38 242 390 258 588 590
split_gain=2.3502 2.09941 2.10507 1.8715 1.64773 1.59192 1.5915 1.72503 1.92263 1.67151 1.70581 1.51464 1.50158 2.11952 1.41582 1.49139 1.85469 1.74354 1.65065 1.53901 1.48307 1.47922 1.4648 1.52352 1.46014 1.38825 1.30712 1.8476 1.38844 1.34254
threshold=0.23138290643692019 0.41526672244071966 1.9452964663505556 3.9461899995803837 0.053535386919975288 8.1539521217346209 1.0000000180025095e-35 -1.1137902140617368 0.68834179639816295 -0.47546018660068506 2.3909543752670293 -1.429281413555145 0.75091129541397106 -0.8345397114753722 2.3104951381683354 -0.60668107867240895 -0.65723812580108631 -0.30262824892997736 -0.20625366270542142 0.053996240720152862 0.51265686750411998 1.5879595875740053 0.62194913625717174 -0.35225865244865412 -0.16525971144437787 0.73840874433517467 -0.88411399722099293 -0.15297092497348783 3.0597943067550664 0.9520658850669862
decision_type=2 2 2 2 2 2 2 2 2 2 2 2 2 2 2 2 2 2 2 2 2 2 2 2 2 2 2 2 2 2
left_child=1 2 3 6 -5 -2 7 8 -1 -8 26 14 -13 -14 15 16 17 -9 -18 20 21 -17 23 -16 -22 -19 27 -11 29 -28
right_child=5 -3 -4 4 -6 -7 9 11 -10 10 -12 12 13 -15 22 19 18 25 -20 -21 24 -23 -24 -25 -26 -27 28 -29 -30 -31
leaf_value=0.079344714681307493 -0.0023840916714715395 -0.0011204923955657245 0.054210588522255423 0.065256492214070427 0.00056717459644590107 0.060745685733854776 0.056545688770711422 -0.012244794219732277 -0.010159303434193133 0.065095650984181283 0.062119326492150628 0.00059385062615720978 0.07689027587572729 0.0091237821988761434 0.073803974688053067 0.0065044462617676151 0.056235071520010629 0.064844527227037083 0.00024443755662718485 -0.0018471641642321284 -0.0097799313565095237 0.068338152766227719 0.066854315144675117 0.0076748508822034912 0.073605128696986627 -0.0089398453632990524 0.0010159316579349169 0.0084596872329711914 0.086693382263183599 0.059827730059623718
leaf_weight=5.9999999999999982 2859 2132 7.9999999999999991 8.9999999999999982 6.9999999999999991 3.9999999999999991 7.9999999999999991 5.0000000000000027 4 9.0000000000000018 5.9999999999999991 2282 6.0000000000000027 20 4.0000000000000027 118 5.9999999999999991 17.000000000000004 43 243 3 3.9999999999999991 6.9999999999999991 27 6.9999999999999982 2.9999999999999991 131 15.999999999999998 1.9999999999999989 3.9999999999999991
leaf_count=6 2859 2132 8 9 7 4 8 5 4 9 6 2282 6 20 4 118 6 17 43 243 3 4 7 27 7 3 131 16 2 4
internal_value=6.0536e-12 0.00127957 0.00298237 0.00284563 0.0369549 -0.00229589 0.00266255 0.00208377 0.0435431 0.0118868 0.00976022 0.00193544 0.000866111 0.0247622 0.00700321 0.00543463 0.0184086 0.0405725 0.00710043 0.00287443 0.0115665 0.00853178 0.0255373 0.0162076 0.0485896 0.0537769 0.00782099 0.0288486 0.00398383 0.0027585
internal_weight=8000 5137 3005 2997 16 2863 2981 2805 10 176 168 2795 2308 26 487 449 74 25 49 375 132 122 38 31 10 20 162 25 137 135
internal_count=8000 5137 3005 2997 16 2863 2981 2805 10 176 168 2795 2308 26 487 449 74 25 49 375 132 122 38 31 10 20 162 25 137 135
is_linear=0
shrinkage=0.1


Tree=10
num_leaves=31
num_cat=0
split_feature=33 10 32 633 368 379 241 506 561 24 424 633 5 369 348 503 631 23 222 446 382 31 12 631 245 647 107 105 580 241
split_gain=2.00275 1.77608 2.49786 1.93986 1.7878 1.74303 1.79752 1.63313 1.73677 2.06249 1.89039 1.62332 1.68533 1.69124 1.5516 1.40323 1.34611 1.77376 1.43754 1.3118 1.31122 1.30716 1.26666 1.90887 1.26409 1.26111 1.46586 1.30114 1.20909 1.20125
threshold=-2.2355549335479732 0.15834014862775805 -1.8443964123725889 -1.1790225505828855 -0.21978839486837384 -0.84826919436454762 0.014239176176488401 1.6328210830688479 -0.44451536238193506 -0.47748146951198572 1.0675160288810732 -0.79052814841270436 -0.23338212817907331 -0.8611043095588683 -0.15655823796987531 2.1247941255569462 -0.11953342705965041 1.0000000180025095e-35 1.0000000180025095e-35 7.3685412406921396 -1.3792961835861204 0.030369216576218609 1.4131813049316408 -0.11223334819078444 -1.1671246886253355 -2.9561287164688106 -0.72498033940792073 3.8121705055236821 6.8173367977142343 1.3681333661079409
decision_type=2 2 2 2 2 2 2 2 2 2 2 2 2 2 2 2 2 2 2 2 2 2 2 2 2 2 2 2 2 2
left_child=16 22 7 4 -4 6 11 8 9 -3 25 -5 -13 -14 -9 -16 -1 18 24 21 -8 -7 28 -24 -18 26 -10 -27 -2 -19
right_child=1 2 3 5 -6 19 20 14 10 -11 -12 12 13 -15 15 -17 17 29 -20 -21 -22 -23 23 -25 -26 27 -28 -29 -30 -31
leaf_value=-0.0015638987787745216 -0.0018008507656360564 0.067509659901261329 0.083055366277694651 0.079982322951157897 0.014550147554837169 0.00095718646225439574 0.076509481668472157 0.062733240831981993 0.077124156951904291 0.012737473980946976 0.073327651619911199 0.055052948556840398 -0.0082010535895824417 0.089695307612419131 -0.0090054557555251658 0.069966632127761802 0.072860588630040496 0.060325883902036227 0.059187445292870206 0.046775882318615916 -0.0075167567110978641 -0.0040940961179633936 0.087177528440952279 0.0025711179245263343 0.0070095144501588881 0.0018213364611364019 0.0038109060376882564 0.082820221781730652 0.075970435142517098 -0.009875372052192688
leaf_weight=66 4126 9.9999999999999982 5.0000000000000027 5.9999999999999991 15.999999999999998 2634 2.0000000000000027 11 5 22 3.9999999999999991 10.000000000000002 15.000000000000002 1.9999999999999989 8.9999999999999982 3.0000000000000009 2.9999999999999991 12.999999999999998 5.9999999999999991 5.9999999999999991 26 636 4 7.9999999999999982 103 236 5.9999999999999982 1.9999999999999989 1.9999999999999989 2.9999999999999991
leaf_count=66 4126 10 5 6 16 2634 2 11 5 22 4 10 15 2 9 3 3 13 6 6 26 636 4 8 103 236 6 2 2 3
internal_value=-8.54954e-11 -0.000249434 0.00135352 0.000562984 0.0308609 0.000372317 0.017121 0.00997244 0.00790384 0.0298538 0.00512756 0.0329333 0.0224779 0.00331617 0.0356051 0.0107376 0.0100365 0.0160179 0.0115686 6.04516e-05 -0.00151488 -2.52648e-05 -0.00166886 0.0307733 0.00887322 0.00403198 0.0371351 0.002502 -0.00176317 0.0471631
internal_weight=8000 7806 3666 3358 21 3337 61 308 285 32 253 33 27 17 23 12 194 128 112 3276 28 3270 4140 12 106 249 11 238 4128 16
internal_count=8000 7806 3666 3358 21 3337 61 308 285 32 253 33 27 17 23 12 194 128 112 3276 28 3270 4140 12 106 249 11 238 4128 16
is_linear=0
shrinkage=0.1


Tree=11
num_leaves=31
num_cat=0
split_feature=33 383 11 609 496 460 326 543 0 459 241 460 539 32 650 670 578 536 614 537 434 314 469 457 309 13 447 633 245 469
split_gain=1.76306 1.62308 1.58445 1.42561 1.85493 2.43369 2.0777 1.61192 1.45485 1.34933 2.31477 1.45695 1.32687 1.5524 1.32687 1.30803 1.3047 1.34694 2.41656 1.90675 1.43157 1.36784 1.53355 1.3036 1.27559 1.60516 1.26934 1.24245 1.67915 1.20792
threshold=0.23138290643692019 -0.1801950857043266 0.28991116583347326 0.047384800389409072 0.21559020876884463 -0.031561220064759248 1.5874769091606142 2.0984780788421635 1.4394615292549136 -0.1065411977469921 -0.49764798581600184 0.98028522729873668 3.2010519504547124 0.94959041476249706 -0.93913260102272023 12.544788837432863 1.5584322810173037 0.64060947299003612 -0.035368271172046654 1.2911921143531802 -1.84243768453598 2.127907514572144 0.43654081225395208 13.56912136077881 0.97370025515556347 0.90298840403556835 8.1539521217346209 -1.1790225505828855 0.03371811471879483 3.6523395776748662
decision_type=2 2 2 2 2 2 2 2 2 2 2 2 2 2 2 2 2 2 2 2 2 2 2 2 2 2 2 2 2 2
left_child=1 2 3 14 6 -6 7 9 -7 -5 -11 -12 16 -14 -1 27 17 23 19 20 -19 22 -22 29 -16 -26 -2 28 -3 -4
right_child=26 15 12 4 5 8 -8 -9 -10 10 11 -13 13 -15 24 -17 -18 18 -20 -21 21 -23 -24 -25 25 -27 -28 -29 -30 -31
leaf_value=0.080828717350959783 -0.0020672939580954133 0.00027686931192874901 0.0030260120248121604 -0.0047401501654504661 0.061424538120627405 0.001695687651634216 0.074630559980869302 0.090692019462585455 0.066650049388408669 0.069570820299642386 -0.0045896185003221025 0.08492715358734132 0.019167290853731561 0.094301120440165198 -0.0013866167159251512 0.065674171845118201 0.048786051677806037 0.060110589116811754 0.073366478511265348 0.07204791545867921 -0.0029673199686739184 0.070921997229258224 0.046370300757033488 0.084568178653717047 0.0025796099039523501 0.047696412354707722 0.054304525628685957 -0.00053685562865193751 0.064135512603180747 0.028588892362619703
leaf_weight=1.9999999999999989 2859 10.000000000000002 682 111 13.999999999999998 25.000000000000004 3.9999999999999991 1.9999999999999989 3.9999999999999991 7.0000000000000027 20.000000000000004 1.9999999999999989 33 2.9999999999999991 962 2.9999999999999991 6.9999999999999991 4.9999999999999991 6.9999999999999991 4.9999999999999991 63 2.9999999999999991 6.9999999999999991 1.9999999999999989 23 11.999999999999998 3.9999999999999991 3093 6.9999999999999991 19
leaf_count=2 2859 10 682 111 14 25 4 2 4 7 20 2 33 3 962 3 7 5 7 5 63 3 7 2 23 12 4 3093 7 19
internal_value=2.32831e-13 0.00110827 0.00331271 0.000965626 0.00892986 0.0271846 0.00355347 0.0015513 0.0106549 0.000277864 0.0194847 0.00354827 0.00664805 0.0254284 -0.000541121 -0.00032501 0.00580293 0.00542351 0.0169419 0.0121832 0.00834577 0.00480023 0.00196644 0.00394888 -0.00070435 0.0180482 -0.00198853 -0.000388674 0.0265716 0.00371887
internal_weight=8000 5137 2024 1188 189 43 146 142 29 140 29 22 836 36 999 3113 800 793 90 83 78 73 70 703 997 35 2863 3110 17 701
internal_count=8000 5137 2024 1188 189 43 146 142 29 140 29 22 836 36 999 3113 800 793 90 83 78 73 70 703 997 35 2863 3110 17 701
is_linear=0
shrinkage=0.1


Tree=12
num_leaves=31
num_cat=0
split_feature=32 273 770 610 636 313 336 539 389 694 0 35 457 635 365 239 647 13 607 258 286 31 601 14 347 337 384 6 19 101
split_gain=1.61169 1.51173 1.71198 1.50627 1.25597 1.78918 2.1995 2.12025 1.54031 1.39275 1.23552 1.21216 1.20402 1.19214 2.17191 2.12095 2.56129 1.83783 1.87303 1.65786 1.65238 1.52194 1.41157 1.33153 1.23486 1.21707 1.24999 1.22052 1.17343 1.13252
threshold=0.41526672244071966 1.0000000180025095e-35 1.9452964663505556 4.9326210021972665 1.0540604591369631 -0.44951091706752772 0.79901531338691723 2.8448208570480351 0.22475174814462665 1.7850173115730288 0.7758873999118806 -1.4395709633827207 13.56912136077881 -0.74043607711791981 -0.15113406628370282 1.0000000180025095e-35 -0.15295130014419553 1.7538444995880129 -1.0000000180025095e-35 5.2142610549926767 -1.621010363101959 0.22910539805889132 -0.91591328382492054 0.76553866267204296 -0.31352023780345911 -1.2077103853225706 8.1950607299804705 -0.17994907498359677 1.0000000180025095e-35 1.0000000180025095e-35
decision_type=2 2 2 2 2 2 2 2 2 2 2 2 2 2 2 2 2 2 2 2 2 2 2 2 2 2 2 2 2 2
left_child=1 12 3 4 13 -6 7 9 -8 11 -5 -7 -1 14 15 16 22 18 -17 25 -18 23 -3 28 -20 27 -27 -16 -22 -15
right_child=-2 2 -4 10 5 6 8 -9 -10 -11 -12 -13 -14 29 19 17 20 -19 24 -21 21 -23 -24 -25 -26 26 -28 -29 -30 -31
leaf_value=-0.00087217634652476885 -0.0015919564142003089 0.071243264277776094 0.049131259694695478 0.013089442439377305 -0.0038760383629192745 0.058479425311088566 0.072860309210690574 0.058108135478364104 0.015191705990582706 0.058805262297391893 0.068666426340738926 0.0022069535270500722 0.048260290846228598 0.00072235540879361836 0.076691624522209151 0.06928665488958359 -0.012155502885580064 0.071570695936679848 0.062403466304143278 0.091190412640571594 0.073774744073549905 0.0020287916064262389 -0.00069948144257068632 -0.0073567081242799761 -0.0028635301388973415 -0.0027365075048443447 0.053664021193981171 0.0053788111855586386 0.031433914808763397 0.076014417409896853
leaf_weight=2022 3543 2.9999999999999991 7.9999999999999991 12.000000000000002 59 3.9999999999999991 11.000000000000002 8.9999999999999982 7.9999999999999991 4.9999999999999991 5.9999999999999991 89 4.9999999999999991 1801 4 3.9999999999999991 4.9999999999999991 3.9999999999999991 2.9999999999999991 1.9999999999999989 24 5.9999999999999991 30 2.9999999999999991 86 223 3.9999999999999991 5.9999999999999982 8.9999999999999982 1.9999999999999989
leaf_count=2022 3543 3 8 12 59 4 11 9 8 5 6 89 5 1801 4 4 5 4 3 2 24 6 30 3 86 223 4 6 9 2
internal_value=-9.73232e-12 0.00126549 0.00294755 0.002795 0.00257921 0.0104954 0.0172249 0.0116573 0.0485788 0.00739146 0.0316151 0.00462727 -0.000750981 0.00191923 0.00674467 0.0151409 0.0271946 0.00519975 0.00234509 0.000526507 0.0421877 0.0486572 0.00584077 0.0564286 -0.000663519 -0.00023859 -0.00174267 0.0339039 0.0622272 0.000805874
internal_weight=8000 4457 2430 2422 2404 185 126 107 19 98 18 93 2027 2219 416 177 80 97 93 239 47 42 33 36 89 237 227 10 33 1803
internal_count=8000 4457 2430 2422 2404 185 126 107 19 98 18 93 2027 2219 416 177 80 97 93 239 47 42 33 36 89 237 227 10 33 1803
is_linear=0
shrinkage=0.1


Tree=13
num_leaves=31
num_cat=0
split_feature=33 31 446 656 634 434 244 10 390 721 77 110 383 6 379 279 11 10 558 640 366 12 241 448 388 606 130 321 552 509
split_gain=1.47296 1.22228 1.3303 1.20975 1.82707 1.27105 1.19303 1.13509 1.57978 1.36592 1.79197 1.24174 2.36699 1.19968 1.19168 1.15858 1.15847 1.48995 1.29906 1.21051 1.12137 1.10131 1.44537 1.03158 1.23039 1.75174 0.998274 0.984019 2.32641 1.66595
threshold=-1.1845307946205137 0.52850848436355602 7.9149081707000741 1.4440183639526369 -0.551173835992813 0.3562577515840531 -0.89285653829574574 0.22559271752834323 3.947840809822083 2.4152289628982548 -0.38069789856672281 1.0000000180025095e-35 -0.065666662529110895 -0.1342230141162872 -0.84826919436454762 1.4877023696899416 0.28149361908435827 1.4070381522178652 -0.86485719680786122 -0.49373808503150934 -0.51732680201530445 1.4131813049316408 -0.51948699355125416 2.9580841064453129 0.59914392232894909 1.5138852000236513 1.0000000180025095e-35 -0.6257793903350829 -0.44733776152133936 2.0369703769683842
decision_type=2 2 2 2 2 2 2 2 2 2 2 2 2 2 2 2 2 2 2 2 2 2 2 2 2 2 2 2 2 2
left_child=3 7 -3 27 20 6 -6 9 11 15 -11 14 -13 -10 16 21 19 18 -18 -9 -5 -2 -23 -16 26 -26 -25 28 -1 -30
right_child=1 2 -4 4 5 -7 -8 8 13 10 -12 12 -14 -15 23 -17 17 -19 -20 -21 -22 22 -24 24 25 -27 -28 -29 29 -31
leaf_value=0.083486304283142035 -0.0015271827447982528 -0.0036273778068522614 0.054138052649796015 0.05135313272476192 -0.0078605664893984795 -0.010129447529713315 0.076745499074459086 -0.00700166570427625 -0.01038438323885202 0.0017623682506382465 0.078076777458190916 0.072637827534760738 -0.0069873025640845316 0.084471417963504797 0.00069702838105233696 0.060744758943716684 0.026247168891131878 -0.0015972298654642972 0.079007979801722902 0.074108433723449704 -0.0069015473519500941 -0.0068809225223958465 0.078129974007606517 -0.0031696275497476258 0.015581129142083226 0.078940418859322875 0.057331089427073802 0.0023121250607614249 -0.0059988006250932804 0.075206933418909716
leaf_weight=5.0000000000000027 3053 1200 3.9999999999999991 4.0000000000000027 1.9999999999999989 2.9999999999999991 9.9999999999999982 23.000000000000004 1.9999999999999998 7.9999999999999991 4.9999999999999991 7 7.9999999999999982 3.9999999999999991 2491 2.9999999999999991 13.999999999999998 10.999999999999998 7.0000000000000027 1.9999999999999989 19 4.0000000000000009 3.9999999999999991 30 16.000000000000004 5.9999999999999991 2.9999999999999991 1033 16.000000000000004 2.9999999999999991
leaf_count=5 3053 1200 4 4 2 3 10 23 2 8 5 7 8 4 2491 3 14 11 7 2 19 4 4 30 16 6 3 1033 16 3
internal_value=-2.10945e-11 -0.000540351 -0.00343547 0.00340742 0.0209376 0.0480897 0.0626445 7.1071e-05 0.00159907 -0.00123197 0.0311141 0.0014816 0.0301711 0.0528528 0.00131628 -0.00136921 0.0156162 0.0282171 0.0438341 -0.000512858 0.0032297 -0.00143009 0.0356245 0.000996128 0.0145426 0.0328609 0.00233044 0.0027772 0.0227946 0.00682316
internal_weight=8000 6905 1204 1095 38 15 12 5701 2624 3077 13 2618 15 6 2603 3064 57 32 21 25 23 3061 8 2546 55 22 33 1057 24 19
internal_count=8000 6905 1204 1095 38 15 12 5701 2624 3077 13 2618 15 6 2603 3064 57 32 21 25 23 3061 8 2546 55 22 33 1057 24 19
is_linear=0
shrinkage=0.1


Tree=14
num_leaves=31
num_cat=0
split_feature=637 387 457 39 367 11 342 11 472 42 602 570 546 78 14 630 10 312 13 649 361 609 383 579 286 337 174 31 442 531
split_gain=1.33971 1.44116 1.53325 1.52176 1.50822 1.42079 1.69463 2.7612 2.01913 1.98187 1.75705 1.91596 1.56568 1.68842 1.42099 1.40852 2.02186 1.371 1.36127 1.35864 1.20666 1.17164 1.41639 1.5293 1.63001 1.86074 1.45625 1.15864 1.71526 1.67089
threshold=0.15307180583477023 0.5200277864933015 2.0335632562637334 7.0389165878295907 -0.87245428562164296 0.36941023170948034 0.28683353960514074 0.56956082582473766 0.98282673954963695 -0.27063813060522074 2.2751444578170781 -1.520091116428375 1.7944046258926394 1.0000000180025095e-35 0.90586400032043468 -0.092380214482545839 0.48177115619182592 -0.33962328732013697 1.5042158961296084 0.7374858856201173 -0.064101627096533761 0.047384800389409072 -0.41973167657852167 1.8420163393020632 -0.27620485424995417 0.24820318073034289 1.0000000180025095e-35 -1.3943322896957395 -0.096411842852830873 -0.36581593751907343
decision_type=2 2 2 2 2 2 2 2 2 2 2 2 2 2 2 2 2 2 2 2 2 2 2 2 2 2 2 2 2 2
left_child=27 21 3 4 20 19 7 8 9 -7 11 -9 -13 14 -14 18 -17 -8 -11 -6 -3 -2 23 24 25 -23 -24 28 -1 -30
right_child=1 2 -4 -5 5 6 17 10 -10 15 -12 12 13 -15 -16 16 -18 -19 -20 -21 -22 22 26 -25 -26 -27 -28 -29 29 -31
leaf_value=-0.002233652656536494 -0.00067054253506057266 0.077478816509246831 0.050144035322591665 0.093100035190582284 -0.0011120984762793711 0.093964062631130219 0.049534166753292086 0.051969156321138146 0.081465420871973046 -0.0041842836177065261 0.072400322556495672 -0.0048362165827442105 -0.0016079832799732682 0.085067015886306774 0.089436656236648565 0.0028137319322143256 0.074471874369515315 -0.0044616983425390874 0.067828168471654265 0.057609883788973096 0.016208378391133416 0.058881393580564413 -0.00035370319760103024 0.066615650802850729 0.0030946352459648822 0.0039207367395812818 0.060845838487148286 -0.0011715479936388498 0.017482749777516043 0.0023595392205860728
leaf_weight=268 1166 4.9999999999999991 7.9999999999999991 1.9999999999999989 263 3.9999999999999991 4.9999999999999991 7.9999999999999991 7.9999999999999991 21 3.9999999999999991 81 12.000000000000002 3.9999999999999991 1.9999999999999989 7.0000000000000062 8.9999999999999982 79 2.9999999999999991 3.9999999999999991 8.9999999999999982 14.000000000000002 139 5.9999999999999991 47 10.999999999999998 3.9999999999999991 5508 127 172
leaf_count=268 1166 5 8 2 263 4 5 8 8 21 4 81 12 4 2 7 9 79 3 4 9 14 139 6 47 11 4 5508 127 172
internal_value=-3.53903e-12 0.00229889 0.00669216 0.00603628 0.00570649 0.00482443 0.0102907 0.0162368 0.0352526 0.0268503 0.00732853 0.00489594 0.00109204 0.0277692 0.0113984 0.0201389 0.0431214 -0.00124766 0.00481727 -0.000232368 0.0380907 0.000594791 0.00727071 0.0181104 0.0140683 0.0346987 0.00135817 -0.000728454 0.00357589 0.00878311
internal_weight=8000 1925 538 530 528 514 247 163 52 44 111 107 99 18 14 40 16 84 24 267 14 1387 221 78 72 25 143 6075 567 299
internal_count=8000 1925 538 530 528 514 247 163 52 44 111 107 99 18 14 40 16 84 24 267 14 1387 221 78 72 25 143 6075 567 299
is_linear=0
shrinkage=0.1


Tree=15
num_leaves=31
num_cat=0
split_feature=146 361 32 14 520 428 588 11 435 373 375 33 246 253 242 340 620 131 701 241 242 345 254 251 362 434 246 374 496 649
split_gain=1.26667 1.44529 1.3035 1.92722 1.6707 1.4963 1.41705 1.37101 2.58221 1.31867 1.21908 1.13452 1.11792 1.06909 1.53609 1.28135 1.18624 1.5356 1.16108 1.34588 1.46829 1.2905 1.21474 1.46038 1.00723 1.65285 1.55121 0.957354 1.56419 1.42182
threshold=1.0000000180025095e-35 3.8702127933502202 0.017207436263561252 4.6946477890014657 2.5840530395507817 3.1901525259017949 1.9065385460853579 0.47696778178215032 0.38466550409793859 -1.2510343790054319 0.84085342288017284 -0.90997099876403797 -1.4035176038742063 0.48803249001502996 -0.57016018033027638 -0.21776887774467465 2.4089285135269169 -1.0000000180025095e-35 0.77947038412094127 -0.49328438937664026 0.057991387322545059 0.14591756463050845 0.29206852614879614 -0.37974411249160761 -1.1137902140617368 0.17245075106620791 -0.61927035450935353 -0.25773169100284571 3.6579726934432988 -2.715929269790649
decision_type=2 2 2 2 2 2 2 2 2 2 2 2 2 2 2 2 2 2 2 2 2 2 2 2 2 2 2 2 2 2
left_child=11 2 4 5 6 -4 7 9 10 -2 12 13 -9 16 15 -15 -1 -18 21 -20 -21 22 27 -24 25 26 -13 28 29 -16
right_child=1 -3 3 -5 -6 -7 -8 8 -10 -11 -12 24 -14 14 18 -17 17 -19 19 20 -22 -23 23 -25 -26 -27 -28 -29 -30 -31
leaf_value=-0.0011845812974673397 0.044850306399166588 0.089858600497245797 -0.0015620330418112563 0.069146723672747615 0.074903927743434906 0.069455546140670774 0.06213043332099915 0.078859087824821483 0.05075514531797834 -0.0036379394576300027 0.05628207892179489 -0.0049492107704281786 0.0030040096875061009 -0.0074286987384160341 0.064926840861638399 0.072613453368345904 -0.0062481675297021838 0.081376144289970406 -0.00081380811684271873 0.056866581312247672 0.0066961228847503664 0.083601704239845281 -0.010130121558904644 0.051201718097383331 -0.00097857379914060303 -0.0055693145554799291 0.071320261061191562 0.0053159928318364915 0.069184066851933804 -0.0043563619972421573
leaf_weight=636 5.9999999999999991 1.9999999999999989 268 3.9999999999999991 3.9999999999999991 2.9999999999999991 4.9999999999999991 1.9999999999999989 18 86 4.9999999999999991 4.0000000000000009 68 3 2.9999999999999991 5.9999999999999982 4.0000000000000009 3.9999999999999991 17 14.000000000000002 9.9999999999999982 1.9999999999999989 6.0000000000000027 10.999999999999998 6122 13 7.9999999999999991 429 2.9999999999999991 234
leaf_count=636 6 2 268 4 4 3 5 2 18 86 5 4 68 3 3 6 4 4 17 14 10 2 6 11 6122 13 8 429 3 234
internal_value=-2.7474e-12 0.00503088 0.00466915 0.000241195 0.0109459 -0.000775861 0.0095994 0.00817964 0.0167419 -0.000475663 0.00857868 -0.000314723 0.0051713 0.00227418 0.00487236 0.0459327 -0.000703233 0.037564 0.00436544 0.0207136 0.0359622 0.0033912 0.00315735 0.0295552 -0.000896773 0.0191346 0.0458971 0.00248655 -0.00257107 -0.00347936
internal_weight=8000 471 469 275 194 271 190 185 93 92 75 7529 70 1382 738 9 644 8 729 41 24 688 686 17 6147 25 12 669 240 237
internal_count=8000 471 469 275 194 271 190 185 93 92 75 7529 70 1382 738 9 644 8 729 41 24 688 686 17 6147 25 12 669 240 237
is_linear=0
shrinkage=0.1


Tree=16
num_leaves=31
num_cat=0
split_feature=691 693 498 247 611 52 577 633 141 691 32 33 1 573 636 37 367 511 519 555 642 300 382 528 631 614 243 264 642 32
split_gain=1.18977 2.51951 1.428 1.47747 1.76032 1.92806 1.58704 1.48266 1.29845 1.1994 1.13331 1.32324 1.25426 1.25223 1.34072 1.75932 1.27106 1.24293 1.63647 1.28724 1.61323 1.28014 1.30144 1.2569 1.194 1.23443 1.14588 1.12096 1.0779 1.0441
threshold=0.02475730795413256 -1.1021615266799925 2.3145916461944585 0.58363661170005809 0.27833575010299688 -0.36081290245056147 0.50997582077980053 2.4940155744552617 1.0000000180025095e-35 0.92490562796592724 -0.55422919988632191 -2.3717023134231563 1.0000000180025095e-35 5.7095239162445077 2.9820377676543643e-05 -1.9102022647857664 -0.9308875799179076 1.0984904766082766 1.2320076227188113 -0.43631243705749506 -0.29617014527320856 0.53210422396659862 -1.0000000180025095e-35 0.3052827268838883 -0.11609670892357825 0.0050263029406778523 -0.55746123194694508 0.17824227362871173 2.5178955793380742 -2.346509456634521
decision_type=2 2 2 2 2 2 2 2 2 2 2 2 2 2 2 2 2 2 2 2 2 2 2 2 2 2 2 2 2 2
left_child=10 -2 3 7 5 -5 -7 -3 -6 -8 11 24 13 14 16 -16 -13 18 21 20 -20 -17 -23 26 27 -26 -19 -1 29 -18
right_child=1 2 -4 4 8 6 9 -9 -10 -11 -12 12 -14 -15 15 17 28 23 19 -21 -22 22 -24 -25 25 -27 -28 -29 -30 -31
leaf_value=-0.0090067866970511036 0.076476874351501467 -0.00093093218343078812 0.089135062694549572 -0.0066071943276458326 -0.0001660301039616267 0.073594170808792089 0.0029130018005768463 0.085572880506515514 0.05900087356567383 0.068724609911441803 -0.00098043554176109951 0.047513462106386822 -0.00041705267524880696 0.069309262434641514 0.07720969319343568 -0.00098308651397625607 0.01576990434076897 0.070903062820434487 0.071080556511878945 -0.0014631570213370854 0.0084879199309008425 -0.011739433308442427 0.071573223471641551 0.051699567127686287 0.04223867051980712 -0.012806505858898164 0.0048330557843049371 0.070139953494071969 0.074464040994644168 -0.0005579198564239407
leaf_weight=17.000000000000004 4.9999999999999991 213 1.9999999999999989 8.9999999999999982 51 12.000000000000002 8.9999999999999982 1.9999999999999989 3.9999999999999991 3.9999999999999991 5626 5.9999999999999991 1329 2.9999999999999991 3.9999999999999991 120 43 3.0000000000000027 10.000000000000002 8.9999999999999982 7.0000000000000027 3.0000000000000009 4.9999999999999991 12.999999999999998 22.000000000000004 4.9999999999999991 21 1.9999999999999989 1.9999999999999989 439
leaf_count=17 5 213 2 9 51 12 9 2 4 4 5626 6 1329 3 4 120 43 3 10 9 7 3 5 13 22 5 21 2 2 439
internal_value=6.84522e-12 0.00606376 0.00491322 0.00435912 0.0151946 0.0330818 0.0473698 -0.000126246 0.00413702 0.0231627 -0.000245263 0.00175962 0.00137715 0.004843 0.00456066 0.0115737 0.00176977 0.0101991 0.006245 0.0291174 0.0453071 0.00159904 0.040331 0.0266567 0.0185301 0.0320451 0.0130918 -0.000675551 0.0012027 0.000898712
internal_weight=8000 311 306 304 89 34 25 215 55 13 7689 2063 2017 688 685 195 490 191 154 26 17 128 8 37 46 27 24 19 484 482
internal_count=8000 311 306 304 89 34 25 215 55 13 7689 2063 2017 688 685 195 490 191 154 26 17 128 8 37 46 27 24 19 484 482
is_linear=0
shrinkage=0.1


Tree=17
num_leaves=31
num_cat=0
split_feature=503 315 728 174 643 590 5 391 245 643 21 635 648 640 47 749 743 33 287 249 384 101 625 633 260 457 523 638 24 222
split_gain=1.05449 1.53426 1.35901 1.13051 1.98704 1.1362 1.03886 1.01278 1.37204 1.47641 1.64253 1.41105 1.20969 1.13169 1.0409 1.00658 2.36877 1.01841 0.980897 1.17416 0.933632 0.93352 0.93312 0.916281 0.973231 0.916014 0.879732 0.87782 0.842451 0.847964
threshold=1.1332959532737734 -3.5913658142089839 11.133124351501467 1.0000000180025095e-35 -0.35902363061904902 0.87676426768302929 0.040496757254004485 -0.79833078384399403 1.0934681296348574 0.24704439193010333 -0.71658974140882481 -0.8568764030933379 1.4528388977050783 -0.55972570180892933 0.30442851781845098 0.034043747000396259 -0.1311739310622215 -2.2355549335479732 1.2462170124053957 -0.94132834672927845 9.9146313667297381 1.0000000180025095e-35 24.073573112487797 4.5777583122253427 -0.30730739235877985 4.6495189666748056 5.5630552768707284 -6.7387149333953849 -1.7021161913871763 1.0000000180025095e-35
decision_type=2 2 2 2 2 2 2 2 2 2 2 2 2 2 2 2 2 2 2 2 2 2 2 2 2 2 2 2 2 2
left_child=7 6 3 23 -5 -6 -2 8 12 10 -10 -12 13 -1 -13 17 -17 18 28 -20 21 22 -19 25 -25 26 27 -3 -9 -30
right_child=1 2 -4 4 5 -7 -8 15 9 -11 11 14 -14 -15 -16 16 -18 20 19 -21 -22 -23 -24 24 -26 -27 -28 -29 29 -31
leaf_value=0.076238861680030828 0.08314384073019028 0.095062726736068734 0.085307744145393383 0.068674661804522752 -0.0058494111290201536 0.048763107582926755 -0.0051255119964480379 0.045023220181465151 0.075403997727802818 -0.0025665260459247392 0.059687380811997794 -8.3347699708408767e-05 0.050933306813240056 0.00073722773906688269 0.075961354374885562 0.081137181520462023 -0.0066040107980370535 -0.00094913049876188278 -0.0025676685074965161 0.054542298780547255 0.095723813772201544 0.06740148067474365 0.067366346716880798 -0.0049346687893072755 0.070412389934062958 0.04951971005648375 0.095281726121902471 0.0013121405551210046 0.0014171613290184929 0.03990947728355726
leaf_weight=1.9999999999999989 3.9999999999999991 0.999999999999999 1.9999999999999989 7.0000000000000027 16.000000000000004 4.9999999999999991 1.9999999999999998 4.9999999999999991 6.9999999999999991 19 7.0000000000000027 18.000000000000004 4.9999999999999991 269 1.9999999999999989 5 7.9999999999999982 6654 5.9999999999999991 8.9999999999999982 0.999999999999999 1.9999999999999989 1.9999999999999989 3 3.9999999999999991 3.9999999999999991 0.999999999999999 800 124 5.9999999999999991
leaf_count=2 4 1 2 7 16 5 2 5 7 19 7 18 5 269 2 5 8 6654 6 9 1 2 2 3 4 4 1 800 124 6
internal_value=-8.3819e-12 0.003332 0.00297336 0.00277756 0.0225338 0.00715357 0.0537207 -0.000395591 0.00502358 0.0197603 0.0322371 0.0210457 0.00219369 0.00129444 0.00752112 -0.000656937 0.0271426 -0.000710013 0.0074385 0.0316983 -0.000893566 -0.000908077 -0.000928603 0.00209715 0.0381208 0.00178429 0.00154621 0.00142918 0.00474297 0.00319373
internal_weight=8000 849 843 841 28 21 6 7151 329 53 34 27 276 271 20 6822 13 6809 150 15 6659 6658 6656 813 7 806 802 801 135 130
internal_count=8000 849 843 841 28 21 6 7151 329 53 34 27 276 271 20 6822 13 6809 150 15 6659 6658 6656 813 7 806 802 801 135 130
is_linear=0
shrinkage=0.1


Tree=18
num_leaves=31
num_cat=0
split_feature=31 691 693 579 559 320 527 502 309 557 631 387 552 77 635 81 34 387 640 570 32 692 311 446 634 696 341 497 24 587
split_gain=0.99021 1.19585 1.93505 1.33021 2.71567 1.96711 1.42282 1.39269 1.11692 1.1588 1.0724 1.20029 1.56141 1.52106 1.36956 1.45896 1.18003 1.21752 1.85441 1.47527 1.15662 1.09708 1.07804 1.06142 1.02302 1.01343 1.01186 0.971888 0.965759 0.939465
threshold=0.44254107773303991 0.02475730795413256 -1.1021615266799925 -0.12326683476567267 0.068316906690597548 -0.45728538930416102 -0.37687382102012629 -2.0075116753578182 0.8396461308002473 -0.10626141354441641 -0.1027712970972061 0.67284646630287182 -0.87491124868392933 -0.38069789856672281 -0.59361997246742237 0.8344988524913789 4.1289987564086923 0.74182298779487621 -0.13727755844593045 -0.8698856234550475 0.56484603881835949 -1.712505519390106 3.6868743896484379 7.9149081707000741 -1.1782016754150388 1.0000000180025095e-35 0.077456314116716399 18.214070320129398 -0.78364014625549305 2.6476569175720219
decision_type=2 2 2 2 2 2 2 2 2 2 2 2 2 2 2 2 2 2 2 2 2 2 2 2 2 2 2 2 2 2
left_child=1 10 -3 8 5 -5 -7 -6 24 -10 -1 21 13 26 28 -16 17 18 19 -14 -20 -12 29 27 -4 -23 -13 -2 -15 -19
right_child=23 2 3 4 7 6 -8 -9 9 -11 11 12 16 14 15 -17 -18 22 20 -21 -22 25 -24 -25 -26 -27 -28 -29 -30 -31
leaf_value=-0.00086076228292966239 -0.0025900238053092745 0.06874319851398468 0.048259850032627588 -0.0069747009004155758 0.069633044799168917 -0.0051827566077311711 0.06951441278352459 -0.00059819397671769068 0.006689840853214263 0.055964290350675586 0.061205563445885985 -0.0023240380848829566 0.072083717584609894 -0.0058580817654728893 -0.0015145539898764005 0.07715890010197958 0.058184538781642918 0.00044275617376589044 0.071022370457649239 -0.0019768005236983298 0.0063950421288609506 0.00058585561606894015 0.053432565927505497 0.049063158407807353 -0.0029608196428706573 0.045658978074789053 0.04323475187023481 0.096028751134872442 0.068785632774233801 0.033151678823762472
leaf_weight=3667 1432 4.9999999999999991 3.9999999999999991 6.0000000000000027 2.9999999999999991 3.0000000000000062 16.999999999999996 48 15.000000000000002 6.9999999999999991 2.9999999999999991 26 3.0000000000000027 1.9999999999999989 10.999999999999998 2.9999999999999991 3.9999999999999991 361 8.9999999999999982 26 3.9999999999999991 2144 3.9999999999999991 3.9999999999999991 155 4.9999999999999991 5.9999999999999991 0.999999999999999 13.000000000000002 8.9999999999999982
leaf_count=3667 1432 5 4 6 3 3 17 48 15 7 3 26 3 2 11 3 4 361 9 26 4 2144 4 4 155 5 6 1 13 9
internal_value=-9.59262e-12 0.00052059 0.00712723 0.00593312 0.016942 0.0432442 0.0583098 0.00353306 0.00124978 0.0223681 0.000244789 0.0017845 0.00630063 0.0212508 0.0378384 0.015344 0.0041293 0.00360953 0.0197532 0.00568463 0.051137 0.000775086 0.00179661 -0.00237761 -0.00167225 0.000690726 0.00621824 -0.0025212 0.0588331 0.00123838
internal_weight=8000 6563 263 258 77 26 20 51 181 22 6300 2633 481 61 29 14 420 416 42 29 13 2152 374 1437 159 2149 32 1433 15 370
